## LambdaMART
## No. of trees = 1000
## No. of leaves = 10
## No. of threshold candidates = 256
## Learning rate = 0.1
## Stop early = 100

<ensemble>
	<tree id="1" weight="0.1">
		<split>
			<feature> 39 </feature>
			<threshold> 0.6328125 </threshold>
			<split pos="left">
				<feature> 42 </feature>
				<threshold> 0.0078125 </threshold>
				<split pos="left">
					<output> -1.3407046794891357 </output>
				</split>
				<split pos="right">
					<feature> 38 </feature>
					<threshold> 0.359375 </threshold>
					<split pos="left">
						<output> -1.5591586828231812 </output>
					</split>
					<split pos="right">
						<feature> 46 </feature>
						<threshold> 0.59375 </threshold>
						<split pos="left">
							<feature> 44 </feature>
							<threshold> 0.203125 </threshold>
							<split pos="left">
								<output> -0.5037286281585693 </output>
							</split>
							<split pos="right">
								<feature> 5 </feature>
								<threshold> 0.1875 </threshold>
								<split pos="left">
									<output> -0.14499808847904205 </output>
								</split>
								<split pos="right">
									<output> 1.73814058303833 </output>
								</split>
							</split>
						</split>
						<split pos="right">
							<output> -1.292592167854309 </output>
						</split>
					</split>
				</split>
			</split>
			<split pos="right">
				<feature> 2 </feature>
				<threshold> 0.64 </threshold>
				<split pos="left">
					<feature> 39 </feature>
					<threshold> 0.78125 </threshold>
					<split pos="left">
						<output> 0.2337772697210312 </output>
					</split>
					<split pos="right">
						<feature> 29 </feature>
						<threshold> 0.8984375 </threshold>
						<split pos="left">
							<output> 0.8078151345252991 </output>
						</split>
						<split pos="right">
							<output> 1.5627521276474 </output>
						</split>
					</split>
				</split>
				<split pos="right">
					<output> 1.2797881364822388 </output>
				</split>
			</split>
		</split>
	</tree>
	<tree id="2" weight="0.1">
		<split>
			<feature> 39 </feature>
			<threshold> 0.79296875 </threshold>
			<split pos="left">
				<feature> 39 </feature>
				<threshold> 0.546875 </threshold>
				<split pos="left">
					<output> -1.4685519933700562 </output>
				</split>
				<split pos="right">
					<feature> 39 </feature>
					<threshold> 0.55078125 </threshold>
					<split pos="left">
						<output> 1.1162422895431519 </output>
					</split>
					<split pos="right">
						<output> -0.383901983499527 </output>
					</split>
				</split>
			</split>
			<split pos="right">
				<feature> 29 </feature>
				<threshold> 0.77734375 </threshold>
				<split pos="left">
					<feature> 12 </feature>
					<threshold> 0.47265625 </threshold>
					<split pos="left">
						<feature> 22 </feature>
						<threshold> 0.91796875 </threshold>
						<split pos="left">
							<output> 0.3799158036708832 </output>
						</split>
						<split pos="right">
							<output> 0.973006010055542 </output>
						</split>
					</split>
					<split pos="right">
						<output> 1.138596773147583 </output>
					</split>
				</split>
				<split pos="right">
					<feature> 11 </feature>
					<threshold> 0.02734375 </threshold>
					<split pos="left">
						<output> 1.7834527492523193 </output>
					</split>
					<split pos="right">
						<feature> 42 </feature>
						<threshold> 0.01953125 </threshold>
						<split pos="left">
							<output> 1.624078631401062 </output>
						</split>
						<split pos="right">
							<feature> 1 </feature>
							<threshold> 0.015625 </threshold>
							<split pos="left">
								<output> 1.591801643371582 </output>
							</split>
							<split pos="right">
								<output> 1.3012685775756836 </output>
							</split>
						</split>
					</split>
				</split>
			</split>
		</split>
	</tree>
	<tree id="3" weight="0.1">
		<split>
			<feature> 39 </feature>
			<threshold> 0.79296875 </threshold>
			<split pos="left">
				<output> -0.9950402975082397 </output>
			</split>
			<split pos="right">
				<feature> 29 </feature>
				<threshold> 0.77734375 </threshold>
				<split pos="left">
					<feature> 22 </feature>
					<threshold> 0.91796875 </threshold>
					<split pos="left">
						<output> 0.39489901065826416 </output>
					</split>
					<split pos="right">
						<feature> 22 </feature>
						<threshold> 0.921875 </threshold>
						<split pos="left">
							<output> 1.5631903409957886 </output>
						</split>
						<split pos="right">
							<feature> 45 </feature>
							<threshold> 0.0078125 </threshold>
							<split pos="left">
								<feature> 25 </feature>
								<threshold> 0.625 </threshold>
								<split pos="left">
									<output> 1.0283584594726562 </output>
								</split>
								<split pos="right">
									<output> 1.6180336475372314 </output>
								</split>
							</split>
							<split pos="right">
								<output> 0.48629215359687805 </output>
							</split>
						</split>
					</split>
				</split>
				<split pos="right">
					<feature> 11 </feature>
					<threshold> 0.01953125 </threshold>
					<split pos="left">
						<output> 1.6100342273712158 </output>
					</split>
					<split pos="right">
						<feature> 42 </feature>
						<threshold> 0.01953125 </threshold>
						<split pos="left">
							<feature> 23 </feature>
							<threshold> 0.76953125 </threshold>
							<split pos="left">
								<output> 1.6895949840545654 </output>
							</split>
							<split pos="right">
								<output> 1.4096975326538086 </output>
							</split>
						</split>
						<split pos="right">
							<output> 1.1883350610733032 </output>
						</split>
					</split>
				</split>
			</split>
		</split>
	</tree>
	<tree id="4" weight="0.1">
		<split>
			<feature> 39 </feature>
			<threshold> 0.79296875 </threshold>
			<split pos="left">
				<output> -0.9048512578010559 </output>
			</split>
			<split pos="right">
				<feature> 29 </feature>
				<threshold> 0.77734375 </threshold>
				<split pos="left">
					<feature> 22 </feature>
					<threshold> 0.91796875 </threshold>
					<split pos="left">
						<output> 0.327444851398468 </output>
					</split>
					<split pos="right">
						<feature> 22 </feature>
						<threshold> 0.92578125 </threshold>
						<split pos="left">
							<output> 1.3324350118637085 </output>
						</split>
						<split pos="right">
							<feature> 45 </feature>
							<threshold> 0.0078125 </threshold>
							<split pos="left">
								<output> 1.0351970195770264 </output>
							</split>
							<split pos="right">
								<output> 0.3999443054199219 </output>
							</split>
						</split>
					</split>
				</split>
				<split pos="right">
					<feature> 11 </feature>
					<threshold> 0.01953125 </threshold>
					<split pos="left">
						<output> 1.486467719078064 </output>
					</split>
					<split pos="right">
						<feature> 42 </feature>
						<threshold> 0.01953125 </threshold>
						<split pos="left">
							<feature> 23 </feature>
							<threshold> 0.76953125 </threshold>
							<split pos="left">
								<output> 1.5339409112930298 </output>
							</split>
							<split pos="right">
								<output> 1.2701162099838257 </output>
							</split>
						</split>
						<split pos="right">
							<feature> 23 </feature>
							<threshold> 0.70703125 </threshold>
							<split pos="left">
								<output> 1.5866382122039795 </output>
							</split>
							<split pos="right">
								<output> 1.0338505506515503 </output>
							</split>
						</split>
					</split>
				</split>
			</split>
		</split>
	</tree>
	<tree id="5" weight="0.1">
		<split>
			<feature> 39 </feature>
			<threshold> 0.79296875 </threshold>
			<split pos="left">
				<output> -0.7971204519271851 </output>
			</split>
			<split pos="right">
				<feature> 29 </feature>
				<threshold> 0.77734375 </threshold>
				<split pos="left">
					<feature> 22 </feature>
					<threshold> 0.91796875 </threshold>
					<split pos="left">
						<output> 0.2731033265590668 </output>
					</split>
					<split pos="right">
						<feature> 22 </feature>
						<threshold> 0.92578125 </threshold>
						<split pos="left">
							<output> 1.1553744077682495 </output>
						</split>
						<split pos="right">
							<feature> 45 </feature>
							<threshold> 0.0078125 </threshold>
							<split pos="left">
								<feature> 25 </feature>
								<threshold> 0.69140625 </threshold>
								<split pos="left">
									<output> 0.7355307936668396 </output>
								</split>
								<split pos="right">
									<output> 1.4068917036056519 </output>
								</split>
							</split>
							<split pos="right">
								<output> 0.29743489623069763 </output>
							</split>
						</split>
					</split>
				</split>
				<split pos="right">
					<feature> 11 </feature>
					<threshold> 0.01953125 </threshold>
					<split pos="left">
						<output> 1.3961741924285889 </output>
					</split>
					<split pos="right">
						<feature> 42 </feature>
						<threshold> 0.01953125 </threshold>
						<split pos="left">
							<output> 1.2140936851501465 </output>
						</split>
						<split pos="right">
							<feature> 23 </feature>
							<threshold> 0.70703125 </threshold>
							<split pos="left">
								<output> 1.4865885972976685 </output>
							</split>
							<split pos="right">
								<output> 0.9218741655349731 </output>
							</split>
						</split>
					</split>
				</split>
			</split>
		</split>
	</tree>
	<tree id="6" weight="0.1">
		<split>
			<feature> 39 </feature>
			<threshold> 0.79296875 </threshold>
			<split pos="left">
				<output> -0.7092086672782898 </output>
			</split>
			<split pos="right">
				<feature> 29 </feature>
				<threshold> 0.765625 </threshold>
				<split pos="left">
					<feature> 22 </feature>
					<threshold> 0.91796875 </threshold>
					<split pos="left">
						<output> 0.21738342940807343 </output>
					</split>
					<split pos="right">
						<feature> 22 </feature>
						<threshold> 0.92578125 </threshold>
						<split pos="left">
							<output> 1.0282065868377686 </output>
						</split>
						<split pos="right">
							<feature> 26 </feature>
							<threshold> 0.90625 </threshold>
							<split pos="left">
								<feature> 23 </feature>
								<threshold> 0.94140625 </threshold>
								<split pos="left">
									<output> -0.1377321481704712 </output>
								</split>
								<split pos="right">
									<output> 0.7607864141464233 </output>
								</split>
							</split>
							<split pos="right">
								<output> 1.0789767503738403 </output>
							</split>
						</split>
					</split>
				</split>
				<split pos="right">
					<feature> 11 </feature>
					<threshold> 0.01953125 </threshold>
					<split pos="left">
						<output> 1.3308327198028564 </output>
					</split>
					<split pos="right">
						<feature> 42 </feature>
						<threshold> 0.01953125 </threshold>
						<split pos="left">
							<output> 1.118031620979309 </output>
						</split>
						<split pos="right">
							<feature> 25 </feature>
							<threshold> 0.66796875 </threshold>
							<split pos="left">
								<output> 0.6130759716033936 </output>
							</split>
							<split pos="right">
								<output> 1.0215909481048584 </output>
							</split>
						</split>
					</split>
				</split>
			</split>
		</split>
	</tree>
	<tree id="7" weight="0.1">
		<split>
			<feature> 39 </feature>
			<threshold> 0.79296875 </threshold>
			<split pos="left">
				<output> -0.6378529667854309 </output>
			</split>
			<split pos="right">
				<feature> 29 </feature>
				<threshold> 0.76171875 </threshold>
				<split pos="left">
					<feature> 22 </feature>
					<threshold> 0.91796875 </threshold>
					<split pos="left">
						<output> 0.17348039150238037 </output>
					</split>
					<split pos="right">
						<feature> 45 </feature>
						<threshold> 0.01953125 </threshold>
						<split pos="left">
							<feature> 22 </feature>
							<threshold> 0.92578125 </threshold>
							<split pos="left">
								<output> 1.1300909519195557 </output>
							</split>
							<split pos="right">
								<output> 0.7179703712463379 </output>
							</split>
						</split>
						<split pos="right">
							<output> 0.11744100600481033 </output>
						</split>
					</split>
				</split>
				<split pos="right">
					<feature> 11 </feature>
					<threshold> 0.01953125 </threshold>
					<split pos="left">
						<output> 1.2746320962905884 </output>
					</split>
					<split pos="right">
						<feature> 42 </feature>
						<threshold> 0.2421875 </threshold>
						<split pos="left">
							<feature> 39 </feature>
							<threshold> 0.796875 </threshold>
							<split pos="left">
								<output> 1.247008204460144 </output>
							</split>
							<split pos="right">
								<feature> 5 </feature>
								<threshold> 0.03125 </threshold>
								<split pos="left">
									<output> 1.2380598783493042 </output>
								</split>
								<split pos="right">
									<output> 0.8572115898132324 </output>
								</split>
							</split>
						</split>
						<split pos="right">
							<output> 0.6726394295692444 </output>
						</split>
					</split>
				</split>
			</split>
		</split>
	</tree>
	<tree id="8" weight="0.1">
		<split>
			<feature> 39 </feature>
			<threshold> 0.78515625 </threshold>
			<split pos="left">
				<feature> 40 </feature>
				<threshold> 0.56640625 </threshold>
				<split pos="left">
					<output> -1.0094285011291504 </output>
				</split>
				<split pos="right">
					<output> -0.09385018050670624 </output>
				</split>
			</split>
			<split pos="right">
				<feature> 29 </feature>
				<threshold> 0.76953125 </threshold>
				<split pos="left">
					<feature> 22 </feature>
					<threshold> 0.91796875 </threshold>
					<split pos="left">
						<output> 0.1423557996749878 </output>
					</split>
					<split pos="right">
						<feature> 45 </feature>
						<threshold> 0.01953125 </threshold>
						<split pos="left">
							<feature> 22 </feature>
							<threshold> 0.92578125 </threshold>
							<split pos="left">
								<output> 0.995426595211029 </output>
							</split>
							<split pos="right">
								<output> 0.6395581364631653 </output>
							</split>
						</split>
						<split pos="right">
							<output> 0.07144559919834137 </output>
						</split>
					</split>
				</split>
				<split pos="right">
					<feature> 11 </feature>
					<threshold> 0.02734375 </threshold>
					<split pos="left">
						<output> 1.2803900241851807 </output>
					</split>
					<split pos="right">
						<feature> 25 </feature>
						<threshold> 0.7109375 </threshold>
						<split pos="left">
							<output> 0.5369858741760254 </output>
						</split>
						<split pos="right">
							<feature> 2 </feature>
							<threshold> 0.066667 </threshold>
							<split pos="left">
								<output> 1.2877548933029175 </output>
							</split>
							<split pos="right">
								<output> 0.92820805311203 </output>
							</split>
						</split>
					</split>
				</split>
			</split>
		</split>
	</tree>
	<tree id="9" weight="0.1">
		<split>
			<feature> 39 </feature>
			<threshold> 0.78515625 </threshold>
			<split pos="left">
				<output> -0.5355246663093567 </output>
			</split>
			<split pos="right">
				<feature> 29 </feature>
				<threshold> 0.76171875 </threshold>
				<split pos="left">
					<feature> 28 </feature>
					<threshold> 0.22265625 </threshold>
					<split pos="left">
						<feature> 30 </feature>
						<threshold> 0.94140625 </threshold>
						<split pos="left">
							<feature> 21 </feature>
							<threshold> 0.63671875 </threshold>
							<split pos="left">
								<output> -0.7344666719436646 </output>
							</split>
							<split pos="right">
								<feature> 19 </feature>
								<threshold> 0.384615 </threshold>
								<split pos="left">
									<output> 0.4469640552997589 </output>
								</split>
								<split pos="right">
									<output> -0.15764349699020386 </output>
								</split>
							</split>
						</split>
						<split pos="right">
							<output> -2.695692300796509 </output>
						</split>
					</split>
					<split pos="right">
						<output> 0.6298787593841553 </output>
					</split>
				</split>
				<split pos="right">
					<feature> 11 </feature>
					<threshold> 0.02734375 </threshold>
					<split pos="left">
						<output> 1.2440407276153564 </output>
					</split>
					<split pos="right">
						<feature> 25 </feature>
						<threshold> 0.7109375 </threshold>
						<split pos="left">
							<output> 0.4776904881000519 </output>
						</split>
						<split pos="right">
							<feature> 12 </feature>
							<threshold> 0.10546875 </threshold>
							<split pos="left">
								<output> 1.2116280794143677 </output>
							</split>
							<split pos="right">
								<output> 0.8629218935966492 </output>
							</split>
						</split>
					</split>
				</split>
			</split>
		</split>
	</tree>
	<tree id="10" weight="0.1">
		<split>
			<feature> 39 </feature>
			<threshold> 0.6328125 </threshold>
			<split pos="left">
				<output> -0.8040546178817749 </output>
			</split>
			<split pos="right">
				<feature> 29 </feature>
				<threshold> 0.75390625 </threshold>
				<split pos="left">
					<feature> 39 </feature>
					<threshold> 0.921875 </threshold>
					<split pos="left">
						<feature> 19 </feature>
						<threshold> 0.153846 </threshold>
						<split pos="left">
							<output> 0.5255566239356995 </output>
						</split>
						<split pos="right">
							<output> -0.12342890352010727 </output>
						</split>
					</split>
					<split pos="right">
						<feature> 22 </feature>
						<threshold> 0.91796875 </threshold>
						<split pos="left">
							<output> 0.09518904238939285 </output>
						</split>
						<split pos="right">
							<feature> 45 </feature>
							<threshold> 0.01953125 </threshold>
							<split pos="left">
								<feature> 38 </feature>
								<threshold> 0.8984375 </threshold>
								<split pos="left">
									<output> 1.2255948781967163 </output>
								</split>
								<split pos="right">
									<output> 0.7625730633735657 </output>
								</split>
							</split>
							<split pos="right">
								<output> 0.04296540096402168 </output>
							</split>
						</split>
					</split>
				</split>
				<split pos="right">
					<feature> 39 </feature>
					<threshold> 0.875 </threshold>
					<split pos="left">
						<output> 0.5319055914878845 </output>
					</split>
					<split pos="right">
						<feature> 23 </feature>
						<threshold> 0.87109375 </threshold>
						<split pos="left">
							<output> 1.1217358112335205 </output>
						</split>
						<split pos="right">
							<output> 0.743535041809082 </output>
						</split>
					</split>
				</split>
			</split>
		</split>
	</tree>
	<tree id="11" weight="0.1">
		<split>
			<feature> 39 </feature>
			<threshold> 0.78515625 </threshold>
			<split pos="left">
				<feature> 40 </feature>
				<threshold> 0.56640625 </threshold>
				<split pos="left">
					<output> -0.8980238437652588 </output>
				</split>
				<split pos="right">
					<feature> 16 </feature>
					<threshold> 0.01171875 </threshold>
					<split pos="left">
						<output> -0.3228595554828644 </output>
					</split>
					<split pos="right">
						<output> 0.25529515743255615 </output>
					</split>
				</split>
			</split>
			<split pos="right">
				<feature> 25 </feature>
				<threshold> 0.63671875 </threshold>
				<split pos="left">
					<feature> 42 </feature>
					<threshold> 0.06640625 </threshold>
					<split pos="left">
						<output> 0.6196757555007935 </output>
					</split>
					<split pos="right">
						<feature> 38 </feature>
						<threshold> 0.92578125 </threshold>
						<split pos="left">
							<output> -0.10121143609285355 </output>
						</split>
						<split pos="right">
							<output> 0.3653481602668762 </output>
						</split>
					</split>
				</split>
				<split pos="right">
					<feature> 11 </feature>
					<threshold> 0.125 </threshold>
					<split pos="left">
						<feature> 25 </feature>
						<threshold> 0.640625 </threshold>
						<split pos="left">
							<output> 1.2802925109863281 </output>
						</split>
						<split pos="right">
							<feature> 19 </feature>
							<threshold> 0.083333 </threshold>
							<split pos="left">
								<output> 1.1570003032684326 </output>
							</split>
							<split pos="right">
								<output> 0.76410973072052 </output>
							</split>
						</split>
					</split>
					<split pos="right">
						<output> 0.549487292766571 </output>
					</split>
				</split>
			</split>
		</split>
	</tree>
	<tree id="12" weight="0.1">
		<split>
			<feature> 25 </feature>
			<threshold> 0.70703125 </threshold>
			<split pos="left">
				<feature> 24 </feature>
				<threshold> 0.57421875 </threshold>
				<split pos="left">
					<output> -0.8242131471633911 </output>
				</split>
				<split pos="right">
					<feature> 22 </feature>
					<threshold> 0.90625 </threshold>
					<split pos="left">
						<feature> 18 </feature>
						<threshold> 0.26953125 </threshold>
						<split pos="left">
							<output> 0.1837058812379837 </output>
						</split>
						<split pos="right">
							<output> -0.26335084438323975 </output>
						</split>
					</split>
					<split pos="right">
						<feature> 5 </feature>
						<threshold> 0.05078125 </threshold>
						<split pos="left">
							<output> -0.04153771325945854 </output>
						</split>
						<split pos="right">
							<feature> 25 </feature>
							<threshold> 0.69140625 </threshold>
							<split pos="left">
								<output> 0.4810805916786194 </output>
							</split>
							<split pos="right">
								<output> 1.1550365686416626 </output>
							</split>
						</split>
					</split>
				</split>
			</split>
			<split pos="right">
				<feature> 23 </feature>
				<threshold> 0.765625 </threshold>
				<split pos="left">
					<output> 0.018253972753882408 </output>
				</split>
				<split pos="right">
					<feature> 11 </feature>
					<threshold> 0.015625 </threshold>
					<split pos="left">
						<output> 1.0858882665634155 </output>
					</split>
					<split pos="right">
						<feature> 42 </feature>
						<threshold> 0.2578125 </threshold>
						<split pos="left">
							<output> 0.8919267654418945 </output>
						</split>
						<split pos="right">
							<output> 0.45043209195137024 </output>
						</split>
					</split>
				</split>
			</split>
		</split>
	</tree>
	<tree id="13" weight="0.1">
		<split>
			<feature> 39 </feature>
			<threshold> 0.6328125 </threshold>
			<split pos="left">
				<output> -0.6516144871711731 </output>
			</split>
			<split pos="right">
				<feature> 25 </feature>
				<threshold> 0.72265625 </threshold>
				<split pos="left">
					<feature> 46 </feature>
					<threshold> 0.62890625 </threshold>
					<split pos="left">
						<feature> 22 </feature>
						<threshold> 0.90625 </threshold>
						<split pos="left">
							<feature> 37 </feature>
							<threshold> 0.203125 </threshold>
							<split pos="left">
								<output> 1.117031455039978 </output>
							</split>
							<split pos="right">
								<output> 0.049050040543079376 </output>
							</split>
						</split>
						<split pos="right">
							<feature> 23 </feature>
							<threshold> 0.93359375 </threshold>
							<split pos="left">
								<output> 0.13424678146839142 </output>
							</split>
							<split pos="right">
								<output> 0.5440621376037598 </output>
							</split>
						</split>
					</split>
					<split pos="right">
						<output> -0.7285479307174683 </output>
					</split>
				</split>
				<split pos="right">
					<feature> 23 </feature>
					<threshold> 0.765625 </threshold>
					<split pos="left">
						<output> 0.326255738735199 </output>
					</split>
					<split pos="right">
						<feature> 11 </feature>
						<threshold> 0.015625 </threshold>
						<split pos="left">
							<output> 1.0574935674667358 </output>
						</split>
						<split pos="right">
							<feature> 42 </feature>
							<threshold> 0.16796875 </threshold>
							<split pos="left">
								<output> 0.8551298379898071 </output>
							</split>
							<split pos="right">
								<output> 0.4927763342857361 </output>
							</split>
						</split>
					</split>
				</split>
			</split>
		</split>
	</tree>
	<tree id="14" weight="0.1">
		<split>
			<feature> 39 </feature>
			<threshold> 0.6328125 </threshold>
			<split pos="left">
				<output> -0.6072584986686707 </output>
			</split>
			<split pos="right">
				<feature> 25 </feature>
				<threshold> 0.72265625 </threshold>
				<split pos="left">
					<feature> 37 </feature>
					<threshold> 0.203125 </threshold>
					<split pos="left">
						<output> 1.0434547662734985 </output>
					</split>
					<split pos="right">
						<feature> 22 </feature>
						<threshold> 0.90625 </threshold>
						<split pos="left">
							<output> -0.007420682348310947 </output>
						</split>
						<split pos="right">
							<feature> 25 </feature>
							<threshold> 0.69140625 </threshold>
							<split pos="left">
								<feature> 45 </feature>
								<threshold> 0.01953125 </threshold>
								<split pos="left">
									<output> 0.4326605200767517 </output>
								</split>
								<split pos="right">
									<output> -0.11684154719114304 </output>
								</split>
							</split>
							<split pos="right">
								<output> 0.9395753741264343 </output>
							</split>
						</split>
					</split>
				</split>
				<split pos="right">
					<feature> 23 </feature>
					<threshold> 0.765625 </threshold>
					<split pos="left">
						<output> 0.2943720519542694 </output>
					</split>
					<split pos="right">
						<feature> 11 </feature>
						<threshold> 0.015625 </threshold>
						<split pos="left">
							<output> 1.0325652360916138 </output>
						</split>
						<split pos="right">
							<feature> 23 </feature>
							<threshold> 0.79296875 </threshold>
							<split pos="left">
								<output> 1.1287215948104858 </output>
							</split>
							<split pos="right">
								<output> 0.5156047940254211 </output>
							</split>
						</split>
					</split>
				</split>
			</split>
		</split>
	</tree>
	<tree id="15" weight="0.1">
		<split>
			<feature> 25 </feature>
			<threshold> 0.6953125 </threshold>
			<split pos="left">
				<feature> 24 </feature>
				<threshold> 0.57421875 </threshold>
				<split pos="left">
					<output> -0.7042896747589111 </output>
				</split>
				<split pos="right">
					<feature> 46 </feature>
					<threshold> 0.6328125 </threshold>
					<split pos="left">
						<feature> 29 </feature>
						<threshold> 0.765625 </threshold>
						<split pos="left">
							<feature> 23 </feature>
							<threshold> 0.9296875 </threshold>
							<split pos="left">
								<output> -0.016311120241880417 </output>
							</split>
							<split pos="right">
								<feature> 42 </feature>
								<threshold> 0.12890625 </threshold>
								<split pos="left">
									<output> 0.7261344790458679 </output>
								</split>
								<split pos="right">
									<output> 0.06568194180727005 </output>
								</split>
							</split>
						</split>
						<split pos="right">
							<output> 0.5424654483795166 </output>
						</split>
					</split>
					<split pos="right">
						<output> -0.6572418212890625 </output>
					</split>
				</split>
			</split>
			<split pos="right">
				<feature> 23 </feature>
				<threshold> 0.765625 </threshold>
				<split pos="left">
					<output> 0.015627143904566765 </output>
				</split>
				<split pos="right">
					<feature> 11 </feature>
					<threshold> 0.015625 </threshold>
					<split pos="left">
						<output> 1.0095888376235962 </output>
					</split>
					<split pos="right">
						<feature> 42 </feature>
						<threshold> 0.171875 </threshold>
						<split pos="left">
							<output> 0.7598397135734558 </output>
						</split>
						<split pos="right">
							<output> 0.3780200481414795 </output>
						</split>
					</split>
				</split>
			</split>
		</split>
	</tree>
	<tree id="16" weight="0.1">
		<split>
			<feature> 39 </feature>
			<threshold> 0.58203125 </threshold>
			<split pos="left">
				<output> -0.6111041903495789 </output>
			</split>
			<split pos="right">
				<feature> 25 </feature>
				<threshold> 0.72265625 </threshold>
				<split pos="left">
					<feature> 19 </feature>
					<threshold> 0.238095 </threshold>
					<split pos="left">
						<feature> 37 </feature>
						<threshold> 0.203125 </threshold>
						<split pos="left">
							<output> 1.0750517845153809 </output>
						</split>
						<split pos="right">
							<feature> 22 </feature>
							<threshold> 0.90625 </threshold>
							<split pos="left">
								<output> 0.12380329519510269 </output>
							</split>
							<split pos="right">
								<output> 0.4022941589355469 </output>
							</split>
						</split>
					</split>
					<split pos="right">
						<feature> 26 </feature>
						<threshold> 0.94140625 </threshold>
						<split pos="left">
							<feature> 25 </feature>
							<threshold> 0.40625 </threshold>
							<split pos="left">
								<feature> 29 </feature>
								<threshold> 0.8984375 </threshold>
								<split pos="left">
									<output> -0.27516719698905945 </output>
								</split>
								<split pos="right">
									<output> 0.8062937259674072 </output>
								</split>
							</split>
							<split pos="right">
								<output> 0.6296699643135071 </output>
							</split>
						</split>
						<split pos="right">
							<output> -1.7430171966552734 </output>
						</split>
					</split>
				</split>
				<split pos="right">
					<feature> 42 </feature>
					<threshold> 0.16796875 </threshold>
					<split pos="left">
						<output> 0.7291986346244812 </output>
					</split>
					<split pos="right">
						<output> 0.36683008074760437 </output>
					</split>
				</split>
			</split>
		</split>
	</tree>
	<tree id="17" weight="0.1">
		<split>
			<feature> 26 </feature>
			<threshold> 0.60546875 </threshold>
			<split pos="left">
				<feature> 40 </feature>
				<threshold> 0.56640625 </threshold>
				<split pos="left">
					<output> -0.6443894505500793 </output>
				</split>
				<split pos="right">
					<feature> 25 </feature>
					<threshold> 0.703125 </threshold>
					<split pos="left">
						<feature> 37 </feature>
						<threshold> 0.03125 </threshold>
						<split pos="left">
							<output> 1.3830455541610718 </output>
						</split>
						<split pos="right">
							<feature> 46 </feature>
							<threshold> 0.328125 </threshold>
							<split pos="left">
								<feature> 15 </feature>
								<threshold> 0.05078125 </threshold>
								<split pos="left">
									<output> -0.29633909463882446 </output>
								</split>
								<split pos="right">
									<feature> 38 </feature>
									<threshold> 0.921875 </threshold>
									<split pos="left">
										<output> 0.07566435635089874 </output>
									</split>
									<split pos="right">
										<output> 0.36472088098526 </output>
									</split>
								</split>
							</split>
							<split pos="right">
								<output> -0.41854193806648254 </output>
							</split>
						</split>
					</split>
					<split pos="right">
						<output> 0.5768483877182007 </output>
					</split>
				</split>
			</split>
			<split pos="right">
				<feature> 23 </feature>
				<threshold> 0.765625 </threshold>
				<split pos="left">
					<output> 0.16567149758338928 </output>
				</split>
				<split pos="right">
					<feature> 17 </feature>
					<threshold> 0.234375 </threshold>
					<split pos="left">
						<output> 0.7426010966300964 </output>
					</split>
					<split pos="right">
						<output> 0.23011861741542816 </output>
					</split>
				</split>
			</split>
		</split>
	</tree>
	<tree id="18" weight="0.1">
		<split>
			<feature> 26 </feature>
			<threshold> 0.60546875 </threshold>
			<split pos="left">
				<feature> 40 </feature>
				<threshold> 0.4609375 </threshold>
				<split pos="left">
					<output> -0.7201690077781677 </output>
				</split>
				<split pos="right">
					<feature> 12 </feature>
					<threshold> 0.6640625 </threshold>
					<split pos="left">
						<feature> 19 </feature>
						<threshold> 0.238095 </threshold>
						<split pos="left">
							<feature> 15 </feature>
							<threshold> 0.05078125 </threshold>
							<split pos="left">
								<output> -0.40913376212120056 </output>
							</split>
							<split pos="right">
								<feature> 37 </feature>
								<threshold> 0.03125 </threshold>
								<split pos="left">
									<output> 1.628452181816101 </output>
								</split>
								<split pos="right">
									<feature> 11 </feature>
									<threshold> 0.0546875 </threshold>
									<split pos="left">
										<output> 0.8900148272514343 </output>
									</split>
									<split pos="right">
										<feature> 18 </feature>
										<threshold> 0.3515625 </threshold>
										<split pos="left">
											<output> 0.39236223697662354 </output>
										</split>
										<split pos="right">
											<output> -0.17336469888687134 </output>
										</split>
									</split>
								</split>
							</split>
						</split>
						<split pos="right">
							<output> -0.18935486674308777 </output>
						</split>
					</split>
					<split pos="right">
						<output> 0.6559516787528992 </output>
					</split>
				</split>
			</split>
			<split pos="right">
				<feature> 23 </feature>
				<threshold> 0.765625 </threshold>
				<split pos="left">
					<output> 0.16972759366035461 </output>
				</split>
				<split pos="right">
					<output> 0.4601949453353882 </output>
				</split>
			</split>
		</split>
	</tree>
</ensemble>
