## LambdaMART
## No. of trees = 1000
## No. of leaves = 10
## No. of threshold candidates = 256
## Learning rate = 0.1
## Stop early = 100

<ensemble>
	<tree id="1" weight="0.1">
		<split>
			<feature> 134 </feature>
			<threshold> 0.0 </threshold>
			<split pos="left">
				<feature> 108 </feature>
				<threshold> 13.33966 </threshold>
				<split pos="left">
					<feature> 130 </feature>
					<threshold> 355.60547 </threshold>
					<split pos="left">
						<feature> 18 </feature>
						<threshold> 16.653086 </threshold>
						<split pos="left">
							<feature> 54 </feature>
							<threshold> 0.117647 </threshold>
							<split pos="left">
								<output> -0.6092148423194885 </output>
							</split>
							<split pos="right">
								<output> -0.09769177436828613 </output>
							</split>
						</split>
						<split pos="right">
							<output> -0.28024017810821533 </output>
						</split>
					</split>
					<split pos="right">
						<output> -0.13792701065540314 </output>
					</split>
				</split>
				<split pos="right">
					<feature> 17 </feature>
					<threshold> 7.759387 </threshold>
					<split pos="left">
						<output> 1.5240706205368042 </output>
					</split>
					<split pos="right">
						<feature> 109 </feature>
						<threshold> 17.95312 </threshold>
						<split pos="left">
							<feature> 3 </feature>
							<threshold> 2.0 </threshold>
							<split pos="left">
								<feature> 130 </feature>
								<threshold> 355.60547 </threshold>
								<split pos="left">
									<output> -0.08268797397613525 </output>
								</split>
								<split pos="right">
									<output> 0.26159512996673584 </output>
								</split>
							</split>
							<split pos="right">
								<output> 0.31413745880126953 </output>
							</split>
						</split>
						<split pos="right">
							<output> 0.45436930656433105 </output>
						</split>
					</split>
				</split>
			</split>
			<split pos="right">
				<output> 1.2003237009048462 </output>
			</split>
		</split>
	</tree>
	<tree id="2" weight="0.1">
		<split>
			<feature> 134 </feature>
			<threshold> 0.0 </threshold>
			<split pos="left">
				<feature> 109 </feature>
				<threshold> 17.95312 </threshold>
				<split pos="left">
					<feature> 108 </feature>
					<threshold> 13.33966 </threshold>
					<split pos="left">
						<output> -0.9604992270469666 </output>
					</split>
					<split pos="right">
						<output> -0.26863712072372437 </output>
					</split>
				</split>
				<split pos="right">
					<output> 0.5181006789207458 </output>
				</split>
			</split>
			<split pos="right">
				<feature> 130 </feature>
				<threshold> 62212.13 </threshold>
				<split pos="left">
					<feature> 5 </feature>
					<threshold> 2.0 </threshold>
					<split pos="left">
						<feature> 136 </feature>
						<threshold> 0.0 </threshold>
						<split pos="left">
							<output> 0.7176808714866638 </output>
						</split>
						<split pos="right">
							<feature> 129 </feature>
							<threshold> 2.0 </threshold>
							<split pos="left">
								<output> 0.9224038124084473 </output>
							</split>
							<split pos="right">
								<output> 1.167625069618225 </output>
							</split>
						</split>
					</split>
					<split pos="right">
						<output> 1.1972895860671997 </output>
					</split>
				</split>
				<split pos="right">
					<feature> 14 </feature>
					<threshold> 4.0 </threshold>
					<split pos="left">
						<feature> 110 </feature>
						<threshold> 25.626888 </threshold>
						<split pos="left">
							<output> 1.3729950189590454 </output>
						</split>
						<split pos="right">
							<output> 1.7246638536453247 </output>
						</split>
					</split>
					<split pos="right">
						<output> 1.1710305213928223 </output>
					</split>
				</split>
			</split>
		</split>
	</tree>
	<tree id="3" weight="0.1">
		<split>
			<feature> 134 </feature>
			<threshold> 0.0 </threshold>
			<split pos="left">
				<feature> 109 </feature>
				<threshold> 17.95312 </threshold>
				<split pos="left">
					<output> -0.6945943236351013 </output>
				</split>
				<split pos="right">
					<output> 0.4174335300922394 </output>
				</split>
			</split>
			<split pos="right">
				<feature> 130 </feature>
				<threshold> 62212.13 </threshold>
				<split pos="left">
					<feature> 129 </feature>
					<threshold> 2.0 </threshold>
					<split pos="left">
						<output> 0.8669323921203613 </output>
					</split>
					<split pos="right">
						<output> 1.0252552032470703 </output>
					</split>
				</split>
				<split pos="right">
					<feature> 14 </feature>
					<threshold> 4.0 </threshold>
					<split pos="left">
						<feature> 109 </feature>
						<threshold> 15.113054 </threshold>
						<split pos="left">
							<feature> 110 </feature>
							<threshold> 25.626888 </threshold>
							<split pos="left">
								<feature> 133 </feature>
								<threshold> 1.0 </threshold>
								<split pos="left">
									<output> 1.4160993099212646 </output>
								</split>
								<split pos="right">
									<feature> 103 </feature>
									<threshold> 0.94921875 </threshold>
									<split pos="left">
										<output> 1.013403058052063 </output>
									</split>
									<split pos="right">
										<output> 1.2237168550491333 </output>
									</split>
								</split>
							</split>
							<split pos="right">
								<output> 1.4787471294403076 </output>
							</split>
						</split>
						<split pos="right">
							<output> 1.5801894664764404 </output>
						</split>
					</split>
					<split pos="right">
						<output> 1.0345042943954468 </output>
					</split>
				</split>
			</split>
		</split>
	</tree>
	<tree id="4" weight="0.1">
		<split>
			<feature> 134 </feature>
			<threshold> 0.0 </threshold>
			<split pos="left">
				<feature> 109 </feature>
				<threshold> 17.95312 </threshold>
				<split pos="left">
					<output> -0.6057460904121399 </output>
				</split>
				<split pos="right">
					<output> 0.34057360887527466 </output>
				</split>
			</split>
			<split pos="right">
				<feature> 130 </feature>
				<threshold> 62212.13 </threshold>
				<split pos="left">
					<feature> 129 </feature>
					<threshold> 2.0 </threshold>
					<split pos="left">
						<output> 0.7383073568344116 </output>
					</split>
					<split pos="right">
						<output> 0.8979023098945618 </output>
					</split>
				</split>
				<split pos="right">
					<feature> 14 </feature>
					<threshold> 4.0 </threshold>
					<split pos="left">
						<feature> 109 </feature>
						<threshold> 17.1011 </threshold>
						<split pos="left">
							<feature> 133 </feature>
							<threshold> 1.0 </threshold>
							<split pos="left">
								<output> 1.284572720527649 </output>
							</split>
							<split pos="right">
								<feature> 110 </feature>
								<threshold> 25.626888 </threshold>
								<split pos="left">
									<feature> 103 </feature>
									<threshold> 0.94921875 </threshold>
									<split pos="left">
										<output> 0.9402858018875122 </output>
									</split>
									<split pos="right">
										<output> 1.096742033958435 </output>
									</split>
								</split>
								<split pos="right">
									<output> 1.3507755994796753 </output>
								</split>
							</split>
						</split>
						<split pos="right">
							<output> 1.5146424770355225 </output>
						</split>
					</split>
					<split pos="right">
						<output> 0.9082382917404175 </output>
					</split>
				</split>
			</split>
		</split>
	</tree>
	<tree id="5" weight="0.1">
		<split>
			<feature> 134 </feature>
			<threshold> 0.0 </threshold>
			<split pos="left">
				<feature> 3 </feature>
				<threshold> 2.0 </threshold>
				<split pos="left">
					<feature> 69 </feature>
					<threshold> 0.062578194 </threshold>
					<split pos="left">
						<output> -0.531379759311676 </output>
					</split>
					<split pos="right">
						<output> 1.6802326440811157 </output>
					</split>
				</split>
				<split pos="right">
					<output> 0.2937625050544739 </output>
				</split>
			</split>
			<split pos="right">
				<feature> 130 </feature>
				<threshold> 62212.13 </threshold>
				<split pos="left">
					<feature> 129 </feature>
					<threshold> 2.0 </threshold>
					<split pos="left">
						<output> 0.6338384747505188 </output>
					</split>
					<split pos="right">
						<output> 0.7805222272872925 </output>
					</split>
				</split>
				<split pos="right">
					<feature> 14 </feature>
					<threshold> 4.0 </threshold>
					<split pos="left">
						<feature> 109 </feature>
						<threshold> 17.1011 </threshold>
						<split pos="left">
							<feature> 133 </feature>
							<threshold> 1.0 </threshold>
							<split pos="left">
								<output> 1.1738619804382324 </output>
							</split>
							<split pos="right">
								<feature> 110 </feature>
								<threshold> 25.626888 </threshold>
								<split pos="left">
									<output> 0.9251086115837097 </output>
								</split>
								<split pos="right">
									<output> 1.24184250831604 </output>
								</split>
							</split>
						</split>
						<split pos="right">
							<output> 1.4072113037109375 </output>
						</split>
					</split>
					<split pos="right">
						<output> 0.799247682094574 </output>
					</split>
				</split>
			</split>
		</split>
	</tree>
	<tree id="6" weight="0.1">
		<split>
			<feature> 134 </feature>
			<threshold> 0.0 </threshold>
			<split pos="left">
				<feature> 109 </feature>
				<threshold> 17.95312 </threshold>
				<split pos="left">
					<feature> 108 </feature>
					<threshold> 13.33966 </threshold>
					<split pos="left">
						<output> -0.6710209846496582 </output>
					</split>
					<split pos="right">
						<output> -0.13738234341144562 </output>
					</split>
				</split>
				<split pos="right">
					<output> 0.3006744682788849 </output>
				</split>
			</split>
			<split pos="right">
				<feature> 130 </feature>
				<threshold> 62467.734 </threshold>
				<split pos="left">
					<feature> 129 </feature>
					<threshold> 2.0 </threshold>
					<split pos="left">
						<output> 0.5508082509040833 </output>
					</split>
					<split pos="right">
						<output> 0.6945805549621582 </output>
					</split>
				</split>
				<split pos="right">
					<feature> 14 </feature>
					<threshold> 4.0 </threshold>
					<split pos="left">
						<feature> 109 </feature>
						<threshold> 15.113054 </threshold>
						<split pos="left">
							<feature> 133 </feature>
							<threshold> 1.0 </threshold>
							<split pos="left">
								<output> 1.0596544742584229 </output>
							</split>
							<split pos="right">
								<feature> 103 </feature>
								<threshold> 0.94921875 </threshold>
								<split pos="left">
									<output> 0.7448514103889465 </output>
								</split>
								<split pos="right">
									<output> 0.9421581029891968 </output>
								</split>
							</split>
						</split>
						<split pos="right">
							<output> 1.2429603338241577 </output>
						</split>
					</split>
					<split pos="right">
						<output> 0.734582781791687 </output>
					</split>
				</split>
			</split>
		</split>
	</tree>
	<tree id="7" weight="0.1">
		<split>
			<feature> 134 </feature>
			<threshold> 0.0 </threshold>
			<split pos="left">
				<feature> 3 </feature>
				<threshold> 2.0 </threshold>
				<split pos="left">
					<feature> 69 </feature>
					<threshold> 0.062578194 </threshold>
					<split pos="left">
						<feature> 63 </feature>
						<threshold> 0.04296875 </threshold>
						<split pos="left">
							<output> -0.6625308990478516 </output>
						</split>
						<split pos="right">
							<output> -0.2850428819656372 </output>
						</split>
					</split>
					<split pos="right">
						<output> 1.4083473682403564 </output>
					</split>
				</split>
				<split pos="right">
					<output> 0.27212053537368774 </output>
				</split>
			</split>
			<split pos="right">
				<feature> 130 </feature>
				<threshold> 62723.34 </threshold>
				<split pos="left">
					<feature> 129 </feature>
					<threshold> 2.0 </threshold>
					<split pos="left">
						<output> 0.4761374890804291 </output>
					</split>
					<split pos="right">
						<output> 0.6153144836425781 </output>
					</split>
				</split>
				<split pos="right">
					<feature> 14 </feature>
					<threshold> 4.0 </threshold>
					<split pos="left">
						<feature> 109 </feature>
						<threshold> 13.977026 </threshold>
						<split pos="left">
							<feature> 106 </feature>
							<threshold> 20.208483 </threshold>
							<split pos="left">
								<output> 0.726738691329956 </output>
							</split>
							<split pos="right">
								<output> 1.031153917312622 </output>
							</split>
						</split>
						<split pos="right">
							<output> 1.1385324001312256 </output>
						</split>
					</split>
					<split pos="right">
						<output> 0.6708807945251465 </output>
					</split>
				</split>
			</split>
		</split>
	</tree>
	<tree id="8" weight="0.1">
		<split>
			<feature> 134 </feature>
			<threshold> 0.0 </threshold>
			<split pos="left">
				<feature> 109 </feature>
				<threshold> 17.95312 </threshold>
				<split pos="left">
					<feature> 63 </feature>
					<threshold> 0.04296875 </threshold>
					<split pos="left">
						<output> -0.6724916100502014 </output>
					</split>
					<split pos="right">
						<feature> 20 </feature>
						<threshold> 14.426507 </threshold>
						<split pos="left">
							<output> -0.2872775197029114 </output>
						</split>
						<split pos="right">
							<output> 0.18870790302753448 </output>
						</split>
					</split>
				</split>
				<split pos="right">
					<output> 0.24502778053283691 </output>
				</split>
			</split>
			<split pos="right">
				<feature> 130 </feature>
				<threshold> 62467.734 </threshold>
				<split pos="left">
					<feature> 129 </feature>
					<threshold> 2.0 </threshold>
					<split pos="left">
						<output> 0.4154079258441925 </output>
					</split>
					<split pos="right">
						<output> 0.5451412200927734 </output>
					</split>
				</split>
				<split pos="right">
					<feature> 14 </feature>
					<threshold> 4.0 </threshold>
					<split pos="left">
						<feature> 109 </feature>
						<threshold> 17.1011 </threshold>
						<split pos="left">
							<feature> 133 </feature>
							<threshold> 1.0 </threshold>
							<split pos="left">
								<output> 0.9475308060646057 </output>
							</split>
							<split pos="right">
								<output> 0.7297317981719971 </output>
							</split>
						</split>
						<split pos="right">
							<output> 1.2123898267745972 </output>
						</split>
					</split>
					<split pos="right">
						<output> 0.5916392207145691 </output>
					</split>
				</split>
			</split>
		</split>
	</tree>
	<tree id="9" weight="0.1">
		<split>
			<feature> 134 </feature>
			<threshold> 0.0 </threshold>
			<split pos="left">
				<feature> 3 </feature>
				<threshold> 2.0 </threshold>
				<split pos="left">
					<feature> 65 </feature>
					<threshold> 0.0062575703 </threshold>
					<split pos="left">
						<output> -0.6338045597076416 </output>
					</split>
					<split pos="right">
						<feature> 69 </feature>
						<threshold> 0.062578194 </threshold>
						<split pos="left">
							<feature> 16 </feature>
							<threshold> 17.152155 </threshold>
							<split pos="left">
								<output> -0.2821889817714691 </output>
							</split>
							<split pos="right">
								<output> 0.15769557654857635 </output>
							</split>
						</split>
						<split pos="right">
							<output> 1.2877590656280518 </output>
						</split>
					</split>
				</split>
				<split pos="right">
					<output> 0.24541106820106506 </output>
				</split>
			</split>
			<split pos="right">
				<feature> 130 </feature>
				<threshold> 62723.34 </threshold>
				<split pos="left">
					<feature> 129 </feature>
					<threshold> 2.0 </threshold>
					<split pos="left">
						<output> 0.35671499371528625 </output>
					</split>
					<split pos="right">
						<output> 0.4830522835254669 </output>
					</split>
				</split>
				<split pos="right">
					<feature> 14 </feature>
					<threshold> 4.0 </threshold>
					<split pos="left">
						<feature> 110 </feature>
						<threshold> 22.892632 </threshold>
						<split pos="left">
							<output> 0.6301746964454651 </output>
						</split>
						<split pos="right">
							<output> 1.0300661325454712 </output>
						</split>
					</split>
					<split pos="right">
						<output> 0.5352267026901245 </output>
					</split>
				</split>
			</split>
		</split>
	</tree>
	<tree id="10" weight="0.1">
		<split>
			<feature> 134 </feature>
			<threshold> 0.0 </threshold>
			<split pos="left">
				<feature> 108 </feature>
				<threshold> 13.33966 </threshold>
				<split pos="left">
					<output> -0.4256754517555237 </output>
				</split>
				<split pos="right">
					<feature> 4 </feature>
					<threshold> 3.0 </threshold>
					<split pos="left">
						<feature> 117 </feature>
						<threshold> -4.216857 </threshold>
						<split pos="left">
							<feature> 3 </feature>
							<threshold> 2.0 </threshold>
							<split pos="left">
								<output> -0.07178419828414917 </output>
							</split>
							<split pos="right">
								<output> 0.20104269683361053 </output>
							</split>
						</split>
						<split pos="right">
							<output> 0.6979297995567322 </output>
						</split>
					</split>
					<split pos="right">
						<output> 0.6027474999427795 </output>
					</split>
				</split>
			</split>
			<split pos="right">
				<feature> 130 </feature>
				<threshold> 62723.34 </threshold>
				<split pos="left">
					<feature> 18 </feature>
					<threshold> 16.653086 </threshold>
					<split pos="left">
						<output> 0.22325043380260468 </output>
					</split>
					<split pos="right">
						<output> 0.5628159046173096 </output>
					</split>
				</split>
				<split pos="right">
					<feature> 110 </feature>
					<threshold> 25.626888 </threshold>
					<split pos="left">
						<feature> 14 </feature>
						<threshold> 4.0 </threshold>
						<split pos="left">
							<output> 0.600602388381958 </output>
						</split>
						<split pos="right">
							<output> 0.3582645654678345 </output>
						</split>
					</split>
					<split pos="right">
						<output> 0.9753495454788208 </output>
					</split>
				</split>
			</split>
		</split>
	</tree>
	<tree id="11" weight="0.1">
		<split>
			<feature> 134 </feature>
			<threshold> 0.0 </threshold>
			<split pos="left">
				<feature> 4 </feature>
				<threshold> 3.0 </threshold>
				<split pos="left">
					<feature> 65 </feature>
					<threshold> 0.0062575703 </threshold>
					<split pos="left">
						<output> -0.5968406796455383 </output>
					</split>
					<split pos="right">
						<feature> 3 </feature>
						<threshold> 2.0 </threshold>
						<split pos="left">
							<feature> 69 </feature>
							<threshold> 0.062578194 </threshold>
							<split pos="left">
								<feature> 20 </feature>
								<threshold> 19.808985 </threshold>
								<split pos="left">
									<output> -0.18705013394355774 </output>
								</split>
								<split pos="right">
									<output> 0.21947525441646576 </output>
								</split>
							</split>
							<split pos="right">
								<output> 1.2069127559661865 </output>
							</split>
						</split>
						<split pos="right">
							<output> 0.1810620129108429 </output>
						</split>
					</split>
				</split>
				<split pos="right">
					<output> 0.5729278326034546 </output>
				</split>
			</split>
			<split pos="right">
				<feature> 130 </feature>
				<threshold> 62467.734 </threshold>
				<split pos="left">
					<feature> 18 </feature>
					<threshold> 16.653086 </threshold>
					<split pos="left">
						<output> 0.17811502516269684 </output>
					</split>
					<split pos="right">
						<output> 0.5096046328544617 </output>
					</split>
				</split>
				<split pos="right">
					<feature> 110 </feature>
					<threshold> 25.626888 </threshold>
					<split pos="left">
						<output> 0.4659436047077179 </output>
					</split>
					<split pos="right">
						<output> 0.9132717847824097 </output>
					</split>
				</split>
			</split>
		</split>
	</tree>
	<tree id="12" weight="0.1">
		<split>
			<feature> 134 </feature>
			<threshold> 0.0 </threshold>
			<split pos="left">
				<feature> 4 </feature>
				<threshold> 3.0 </threshold>
				<split pos="left">
					<feature> 65 </feature>
					<threshold> 0.0062575703 </threshold>
					<split pos="left">
						<output> -0.562538743019104 </output>
					</split>
					<split pos="right">
						<feature> 3 </feature>
						<threshold> 2.0 </threshold>
						<split pos="left">
							<feature> 69 </feature>
							<threshold> 0.062578194 </threshold>
							<split pos="left">
								<feature> 20 </feature>
								<threshold> 19.808985 </threshold>
								<split pos="left">
									<output> -0.16158464550971985 </output>
								</split>
								<split pos="right">
									<output> 0.20944465696811676 </output>
								</split>
							</split>
							<split pos="right">
								<output> 1.1485707759857178 </output>
							</split>
						</split>
						<split pos="right">
							<output> 0.1847061961889267 </output>
						</split>
					</split>
				</split>
				<split pos="right">
					<output> 0.5242036581039429 </output>
				</split>
			</split>
			<split pos="right">
				<feature> 130 </feature>
				<threshold> 64512.58 </threshold>
				<split pos="left">
					<feature> 18 </feature>
					<threshold> 16.653086 </threshold>
					<split pos="left">
						<feature> 136 </feature>
						<threshold> 0.0 </threshold>
						<split pos="left">
							<output> -0.229267880320549 </output>
						</split>
						<split pos="right">
							<output> 0.20807062089443207 </output>
						</split>
					</split>
					<split pos="right">
						<output> 0.4898259937763214 </output>
					</split>
				</split>
				<split pos="right">
					<output> 0.5574597716331482 </output>
				</split>
			</split>
		</split>
	</tree>
	<tree id="13" weight="0.1">
		<split>
			<feature> 134 </feature>
			<threshold> 0.0 </threshold>
			<split pos="left">
				<feature> 108 </feature>
				<threshold> 15.562936 </threshold>
				<split pos="left">
					<feature> 115 </feature>
					<threshold> -8.260539 </threshold>
					<split pos="left">
						<output> -0.4360532760620117 </output>
					</split>
					<split pos="right">
						<output> -0.07127261161804199 </output>
					</split>
				</split>
				<split pos="right">
					<feature> 4 </feature>
					<threshold> 3.0 </threshold>
					<split pos="left">
						<feature> 117 </feature>
						<threshold> -4.216857 </threshold>
						<split pos="left">
							<output> 0.08042251318693161 </output>
						</split>
						<split pos="right">
							<output> 0.6151082515716553 </output>
						</split>
					</split>
					<split pos="right">
						<output> 0.49071818590164185 </output>
					</split>
				</split>
			</split>
			<split pos="right">
				<feature> 130 </feature>
				<threshold> 64768.184 </threshold>
				<split pos="left">
					<feature> 18 </feature>
					<threshold> 16.653086 </threshold>
					<split pos="left">
						<feature> 111 </feature>
						<threshold> -24.868958 </threshold>
						<split pos="left">
							<output> 1.2622888088226318 </output>
						</split>
						<split pos="right">
							<feature> 109 </feature>
							<threshold> 15.9650755 </threshold>
							<split pos="left">
								<output> 0.06424794346094131 </output>
							</split>
							<split pos="right">
								<output> 0.43319466710090637 </output>
							</split>
						</split>
					</split>
					<split pos="right">
						<output> 0.4524316191673279 </output>
					</split>
				</split>
				<split pos="right">
					<output> 0.5188855528831482 </output>
				</split>
			</split>
		</split>
	</tree>
	<tree id="14" weight="0.1">
		<split>
			<feature> 134 </feature>
			<threshold> 0.0 </threshold>
			<split pos="left">
				<feature> 108 </feature>
				<threshold> 15.562936 </threshold>
				<split pos="left">
					<feature> 115 </feature>
					<threshold> -8.260539 </threshold>
					<split pos="left">
						<output> -0.44937431812286377 </output>
					</split>
					<split pos="right">
						<output> -0.057414792478084564 </output>
					</split>
				</split>
				<split pos="right">
					<feature> 4 </feature>
					<threshold> 3.0 </threshold>
					<split pos="left">
						<feature> 66 </feature>
						<threshold> 0.0 </threshold>
						<split pos="left">
							<output> -0.12161844223737717 </output>
						</split>
						<split pos="right">
							<feature> 117 </feature>
							<threshold> -7.0282564 </threshold>
							<split pos="left">
								<output> 0.15976598858833313 </output>
							</split>
							<split pos="right">
								<output> 0.883732795715332 </output>
							</split>
						</split>
					</split>
					<split pos="right">
						<output> 0.4378127157688141 </output>
					</split>
				</split>
			</split>
			<split pos="right">
				<feature> 130 </feature>
				<threshold> 64512.58 </threshold>
				<split pos="left">
					<feature> 136 </feature>
					<threshold> 0.0 </threshold>
					<split pos="left">
						<output> -0.11669617891311646 </output>
					</split>
					<split pos="right">
						<feature> 110 </feature>
						<threshold> 25.626888 </threshold>
						<split pos="left">
							<output> 0.15939433872699738 </output>
						</split>
						<split pos="right">
							<output> 0.499467134475708 </output>
						</split>
					</split>
				</split>
				<split pos="right">
					<output> 0.46435219049453735 </output>
				</split>
			</split>
		</split>
	</tree>
	<tree id="15" weight="0.1">
		<split>
			<feature> 134 </feature>
			<threshold> 0.0 </threshold>
			<split pos="left">
				<feature> 65 </feature>
				<threshold> 0.0062575703 </threshold>
				<split pos="left">
					<output> -0.49561163783073425 </output>
				</split>
				<split pos="right">
					<feature> 4 </feature>
					<threshold> 3.0 </threshold>
					<split pos="left">
						<feature> 108 </feature>
						<threshold> 17.786213 </threshold>
						<split pos="left">
							<feature> 69 </feature>
							<threshold> 0.062578194 </threshold>
							<split pos="left">
								<feature> 101 </feature>
								<threshold> 0.296875 </threshold>
								<split pos="left">
									<output> 0.18415787816047668 </output>
								</split>
								<split pos="right">
									<output> -0.1585157960653305 </output>
								</split>
							</split>
							<split pos="right">
								<output> 1.0969098806381226 </output>
							</split>
						</split>
						<split pos="right">
							<output> 0.13583795726299286 </output>
						</split>
					</split>
					<split pos="right">
						<output> 0.39247748255729675 </output>
					</split>
				</split>
			</split>
			<split pos="right">
				<feature> 130 </feature>
				<threshold> 59656.074 </threshold>
				<split pos="left">
					<feature> 108 </feature>
					<threshold> 28.902603 </threshold>
					<split pos="left">
						<output> 0.128946915268898 </output>
					</split>
					<split pos="right">
						<output> 0.5866851806640625 </output>
					</split>
				</split>
				<split pos="right">
					<feature> 110 </feature>
					<threshold> 22.892632 </threshold>
					<split pos="left">
						<output> 0.26783525943756104 </output>
					</split>
					<split pos="right">
						<output> 0.75083988904953 </output>
					</split>
				</split>
			</split>
		</split>
	</tree>
	<tree id="16" weight="0.1">
		<split>
			<feature> 134 </feature>
			<threshold> 0.0 </threshold>
			<split pos="left">
				<feature> 108 </feature>
				<threshold> 17.786213 </threshold>
				<split pos="left">
					<feature> 115 </feature>
					<threshold> -8.260539 </threshold>
					<split pos="left">
						<output> -0.3550880253314972 </output>
					</split>
					<split pos="right">
						<output> -0.029716238379478455 </output>
					</split>
				</split>
				<split pos="right">
					<feature> 14 </feature>
					<threshold> 3.0 </threshold>
					<split pos="left">
						<output> 1.020054578781128 </output>
					</split>
					<split pos="right">
						<feature> 4 </feature>
						<threshold> 3.0 </threshold>
						<split pos="left">
							<output> 0.1215098425745964 </output>
						</split>
						<split pos="right">
							<output> 0.33378344774246216 </output>
						</split>
					</split>
				</split>
			</split>
			<split pos="right">
				<feature> 127 </feature>
				<threshold> 22.105469 </threshold>
				<split pos="left">
					<feature> 130 </feature>
					<threshold> 59144.863 </threshold>
					<split pos="left">
						<output> 0.32463574409484863 </output>
					</split>
					<split pos="right">
						<feature> 110 </feature>
						<threshold> 22.892632 </threshold>
						<split pos="left">
							<output> 0.32423830032348633 </output>
						</split>
						<split pos="right">
							<output> 0.859650731086731 </output>
						</split>
					</split>
				</split>
				<split pos="right">
					<feature> 119 </feature>
					<threshold> -19.606781 </threshold>
					<split pos="left">
						<output> 0.328738272190094 </output>
					</split>
					<split pos="right">
						<output> -0.0046336837112903595 </output>
					</split>
				</split>
			</split>
		</split>
	</tree>
	<tree id="17" weight="0.1">
		<split>
			<feature> 134 </feature>
			<threshold> 0.0 </threshold>
			<split pos="left">
				<feature> 108 </feature>
				<threshold> 17.786213 </threshold>
				<split pos="left">
					<feature> 65 </feature>
					<threshold> 0.009386355 </threshold>
					<split pos="left">
						<output> -0.4049837291240692 </output>
					</split>
					<split pos="right">
						<output> -0.07441205531358719 </output>
					</split>
				</split>
				<split pos="right">
					<feature> 14 </feature>
					<threshold> 3.0 </threshold>
					<split pos="left">
						<output> 0.9160075187683105 </output>
					</split>
					<split pos="right">
						<feature> 45 </feature>
						<threshold> 0.0 </threshold>
						<split pos="left">
							<output> -0.17281147837638855 </output>
						</split>
						<split pos="right">
							<output> 0.17059506475925446 </output>
						</split>
					</split>
				</split>
			</split>
			<split pos="right">
				<feature> 130 </feature>
				<threshold> 58889.258 </threshold>
				<split pos="left">
					<feature> 108 </feature>
					<threshold> 28.902603 </threshold>
					<split pos="left">
						<output> 0.08002489060163498 </output>
					</split>
					<split pos="right">
						<output> 0.5214139819145203 </output>
					</split>
				</split>
				<split pos="right">
					<feature> 110 </feature>
					<threshold> 22.892632 </threshold>
					<split pos="left">
						<feature> 134 </feature>
						<threshold> 52908.69 </threshold>
						<split pos="left">
							<output> 0.16753357648849487 </output>
						</split>
						<split pos="right">
							<output> 0.8284555077552795 </output>
						</split>
					</split>
					<split pos="right">
						<output> 0.6593237519264221 </output>
					</split>
				</split>
			</split>
		</split>
	</tree>
	<tree id="18" weight="0.1">
		<split>
			<feature> 134 </feature>
			<threshold> 0.0 </threshold>
			<split pos="left">
				<feature> 65 </feature>
				<threshold> 0.009386355 </threshold>
				<split pos="left">
					<output> -0.3549706041812897 </output>
				</split>
				<split pos="right">
					<feature> 14 </feature>
					<threshold> 3.0 </threshold>
					<split pos="left">
						<output> 0.7292733192443848 </output>
					</split>
					<split pos="right">
						<feature> 107 </feature>
						<threshold> 17.28462 </threshold>
						<split pos="left">
							<feature> 69 </feature>
							<threshold> 0.04710942 </threshold>
							<split pos="left">
								<feature> 4 </feature>
								<threshold> 3.0 </threshold>
								<split pos="left">
									<feature> 127 </feature>
									<threshold> 34.17578 </threshold>
									<split pos="left">
										<output> 0.12327642738819122 </output>
									</split>
									<split pos="right">
										<output> -0.10402838885784149 </output>
									</split>
								</split>
								<split pos="right">
									<output> 0.2855894863605499 </output>
								</split>
							</split>
							<split pos="right">
								<output> 1.2546979188919067 </output>
							</split>
						</split>
						<split pos="right">
							<output> 0.41057831048965454 </output>
						</split>
					</split>
				</split>
			</split>
			<split pos="right">
				<feature> 14 </feature>
				<threshold> 4.0 </threshold>
				<split pos="left">
					<feature> 130 </feature>
					<threshold> 59144.863 </threshold>
					<split pos="left">
						<output> 0.2545156180858612 </output>
					</split>
					<split pos="right">
						<output> 0.41802847385406494 </output>
					</split>
				</split>
				<split pos="right">
					<output> 0.07517392188310623 </output>
				</split>
			</split>
		</split>
	</tree>
	<tree id="19" weight="0.1">
		<split>
			<feature> 134 </feature>
			<threshold> 0.0 </threshold>
			<split pos="left">
				<feature> 108 </feature>
				<threshold> 17.786213 </threshold>
				<split pos="left">
					<feature> 123 </feature>
					<threshold> -9.668865 </threshold>
					<split pos="left">
						<output> -0.3436495363712311 </output>
					</split>
					<split pos="right">
						<output> -0.019766870886087418 </output>
					</split>
				</split>
				<split pos="right">
					<feature> 14 </feature>
					<threshold> 3.0 </threshold>
					<split pos="left">
						<output> 0.7956032156944275 </output>
					</split>
					<split pos="right">
						<feature> 107 </feature>
						<threshold> 17.860775 </threshold>
						<split pos="left">
							<output> 0.08742624521255493 </output>
						</split>
						<split pos="right">
							<output> 0.39424464106559753 </output>
						</split>
					</split>
				</split>
			</split>
			<split pos="right">
				<feature> 14 </feature>
				<threshold> 4.0 </threshold>
				<split pos="left">
					<feature> 108 </feature>
					<threshold> 28.902603 </threshold>
					<split pos="left">
						<feature> 129 </feature>
						<threshold> 2.0 </threshold>
						<split pos="left">
							<output> 0.17644916474819183 </output>
						</split>
						<split pos="right">
							<output> 0.454540491104126 </output>
						</split>
					</split>
					<split pos="right">
						<output> 0.9816408753395081 </output>
					</split>
				</split>
				<split pos="right">
					<feature> 22 </feature>
					<threshold> 2.0 </threshold>
					<split pos="left">
						<output> 0.007070684339851141 </output>
					</split>
					<split pos="right">
						<output> 0.3520025908946991 </output>
					</split>
				</split>
			</split>
		</split>
	</tree>
	<tree id="20" weight="0.1">
		<split>
			<feature> 134 </feature>
			<threshold> 0.0 </threshold>
			<split pos="left">
				<feature> 107 </feature>
				<threshold> 17.28462 </threshold>
				<split pos="left">
					<feature> 14 </feature>
					<threshold> 3.0 </threshold>
					<split pos="left">
						<output> 0.5657922029495239 </output>
					</split>
					<split pos="right">
						<feature> 65 </feature>
						<threshold> 0.009386355 </threshold>
						<split pos="left">
							<output> -0.3701796233654022 </output>
						</split>
						<split pos="right">
							<feature> 69 </feature>
							<threshold> 0.04710942 </threshold>
							<split pos="left">
								<feature> 127 </feature>
								<threshold> 34.17578 </threshold>
								<split pos="left">
									<output> 0.1371108442544937 </output>
								</split>
								<split pos="right">
									<output> -0.1102774366736412 </output>
								</split>
							</split>
							<split pos="right">
								<output> 1.2869278192520142 </output>
							</split>
						</split>
					</split>
				</split>
				<split pos="right">
					<output> 0.3712068498134613 </output>
				</split>
			</split>
			<split pos="right">
				<feature> 127 </feature>
				<threshold> 22.105469 </threshold>
				<split pos="left">
					<feature> 110 </feature>
					<threshold> 25.626888 </threshold>
					<split pos="left">
						<output> 0.18830187618732452 </output>
					</split>
					<split pos="right">
						<output> 0.6845773458480835 </output>
					</split>
				</split>
				<split pos="right">
					<feature> 3 </feature>
					<threshold> 2.0 </threshold>
					<split pos="left">
						<output> -0.01383394654840231 </output>
					</split>
					<split pos="right">
						<output> 0.3562219440937042 </output>
					</split>
				</split>
			</split>
		</split>
	</tree>
	<tree id="21" weight="0.1">
		<split>
			<feature> 134 </feature>
			<threshold> 52908.69 </threshold>
			<split pos="left">
				<feature> 134 </feature>
				<threshold> 0.0 </threshold>
				<split pos="left">
					<feature> 14 </feature>
					<threshold> 3.0 </threshold>
					<split pos="left">
						<output> 0.4584833085536957 </output>
					</split>
					<split pos="right">
						<feature> 107 </feature>
						<threshold> 17.860775 </threshold>
						<split pos="left">
							<feature> 65 </feature>
							<threshold> 0.009386355 </threshold>
							<split pos="left">
								<output> -0.3521846830844879 </output>
							</split>
							<split pos="right">
								<feature> 69 </feature>
								<threshold> 0.04710942 </threshold>
								<split pos="left">
									<feature> 14 </feature>
									<threshold> 4.0 </threshold>
									<split pos="left">
										<output> 0.28886452317237854 </output>
									</split>
									<split pos="right">
										<output> -0.06148881837725639 </output>
									</split>
								</split>
								<split pos="right">
									<output> 1.2361524105072021 </output>
								</split>
							</split>
						</split>
						<split pos="right">
							<output> 0.34616032242774963 </output>
						</split>
					</split>
				</split>
				<split pos="right">
					<feature> 14 </feature>
					<threshold> 4.0 </threshold>
					<split pos="left">
						<feature> 108 </feature>
						<threshold> 28.902603 </threshold>
						<split pos="left">
							<output> 0.22489579021930695 </output>
						</split>
						<split pos="right">
							<output> 0.8876415491104126 </output>
						</split>
					</split>
					<split pos="right">
						<output> 0.043257325887680054 </output>
					</split>
				</split>
			</split>
			<split pos="right">
				<output> 0.6947727203369141 </output>
			</split>
		</split>
	</tree>
	<tree id="22" weight="0.1">
		<split>
			<feature> 134 </feature>
			<threshold> 52908.69 </threshold>
			<split pos="left">
				<feature> 134 </feature>
				<threshold> 0.0 </threshold>
				<split pos="left">
					<feature> 14 </feature>
					<threshold> 3.0 </threshold>
					<split pos="left">
						<output> 0.4104415774345398 </output>
					</split>
					<split pos="right">
						<feature> 107 </feature>
						<threshold> 17.860775 </threshold>
						<split pos="left">
							<feature> 55 </feature>
							<threshold> 0.0062575703 </threshold>
							<split pos="left">
								<output> -0.22299768030643463 </output>
							</split>
							<split pos="right">
								<output> 0.028716441243886948 </output>
							</split>
						</split>
						<split pos="right">
							<output> 0.316312700510025 </output>
						</split>
					</split>
				</split>
				<split pos="right">
					<feature> 136 </feature>
					<threshold> 0.0 </threshold>
					<split pos="left">
						<output> -0.296078622341156 </output>
					</split>
					<split pos="right">
						<feature> 110 </feature>
						<threshold> 25.626888 </threshold>
						<split pos="left">
							<feature> 54 </feature>
							<threshold> 0.222222 </threshold>
							<split pos="left">
								<feature> 3 </feature>
								<threshold> 1.0 </threshold>
								<split pos="left">
									<output> -0.10674644261598587 </output>
								</split>
								<split pos="right">
									<output> 0.17076535522937775 </output>
								</split>
							</split>
							<split pos="right">
								<output> 0.38791710138320923 </output>
							</split>
						</split>
						<split pos="right">
							<output> 0.40334293246269226 </output>
						</split>
					</split>
				</split>
			</split>
			<split pos="right">
				<output> 0.6480099558830261 </output>
			</split>
		</split>
	</tree>
	<tree id="23" weight="0.1">
		<split>
			<feature> 134 </feature>
			<threshold> 52908.69 </threshold>
			<split pos="left">
				<feature> 134 </feature>
				<threshold> 0.0 </threshold>
				<split pos="left">
					<feature> 4 </feature>
					<threshold> 7.0 </threshold>
					<split pos="left">
						<feature> 14 </feature>
						<threshold> 3.0 </threshold>
						<split pos="left">
							<output> 0.36175110936164856 </output>
						</split>
						<split pos="right">
							<feature> 107 </feature>
							<threshold> 15.556157 </threshold>
							<split pos="left">
								<feature> 55 </feature>
								<threshold> 0.0062575703 </threshold>
								<split pos="left">
									<output> -0.22605110704898834 </output>
								</split>
								<split pos="right">
									<output> 0.025094542652368546 </output>
								</split>
							</split>
							<split pos="right">
								<output> 0.2835853099822998 </output>
							</split>
						</split>
					</split>
					<split pos="right">
						<output> 1.1700066328048706 </output>
					</split>
				</split>
				<split pos="right">
					<feature> 127 </feature>
					<threshold> 16.070312 </threshold>
					<split pos="left">
						<output> 0.31876516342163086 </output>
					</split>
					<split pos="right">
						<feature> 3 </feature>
						<threshold> 1.0 </threshold>
						<split pos="left">
							<output> -0.0901830717921257 </output>
						</split>
						<split pos="right">
							<feature> 130 </feature>
							<threshold> 47131.406 </threshold>
							<split pos="left">
								<output> 0.0965077355504036 </output>
							</split>
							<split pos="right">
								<output> 0.353569358587265 </output>
							</split>
						</split>
					</split>
				</split>
			</split>
			<split pos="right">
				<output> 0.6209977269172668 </output>
			</split>
		</split>
	</tree>
	<tree id="24" weight="0.1">
		<split>
			<feature> 134 </feature>
			<threshold> 52908.69 </threshold>
			<split pos="left">
				<feature> 134 </feature>
				<threshold> 0.0 </threshold>
				<split pos="left">
					<feature> 4 </feature>
					<threshold> 7.0 </threshold>
					<split pos="left">
						<feature> 108 </feature>
						<threshold> 15.562936 </threshold>
						<split pos="left">
							<output> -0.15982165932655334 </output>
						</split>
						<split pos="right">
							<feature> 135 </feature>
							<threshold> 21794.0 </threshold>
							<split pos="left">
								<feature> 14 </feature>
								<threshold> 3.0 </threshold>
								<split pos="left">
									<output> 0.4766480326652527 </output>
								</split>
								<split pos="right">
									<output> 0.09916955977678299 </output>
								</split>
							</split>
							<split pos="right">
								<output> 1.5523484945297241 </output>
							</split>
						</split>
					</split>
					<split pos="right">
						<output> 1.0824549198150635 </output>
					</split>
				</split>
				<split pos="right">
					<feature> 108 </feature>
					<threshold> 22.232769 </threshold>
					<split pos="left">
						<feature> 109 </feature>
						<threshold> 15.681068 </threshold>
						<split pos="left">
							<feature> 130 </feature>
							<threshold> 65279.395 </threshold>
							<split pos="left">
								<output> -0.06665822118520737 </output>
							</split>
							<split pos="right">
								<output> 0.18811064958572388 </output>
							</split>
						</split>
						<split pos="right">
							<output> 0.36846622824668884 </output>
						</split>
					</split>
					<split pos="right">
						<output> 0.3633266091346741 </output>
					</split>
				</split>
			</split>
			<split pos="right">
				<output> 0.5801697373390198 </output>
			</split>
		</split>
	</tree>
	<tree id="25" weight="0.1">
		<split>
			<feature> 134 </feature>
			<threshold> 52908.69 </threshold>
			<split pos="left">
				<feature> 14 </feature>
				<threshold> 4.0 </threshold>
				<split pos="left">
					<feature> 108 </feature>
					<threshold> 22.232769 </threshold>
					<split pos="left">
						<feature> 109 </feature>
						<threshold> 18.237125 </threshold>
						<split pos="left">
							<feature> 135 </feature>
							<threshold> 1732623.0 </threshold>
							<split pos="left">
								<feature> 133 </feature>
								<threshold> 5.0 </threshold>
								<split pos="left">
									<output> 0.2778540849685669 </output>
								</split>
								<split pos="right">
									<output> 0.02151504158973694 </output>
								</split>
							</split>
							<split pos="right">
								<output> 1.1704003810882568 </output>
							</split>
						</split>
						<split pos="right">
							<output> 0.725203812122345 </output>
						</split>
					</split>
					<split pos="right">
						<output> 0.661785900592804 </output>
					</split>
				</split>
				<split pos="right">
					<feature> 22 </feature>
					<threshold> 2.0 </threshold>
					<split pos="left">
						<feature> 4 </feature>
						<threshold> 7.0 </threshold>
						<split pos="left">
							<feature> 109 </feature>
							<threshold> 4.6047926 </threshold>
							<split pos="left">
								<output> -0.2530057728290558 </output>
							</split>
							<split pos="right">
								<output> 0.01455686241388321 </output>
							</split>
						</split>
						<split pos="right">
							<output> 1.0222464799880981 </output>
						</split>
					</split>
					<split pos="right">
						<output> 0.3137277066707611 </output>
					</split>
				</split>
			</split>
			<split pos="right">
				<output> 0.5412152409553528 </output>
			</split>
		</split>
	</tree>
	<tree id="26" weight="0.1">
		<split>
			<feature> 134 </feature>
			<threshold> 52908.69 </threshold>
			<split pos="left">
				<feature> 108 </feature>
				<threshold> 20.009491 </threshold>
				<split pos="left">
					<feature> 64 </feature>
					<threshold> 0.24126805 </threshold>
					<split pos="left">
						<feature> 135 </feature>
						<threshold> 1732623.0 </threshold>
						<split pos="left">
							<feature> 72 </feature>
							<threshold> 17.873957 </threshold>
							<split pos="left">
								<feature> 55 </feature>
								<threshold> 0.018772712 </threshold>
								<split pos="left">
									<feature> 134 </feature>
									<threshold> 0.0 </threshold>
									<split pos="left">
										<feature> 15 </feature>
										<threshold> 54.9375 </threshold>
										<split pos="left">
											<output> 0.44394728541374207 </output>
										</split>
										<split pos="right">
											<output> -0.2282552868127823 </output>
										</split>
									</split>
									<split pos="right">
										<output> -0.13775478303432465 </output>
									</split>
								</split>
								<split pos="right">
									<output> 0.054733648896217346 </output>
								</split>
							</split>
							<split pos="right">
								<output> 0.2873055934906006 </output>
							</split>
						</split>
						<split pos="right">
							<output> 1.1523336172103882 </output>
						</split>
					</split>
					<split pos="right">
						<output> 0.3499043583869934 </output>
					</split>
				</split>
				<split pos="right">
					<feature> 134 </feature>
					<threshold> 0.0 </threshold>
					<split pos="left">
						<output> 0.15899787843227386 </output>
					</split>
					<split pos="right">
						<output> 0.27202364802360535 </output>
					</split>
				</split>
			</split>
			<split pos="right">
				<output> 0.5021851658821106 </output>
			</split>
		</split>
	</tree>
	<tree id="27" weight="0.1">
		<split>
			<feature> 134 </feature>
			<threshold> 52908.69 </threshold>
			<split pos="left">
				<feature> 14 </feature>
				<threshold> 4.0 </threshold>
				<split pos="left">
					<feature> 108 </feature>
					<threshold> 24.456047 </threshold>
					<split pos="left">
						<feature> 109 </feature>
						<threshold> 17.1011 </threshold>
						<split pos="left">
							<feature> 108 </feature>
							<threshold> 16.674574 </threshold>
							<split pos="left">
								<feature> 135 </feature>
								<threshold> 1732623.0 </threshold>
								<split pos="left">
									<output> 0.05828290432691574 </output>
								</split>
								<split pos="right">
									<output> 1.1347001791000366 </output>
								</split>
							</split>
							<split pos="right">
								<output> 0.31757113337516785 </output>
							</split>
						</split>
						<split pos="right">
							<output> 0.5784086585044861 </output>
						</split>
					</split>
					<split pos="right">
						<output> 0.6613211631774902 </output>
					</split>
				</split>
				<split pos="right">
					<feature> 72 </feature>
					<threshold> 17.873957 </threshold>
					<split pos="left">
						<feature> 4 </feature>
						<threshold> 7.0 </threshold>
						<split pos="left">
							<feature> 109 </feature>
							<threshold> 4.6047926 </threshold>
							<split pos="left">
								<output> -0.24860766530036926 </output>
							</split>
							<split pos="right">
								<output> 0.0104755237698555 </output>
							</split>
						</split>
						<split pos="right">
							<output> 0.9691885113716125 </output>
						</split>
					</split>
					<split pos="right">
						<output> 0.22935612499713898 </output>
					</split>
				</split>
			</split>
			<split pos="right">
				<output> 0.4722842574119568 </output>
			</split>
		</split>
	</tree>
	<tree id="28" weight="0.1">
		<split>
			<feature> 134 </feature>
			<threshold> 52908.69 </threshold>
			<split pos="left">
				<feature> 14 </feature>
				<threshold> 4.0 </threshold>
				<split pos="left">
					<feature> 108 </feature>
					<threshold> 24.456047 </threshold>
					<split pos="left">
						<feature> 109 </feature>
						<threshold> 18.237125 </threshold>
						<split pos="left">
							<feature> 3 </feature>
							<threshold> 1.0 </threshold>
							<split pos="left">
								<output> 0.013636988587677479 </output>
							</split>
							<split pos="right">
								<output> 0.26614612340927124 </output>
							</split>
						</split>
						<split pos="right">
							<output> 0.5491031408309937 </output>
						</split>
					</split>
					<split pos="right">
						<output> 0.5772069096565247 </output>
					</split>
				</split>
				<split pos="right">
					<feature> 72 </feature>
					<threshold> 26.810936 </threshold>
					<split pos="left">
						<feature> 4 </feature>
						<threshold> 7.0 </threshold>
						<split pos="left">
							<feature> 8 </feature>
							<threshold> 0.538462 </threshold>
							<split pos="left">
								<output> -0.23512519896030426 </output>
							</split>
							<split pos="right">
								<feature> 3 </feature>
								<threshold> 3.0 </threshold>
								<split pos="left">
									<output> -0.004002186935395002 </output>
								</split>
								<split pos="right">
									<output> 0.31530582904815674 </output>
								</split>
							</split>
						</split>
						<split pos="right">
							<output> 0.9236566424369812 </output>
						</split>
					</split>
					<split pos="right">
						<output> 0.28837746381759644 </output>
					</split>
				</split>
			</split>
			<split pos="right">
				<output> 0.42962080240249634 </output>
			</split>
		</split>
	</tree>
	<tree id="29" weight="0.1">
		<split>
			<feature> 134 </feature>
			<threshold> 52908.69 </threshold>
			<split pos="left">
				<feature> 3 </feature>
				<threshold> 1.0 </threshold>
				<split pos="left">
					<feature> 64 </feature>
					<threshold> 0.24126805 </threshold>
					<split pos="left">
						<feature> 134 </feature>
						<threshold> 0.0 </threshold>
						<split pos="left">
							<output> -0.14606283605098724 </output>
						</split>
						<split pos="right">
							<output> -0.1260448396205902 </output>
						</split>
					</split>
					<split pos="right">
						<output> 0.24871288239955902 </output>
					</split>
				</split>
				<split pos="right">
					<feature> 14 </feature>
					<threshold> 4.0 </threshold>
					<split pos="left">
						<output> 0.30948302149772644 </output>
					</split>
					<split pos="right">
						<feature> 27 </feature>
						<threshold> 49.0 </threshold>
						<split pos="left">
							<feature> 72 </feature>
							<threshold> 26.810936 </threshold>
							<split pos="left">
								<feature> 4 </feature>
								<threshold> 7.0 </threshold>
								<split pos="left">
									<feature> 117 </feature>
									<threshold> -7.0282564 </threshold>
									<split pos="left">
										<output> 0.025670751929283142 </output>
									</split>
									<split pos="right">
										<output> 0.6563205122947693 </output>
									</split>
								</split>
								<split pos="right">
									<output> 0.8969147801399231 </output>
								</split>
							</split>
							<split pos="right">
								<output> 0.24617332220077515 </output>
							</split>
						</split>
						<split pos="right">
							<output> -4.631017208099365 </output>
						</split>
					</split>
				</split>
			</split>
			<split pos="right">
				<output> 0.3987358808517456 </output>
			</split>
		</split>
	</tree>
	<tree id="30" weight="0.1">
		<split>
			<feature> 88 </feature>
			<threshold> 4.545681 </threshold>
			<split pos="left">
				<output> -0.14887885749340057 </output>
			</split>
			<split pos="right">
				<feature> 135 </feature>
				<threshold> 10897.0 </threshold>
				<split pos="left">
					<feature> 130 </feature>
					<threshold> 59400.47 </threshold>
					<split pos="left">
						<feature> 14 </feature>
						<threshold> 3.0 </threshold>
						<split pos="left">
							<output> 0.32128873467445374 </output>
						</split>
						<split pos="right">
							<feature> 4 </feature>
							<threshold> 7.0 </threshold>
							<split pos="left">
								<feature> 129 </feature>
								<threshold> 12.0 </threshold>
								<split pos="left">
									<feature> 3 </feature>
									<threshold> 3.0 </threshold>
									<split pos="left">
										<feature> 69 </feature>
										<threshold> 0.04710942 </threshold>
										<split pos="left">
											<feature> 133 </feature>
											<threshold> 116.0 </threshold>
											<split pos="left">
												<output> -0.009560889564454556 </output>
											</split>
											<split pos="right">
												<output> -0.30749377608299255 </output>
											</split>
										</split>
										<split pos="right">
											<output> 1.3720284700393677 </output>
										</split>
									</split>
									<split pos="right">
										<output> 0.285086065530777 </output>
									</split>
								</split>
								<split pos="right">
									<output> 0.3064813017845154 </output>
								</split>
							</split>
							<split pos="right">
								<output> 0.9320060014724731 </output>
							</split>
						</split>
					</split>
					<split pos="right">
						<output> 0.2927553951740265 </output>
					</split>
				</split>
				<split pos="right">
					<output> 0.5912742614746094 </output>
				</split>
			</split>
		</split>
	</tree>
	<tree id="31" weight="0.1">
		<split>
			<feature> 108 </feature>
			<threshold> 21.12113 </threshold>
			<split pos="left">
				<feature> 134 </feature>
				<threshold> 52908.69 </threshold>
				<split pos="left">
					<feature> 129 </feature>
					<threshold> 10.0 </threshold>
					<split pos="left">
						<feature> 11 </feature>
						<threshold> 740.46875 </threshold>
						<split pos="left">
							<feature> 130 </feature>
							<threshold> 57100.02 </threshold>
							<split pos="left">
								<feature> 134 </feature>
								<threshold> 0.0 </threshold>
								<split pos="left">
									<feature> 90 </feature>
									<threshold> -78.62988 </threshold>
									<split pos="left">
										<output> 1.4832943677902222 </output>
									</split>
									<split pos="right">
										<output> -0.056555651128292084 </output>
									</split>
								</split>
								<split pos="right">
									<output> -0.180339053273201 </output>
								</split>
							</split>
							<split pos="right">
								<output> 0.18152521550655365 </output>
							</split>
						</split>
						<split pos="right">
							<output> -0.31143322587013245 </output>
						</split>
					</split>
					<split pos="right">
						<output> 0.20893573760986328 </output>
					</split>
				</split>
				<split pos="right">
					<output> 0.3198448717594147 </output>
				</split>
			</split>
			<split pos="right">
				<feature> 130 </feature>
				<threshold> 60422.89 </threshold>
				<split pos="left">
					<feature> 14 </feature>
					<threshold> 3.0 </threshold>
					<split pos="left">
						<output> 0.35034018754959106 </output>
					</split>
					<split pos="right">
						<output> 0.11127616465091705 </output>
					</split>
				</split>
				<split pos="right">
					<output> 0.6293932795524597 </output>
				</split>
			</split>
		</split>
	</tree>
	<tree id="32" weight="0.1">
		<split>
			<feature> 14 </feature>
			<threshold> 4.0 </threshold>
			<split pos="left">
				<feature> 108 </feature>
				<threshold> 24.456047 </threshold>
				<split pos="left">
					<feature> 90 </feature>
					<threshold> -78.62988 </threshold>
					<split pos="left">
						<output> 1.4091092348098755 </output>
					</split>
					<split pos="right">
						<feature> 109 </feature>
						<threshold> 17.1011 </threshold>
						<split pos="left">
							<feature> 134 </feature>
							<threshold> 52908.69 </threshold>
							<split pos="left">
								<feature> 126 </feature>
								<threshold> 1.0 </threshold>
								<split pos="left">
									<feature> 135 </feature>
									<threshold> 1732623.0 </threshold>
									<split pos="left">
										<output> 0.005583506543189287 </output>
									</split>
									<split pos="right">
										<output> 1.1177903413772583 </output>
									</split>
								</split>
								<split pos="right">
									<output> 0.630174458026886 </output>
								</split>
							</split>
							<split pos="right">
								<output> 0.3548058867454529 </output>
							</split>
						</split>
						<split pos="right">
							<output> 0.4516018033027649 </output>
						</split>
					</split>
				</split>
				<split pos="right">
					<output> 0.4817430377006531 </output>
				</split>
			</split>
			<split pos="right">
				<feature> 22 </feature>
				<threshold> 2.0 </threshold>
				<split pos="left">
					<feature> 109 </feature>
					<threshold> 4.6047926 </threshold>
					<split pos="left">
						<output> -0.2101844847202301 </output>
					</split>
					<split pos="right">
						<output> 0.02826927788555622 </output>
					</split>
				</split>
				<split pos="right">
					<output> 0.22598743438720703 </output>
				</split>
			</split>
		</split>
	</tree>
	<tree id="33" weight="0.1">
		<split>
			<feature> 3 </feature>
			<threshold> 1.0 </threshold>
			<split pos="left">
				<feature> 9 </feature>
				<threshold> 0.5 </threshold>
				<split pos="left">
					<feature> 134 </feature>
					<threshold> 0.0 </threshold>
					<split pos="left">
						<output> -0.17594163119792938 </output>
					</split>
					<split pos="right">
						<output> -0.15370908379554749 </output>
					</split>
				</split>
				<split pos="right">
					<output> 0.12229228764772415 </output>
				</split>
			</split>
			<split pos="right">
				<feature> 135 </feature>
				<threshold> 10897.0 </threshold>
				<split pos="left">
					<feature> 130 </feature>
					<threshold> 58378.047 </threshold>
					<split pos="left">
						<feature> 14 </feature>
						<threshold> 3.0 </threshold>
						<split pos="left">
							<output> 0.29399439692497253 </output>
						</split>
						<split pos="right">
							<feature> 117 </feature>
							<threshold> -7.0282564 </threshold>
							<split pos="left">
								<feature> 3 </feature>
								<threshold> 3.0 </threshold>
								<split pos="left">
									<feature> 130 </feature>
									<threshold> 15947.539 </threshold>
									<split pos="left">
										<output> -0.027603140100836754 </output>
									</split>
									<split pos="right">
										<output> 0.15438254177570343 </output>
									</split>
								</split>
								<split pos="right">
									<output> 0.27317750453948975 </output>
								</split>
							</split>
							<split pos="right">
								<output> 0.6294807195663452 </output>
							</split>
						</split>
					</split>
					<split pos="right">
						<output> 0.341097354888916 </output>
					</split>
				</split>
				<split pos="right">
					<output> 0.6084021925926208 </output>
				</split>
			</split>
		</split>
	</tree>
	<tree id="34" weight="0.1">
		<split>
			<feature> 130 </feature>
			<threshold> 53777.15 </threshold>
			<split pos="left">
				<feature> 3 </feature>
				<threshold> 2.0 </threshold>
				<split pos="left">
					<feature> 129 </feature>
					<threshold> 10.0 </threshold>
					<split pos="left">
						<feature> 134 </feature>
						<threshold> 0.0 </threshold>
						<split pos="left">
							<feature> 11 </feature>
							<threshold> 1269.375 </threshold>
							<split pos="left">
								<feature> 90 </feature>
								<threshold> -78.62988 </threshold>
								<split pos="left">
									<output> 1.0686664581298828 </output>
								</split>
								<split pos="right">
									<output> -0.07873430103063583 </output>
								</split>
							</split>
							<split pos="right">
								<output> -0.47489574551582336 </output>
							</split>
						</split>
						<split pos="right">
							<output> -0.1523645520210266 </output>
						</split>
					</split>
					<split pos="right">
						<output> 0.18199299275875092 </output>
					</split>
				</split>
				<split pos="right">
					<output> 0.13692820072174072 </output>
				</split>
			</split>
			<split pos="right">
				<feature> 109 </feature>
				<threshold> 18.805138 </threshold>
				<split pos="left">
					<feature> 22 </feature>
					<threshold> 98.0 </threshold>
					<split pos="left">
						<feature> 108 </feature>
						<threshold> 16.674574 </threshold>
						<split pos="left">
							<output> 0.07835265249013901 </output>
						</split>
						<split pos="right">
							<output> 0.36968255043029785 </output>
						</split>
					</split>
					<split pos="right">
						<output> -3.6862194538116455 </output>
					</split>
				</split>
				<split pos="right">
					<output> 0.7734168171882629 </output>
				</split>
			</split>
		</split>
	</tree>
	<tree id="35" weight="0.1">
		<split>
			<feature> 14 </feature>
			<threshold> 4.0 </threshold>
			<split pos="left">
				<feature> 108 </feature>
				<threshold> 24.456047 </threshold>
				<split pos="left">
					<feature> 90 </feature>
					<threshold> -78.62988 </threshold>
					<split pos="left">
						<output> 1.0769013166427612 </output>
					</split>
					<split pos="right">
						<feature> 109 </feature>
						<threshold> 17.1011 </threshold>
						<split pos="left">
							<feature> 126 </feature>
							<threshold> 1.0 </threshold>
							<split pos="left">
								<feature> 134 </feature>
								<threshold> 52908.69 </threshold>
								<split pos="left">
									<feature> 125 </feature>
									<threshold> -1.3715153 </threshold>
									<split pos="left">
										<output> 0.02098122611641884 </output>
									</split>
									<split pos="right">
										<output> -0.4567309319972992 </output>
									</split>
								</split>
								<split pos="right">
									<output> 0.32411983609199524 </output>
								</split>
							</split>
							<split pos="right">
								<output> 0.5444888472557068 </output>
							</split>
						</split>
						<split pos="right">
							<output> 0.392379492521286 </output>
						</split>
					</split>
				</split>
				<split pos="right">
					<output> 0.43341776728630066 </output>
				</split>
			</split>
			<split pos="right">
				<feature> 107 </feature>
				<threshold> 13.251542 </threshold>
				<split pos="left">
					<feature> 109 </feature>
					<threshold> 4.6047926 </threshold>
					<split pos="left">
						<output> -0.19631919264793396 </output>
					</split>
					<split pos="right">
						<output> 0.01357254944741726 </output>
					</split>
				</split>
				<split pos="right">
					<output> 0.1769082099199295 </output>
				</split>
			</split>
		</split>
	</tree>
	<tree id="36" weight="0.1">
		<split>
			<feature> 14 </feature>
			<threshold> 4.0 </threshold>
			<split pos="left">
				<feature> 108 </feature>
				<threshold> 24.456047 </threshold>
				<split pos="left">
					<feature> 84 </feature>
					<threshold> 11.923712 </threshold>
					<split pos="left">
						<feature> 90 </feature>
						<threshold> -78.62988 </threshold>
						<split pos="left">
							<output> 0.8743410110473633 </output>
						</split>
						<split pos="right">
							<feature> 133 </feature>
							<threshold> 5.0 </threshold>
							<split pos="left">
								<output> 0.23698380589485168 </output>
							</split>
							<split pos="right">
								<feature> 134 </feature>
								<threshold> 0.0 </threshold>
								<split pos="left">
									<output> 0.06653477251529694 </output>
								</split>
								<split pos="right">
									<output> -0.14492830634117126 </output>
								</split>
							</split>
						</split>
					</split>
					<split pos="right">
						<output> 0.4085887372493744 </output>
					</split>
				</split>
				<split pos="right">
					<output> 0.4030882716178894 </output>
				</split>
			</split>
			<split pos="right">
				<feature> 107 </feature>
				<threshold> 12.675388 </threshold>
				<split pos="left">
					<feature> 106 </feature>
					<threshold> 33.86572 </threshold>
					<split pos="left">
						<feature> 123 </feature>
						<threshold> -9.668865 </threshold>
						<split pos="left">
							<output> -0.26249808073043823 </output>
						</split>
						<split pos="right">
							<output> -0.022690320387482643 </output>
						</split>
					</split>
					<split pos="right">
						<output> 0.12614013254642487 </output>
					</split>
				</split>
				<split pos="right">
					<output> 0.15782193839550018 </output>
				</split>
			</split>
		</split>
	</tree>
	<tree id="37" weight="0.1">
		<split>
			<feature> 130 </feature>
			<threshold> 50454.277 </threshold>
			<split pos="left">
				<feature> 129 </feature>
				<threshold> 17.0 </threshold>
				<split pos="left">
					<feature> 3 </feature>
					<threshold> 2.0 </threshold>
					<split pos="left">
						<feature> 134 </feature>
						<threshold> 0.0 </threshold>
						<split pos="left">
							<feature> 15 </feature>
							<threshold> 2437.125 </threshold>
							<split pos="left">
								<feature> 69 </feature>
								<threshold> 0.04710942 </threshold>
								<split pos="left">
									<output> -0.08405302464962006 </output>
								</split>
								<split pos="right">
									<output> 1.07668137550354 </output>
								</split>
							</split>
							<split pos="right">
								<output> -0.6597443222999573 </output>
							</split>
						</split>
						<split pos="right">
							<output> -0.13774140179157257 </output>
						</split>
					</split>
					<split pos="right">
						<output> 0.09930756688117981 </output>
					</split>
				</split>
				<split pos="right">
					<output> 0.28683534264564514 </output>
				</split>
			</split>
			<split pos="right">
				<feature> 109 </feature>
				<threshold> 17.1011 </threshold>
				<split pos="left">
					<feature> 108 </feature>
					<threshold> 17.786213 </threshold>
					<split pos="left">
						<feature> 64 </feature>
						<threshold> 0.23161735 </threshold>
						<split pos="left">
							<output> 0.01870027557015419 </output>
						</split>
						<split pos="right">
							<output> 0.3734263479709625 </output>
						</split>
					</split>
					<split pos="right">
						<output> 0.35036224126815796 </output>
					</split>
				</split>
				<split pos="right">
					<output> 0.6041695475578308 </output>
				</split>
			</split>
		</split>
	</tree>
	<tree id="38" weight="0.1">
		<split>
			<feature> 55 </feature>
			<threshold> 0.0062575703 </threshold>
			<split pos="left">
				<feature> 15 </feature>
				<threshold> 54.9375 </threshold>
				<split pos="left">
					<output> 0.39521729946136475 </output>
				</split>
				<split pos="right">
					<feature> 135 </feature>
					<threshold> 1427507.0 </threshold>
					<split pos="left">
						<feature> 108 </feature>
						<threshold> 5.5581923 </threshold>
						<split pos="left">
							<output> -0.3271821141242981 </output>
						</split>
						<split pos="right">
							<output> -0.028186967596411705 </output>
						</split>
					</split>
					<split pos="right">
						<output> 1.1034971475601196 </output>
					</split>
				</split>
			</split>
			<split pos="right">
				<feature> 135 </feature>
				<threshold> 10897.0 </threshold>
				<split pos="left">
					<feature> 130 </feature>
					<threshold> 64768.184 </threshold>
					<split pos="left">
						<feature> 4 </feature>
						<threshold> 8.0 </threshold>
						<split pos="left">
							<feature> 133 </feature>
							<threshold> 10.0 </threshold>
							<split pos="left">
								<feature> 109 </feature>
								<threshold> 20.79318 </threshold>
								<split pos="left">
									<output> 0.11717239022254944 </output>
								</split>
								<split pos="right">
									<output> 0.39623844623565674 </output>
								</split>
							</split>
							<split pos="right">
								<output> -0.0704985111951828 </output>
							</split>
						</split>
						<split pos="right">
							<output> 0.9051489233970642 </output>
						</split>
					</split>
					<split pos="right">
						<output> 0.30136623978614807 </output>
					</split>
				</split>
				<split pos="right">
					<output> 0.48399773240089417 </output>
				</split>
			</split>
		</split>
	</tree>
	<tree id="39" weight="0.1">
		<split>
			<feature> 14 </feature>
			<threshold> 4.0 </threshold>
			<split pos="left">
				<feature> 90 </feature>
				<threshold> -78.62988 </threshold>
				<split pos="left">
					<output> 0.9793993234634399 </output>
				</split>
				<split pos="right">
					<feature> 108 </feature>
					<threshold> 24.456047 </threshold>
					<split pos="left">
						<feature> 126 </feature>
						<threshold> 1.0 </threshold>
						<split pos="left">
							<feature> 94 </feature>
							<threshold> 52.907005 </threshold>
							<split pos="left">
								<feature> 129 </feature>
								<threshold> 0.0 </threshold>
								<split pos="left">
									<output> -0.08876315504312515 </output>
								</split>
								<split pos="right">
									<output> 0.16301725804805756 </output>
								</split>
							</split>
							<split pos="right">
								<output> 1.0608208179473877 </output>
							</split>
						</split>
						<split pos="right">
							<output> 0.46982651948928833 </output>
						</split>
					</split>
					<split pos="right">
						<output> 0.367567241191864 </output>
					</split>
				</split>
			</split>
			<split pos="right">
				<feature> 22 </feature>
				<threshold> 4.0 </threshold>
				<split pos="left">
					<feature> 129 </feature>
					<threshold> 10.0 </threshold>
					<split pos="left">
						<feature> 110 </feature>
						<threshold> 36.563915 </threshold>
						<split pos="left">
							<output> -0.12837573885917664 </output>
						</split>
						<split pos="right">
							<output> 0.09688372910022736 </output>
						</split>
					</split>
					<split pos="right">
						<output> 0.136326864361763 </output>
					</split>
				</split>
				<split pos="right">
					<output> 0.2606046795845032 </output>
				</split>
			</split>
		</split>
	</tree>
	<tree id="40" weight="0.1">
		<split>
			<feature> 130 </feature>
			<threshold> 21059.648 </threshold>
			<split pos="left">
				<feature> 134 </feature>
				<threshold> 0.0 </threshold>
				<split pos="left">
					<feature> 129 </feature>
					<threshold> 16.0 </threshold>
					<split pos="left">
						<feature> 90 </feature>
						<threshold> -78.62988 </threshold>
						<split pos="left">
							<output> 0.8891477584838867 </output>
						</split>
						<split pos="right">
							<output> -0.09073780477046967 </output>
						</split>
					</split>
					<split pos="right">
						<output> 0.26468342542648315 </output>
					</split>
				</split>
				<split pos="right">
					<output> -0.1133822500705719 </output>
				</split>
			</split>
			<split pos="right">
				<feature> 109 </feature>
				<threshold> 19.657156 </threshold>
				<split pos="left">
					<feature> 108 </feature>
					<threshold> 25.567686 </threshold>
					<split pos="left">
						<feature> 109 </feature>
						<threshold> 11.9889765 </threshold>
						<split pos="left">
							<feature> 135 </feature>
							<threshold> 1732623.0 </threshold>
							<split pos="left">
								<feature> 15 </feature>
								<threshold> 54.9375 </threshold>
								<split pos="left">
									<output> 0.38851606845855713 </output>
								</split>
								<split pos="right">
									<output> -0.01802668534219265 </output>
								</split>
							</split>
							<split pos="right">
								<output> 1.0870230197906494 </output>
							</split>
						</split>
						<split pos="right">
							<output> 0.2622309625148773 </output>
						</split>
					</split>
					<split pos="right">
						<output> 0.4601120948791504 </output>
					</split>
				</split>
				<split pos="right">
					<output> 0.4883616268634796 </output>
				</split>
			</split>
		</split>
	</tree>
	<tree id="41" weight="0.1">
		<split>
			<feature> 55 </feature>
			<threshold> 0.0062575703 </threshold>
			<split pos="left">
				<feature> 134 </feature>
				<threshold> 52908.69 </threshold>
				<split pos="left">
					<feature> 15 </feature>
					<threshold> 54.9375 </threshold>
					<split pos="left">
						<output> 0.28607234358787537 </output>
					</split>
					<split pos="right">
						<feature> 110 </feature>
						<threshold> 28.361145 </threshold>
						<split pos="left">
							<feature> 135 </feature>
							<threshold> 1427507.0 </threshold>
							<split pos="left">
								<output> -0.1977565437555313 </output>
							</split>
							<split pos="right">
								<output> 1.074905514717102 </output>
							</split>
						</split>
						<split pos="right">
							<output> 0.0715816468000412 </output>
						</split>
					</split>
				</split>
				<split pos="right">
					<output> 0.5462859272956848 </output>
				</split>
			</split>
			<split pos="right">
				<feature> 135 </feature>
				<threshold> 108970.0 </threshold>
				<split pos="left">
					<feature> 130 </feature>
					<threshold> 64768.184 </threshold>
					<split pos="left">
						<feature> 133 </feature>
						<threshold> 10.0 </threshold>
						<split pos="left">
							<feature> 109 </feature>
							<threshold> 21.645199 </threshold>
							<split pos="left">
								<output> 0.11425422132015228 </output>
							</split>
							<split pos="right">
								<output> 0.3888282775878906 </output>
							</split>
						</split>
						<split pos="right">
							<output> -0.06234829127788544 </output>
						</split>
					</split>
					<split pos="right">
						<output> 0.28243696689605713 </output>
					</split>
				</split>
				<split pos="right">
					<output> 0.9939957857131958 </output>
				</split>
			</split>
		</split>
	</tree>
	<tree id="42" weight="0.1">
		<split>
			<feature> 127 </feature>
			<threshold> 28.140625 </threshold>
			<split pos="left">
				<feature> 108 </feature>
				<threshold> 22.232769 </threshold>
				<split pos="left">
					<feature> 109 </feature>
					<threshold> 15.681068 </threshold>
					<split pos="left">
						<feature> 134 </feature>
						<threshold> 0.0 </threshold>
						<split pos="left">
							<output> 0.12363197654485703 </output>
						</split>
						<split pos="right">
							<feature> 18 </feature>
							<threshold> 10.861764 </threshold>
							<split pos="left">
								<output> -0.23744583129882812 </output>
							</split>
							<split pos="right">
								<output> 0.04923387989401817 </output>
							</split>
						</split>
					</split>
					<split pos="right">
						<output> 0.316925972700119 </output>
					</split>
				</split>
				<split pos="right">
					<output> 0.3004264831542969 </output>
				</split>
			</split>
			<split pos="right">
				<feature> 72 </feature>
				<threshold> 62.558846 </threshold>
				<split pos="left">
					<feature> 3 </feature>
					<threshold> 3.0 </threshold>
					<split pos="left">
						<feature> 134 </feature>
						<threshold> 0.0 </threshold>
						<split pos="left">
							<feature> 129 </feature>
							<threshold> 11.0 </threshold>
							<split pos="left">
								<output> -0.11304764449596405 </output>
							</split>
							<split pos="right">
								<output> 0.16671665012836456 </output>
							</split>
						</split>
						<split pos="right">
							<output> -0.1145397499203682 </output>
						</split>
					</split>
					<split pos="right">
						<output> 0.24473421275615692 </output>
					</split>
				</split>
				<split pos="right">
					<output> 0.3685739040374756 </output>
				</split>
			</split>
		</split>
	</tree>
	<tree id="43" weight="0.1">
		<split>
			<feature> 60 </feature>
			<threshold> 0.015643926 </threshold>
			<split pos="left">
				<output> -0.16519613564014435 </output>
			</split>
			<split pos="right">
				<feature> 14 </feature>
				<threshold> 4.0 </threshold>
				<split pos="left">
					<feature> 90 </feature>
					<threshold> -78.62988 </threshold>
					<split pos="left">
						<output> 0.865147590637207 </output>
					</split>
					<split pos="right">
						<feature> 133 </feature>
						<threshold> 7.0 </threshold>
						<split pos="left">
							<output> 0.27995115518569946 </output>
						</split>
						<split pos="right">
							<output> 0.022535230964422226 </output>
						</split>
					</split>
				</split>
				<split pos="right">
					<feature> 129 </feature>
					<threshold> 28.0 </threshold>
					<split pos="left">
						<feature> 72 </feature>
						<threshold> 62.558846 </threshold>
						<split pos="left">
							<feature> 133 </feature>
							<threshold> 49.0 </threshold>
							<split pos="left">
								<feature> 47 </feature>
								<threshold> 0.57421875 </threshold>
								<split pos="left">
									<feature> 49 </feature>
									<threshold> 0.14701708 </threshold>
									<split pos="left">
										<output> -0.06330094486474991 </output>
									</split>
									<split pos="right">
										<output> 0.09445782005786896 </output>
									</split>
								</split>
								<split pos="right">
									<output> 0.20167045295238495 </output>
								</split>
							</split>
							<split pos="right">
								<output> -0.17472189664840698 </output>
							</split>
						</split>
						<split pos="right">
							<output> 0.3314395844936371 </output>
						</split>
					</split>
					<split pos="right">
						<output> 0.36177173256874084 </output>
					</split>
				</split>
			</split>
		</split>
	</tree>
	<tree id="44" weight="0.1">
		<split>
			<feature> 3 </feature>
			<threshold> 1.0 </threshold>
			<split pos="left">
				<feature> 134 </feature>
				<threshold> 0.0 </threshold>
				<split pos="left">
					<output> -0.07091861218214035 </output>
				</split>
				<split pos="right">
					<output> -0.08107826113700867 </output>
				</split>
			</split>
			<split pos="right">
				<feature> 135 </feature>
				<threshold> 10897.0 </threshold>
				<split pos="left">
					<feature> 127 </feature>
					<threshold> 28.140625 </threshold>
					<split pos="left">
						<output> 0.20250602066516876 </output>
					</split>
					<split pos="right">
						<feature> 117 </feature>
						<threshold> -7.0282564 </threshold>
						<split pos="left">
							<feature> 131 </feature>
							<threshold> 65279.008 </threshold>
							<split pos="left">
								<feature> 27 </feature>
								<threshold> 11.0 </threshold>
								<split pos="left">
									<feature> 77 </feature>
									<threshold> 58.82417 </threshold>
									<split pos="left">
										<feature> 3 </feature>
										<threshold> 3.0 </threshold>
										<split pos="left">
											<output> -0.029856150969862938 </output>
										</split>
										<split pos="right">
											<output> 0.21098384261131287 </output>
										</split>
									</split>
									<split pos="right">
										<output> -2.5008726119995117 </output>
									</split>
								</split>
								<split pos="right">
									<output> 1.1381276845932007 </output>
								</split>
							</split>
							<split pos="right">
								<output> 0.29824185371398926 </output>
							</split>
						</split>
						<split pos="right">
							<output> 0.6220160126686096 </output>
						</split>
					</split>
				</split>
				<split pos="right">
					<output> 0.5347806215286255 </output>
				</split>
			</split>
		</split>
	</tree>
	<tree id="45" weight="0.1">
		<split>
			<feature> 130 </feature>
			<threshold> 21059.648 </threshold>
			<split pos="left">
				<feature> 134 </feature>
				<threshold> 0.0 </threshold>
				<split pos="left">
					<feature> 129 </feature>
					<threshold> 16.0 </threshold>
					<split pos="left">
						<feature> 54 </feature>
						<threshold> 0.307692 </threshold>
						<split pos="left">
							<feature> 14 </feature>
							<threshold> 3.0 </threshold>
							<split pos="left">
								<output> 0.18005307018756866 </output>
							</split>
							<split pos="right">
								<feature> 69 </feature>
								<threshold> 0.04710942 </threshold>
								<split pos="left">
									<output> -0.09253016114234924 </output>
								</split>
								<split pos="right">
									<output> 1.000369668006897 </output>
								</split>
							</split>
						</split>
						<split pos="right">
							<output> -0.8790985345840454 </output>
						</split>
					</split>
					<split pos="right">
						<output> 0.23324020206928253 </output>
					</split>
				</split>
				<split pos="right">
					<output> -0.1127566397190094 </output>
				</split>
			</split>
			<split pos="right">
				<feature> 109 </feature>
				<threshold> 19.657156 </threshold>
				<split pos="left">
					<feature> 110 </feature>
					<threshold> 22.892632 </threshold>
					<split pos="left">
						<feature> 134 </feature>
						<threshold> 0.0 </threshold>
						<split pos="left">
							<output> 0.05145652964711189 </output>
						</split>
						<split pos="right">
							<output> -0.07807344943284988 </output>
						</split>
					</split>
					<split pos="right">
						<output> 0.25579604506492615 </output>
					</split>
				</split>
				<split pos="right">
					<output> 0.42441055178642273 </output>
				</split>
			</split>
		</split>
	</tree>
	<tree id="46" weight="0.1">
		<split>
			<feature> 55 </feature>
			<threshold> 0.0062575703 </threshold>
			<split pos="left">
				<feature> 134 </feature>
				<threshold> 52908.69 </threshold>
				<split pos="left">
					<feature> 15 </feature>
					<threshold> 319.625 </threshold>
					<split pos="left">
						<output> 0.06923989951610565 </output>
					</split>
					<split pos="right">
						<feature> 27 </feature>
						<threshold> 1.0 </threshold>
						<split pos="left">
							<output> -0.16649502515792847 </output>
						</split>
						<split pos="right">
							<output> 0.7512074112892151 </output>
						</split>
					</split>
				</split>
				<split pos="right">
					<output> 0.5217442512512207 </output>
				</split>
			</split>
			<split pos="right">
				<feature> 135 </feature>
				<threshold> 108970.0 </threshold>
				<split pos="left">
					<feature> 130 </feature>
					<threshold> 64768.184 </threshold>
					<split pos="left">
						<feature> 134 </feature>
						<threshold> 0.0 </threshold>
						<split pos="left">
							<feature> 72 </feature>
							<threshold> 26.810936 </threshold>
							<split pos="left">
								<output> 0.07684248685836792 </output>
							</split>
							<split pos="right">
								<output> 0.37492915987968445 </output>
							</split>
						</split>
						<split pos="right">
							<feature> 136 </feature>
							<threshold> 0.0 </threshold>
							<split pos="left">
								<output> -0.3836604952812195 </output>
							</split>
							<split pos="right">
								<output> 0.003325102850794792 </output>
							</split>
						</split>
					</split>
					<split pos="right">
						<output> 0.2569342255592346 </output>
					</split>
				</split>
				<split pos="right">
					<output> 0.9188445806503296 </output>
				</split>
			</split>
		</split>
	</tree>
	<tree id="47" weight="0.1">
		<split>
			<feature> 129 </feature>
			<threshold> 9.0 </threshold>
			<split pos="left">
				<feature> 135 </feature>
				<threshold> 10897.0 </threshold>
				<split pos="left">
					<feature> 11 </feature>
					<threshold> 1480.9375 </threshold>
					<split pos="left">
						<feature> 134 </feature>
						<threshold> 0.0 </threshold>
						<split pos="left">
							<feature> 14 </feature>
							<threshold> 4.0 </threshold>
							<split pos="left">
								<feature> 90 </feature>
								<threshold> -78.62988 </threshold>
								<split pos="left">
									<output> 0.9611450433731079 </output>
								</split>
								<split pos="right">
									<output> 0.16998609900474548 </output>
								</split>
							</split>
							<split pos="right">
								<feature> 130 </feature>
								<threshold> 27705.39 </threshold>
								<split pos="left">
									<output> -0.08668641746044159 </output>
								</split>
								<split pos="right">
									<output> 0.11307543516159058 </output>
								</split>
							</split>
						</split>
						<split pos="right">
							<feature> 17 </feature>
							<threshold> 7.759387 </threshold>
							<split pos="left">
								<output> -0.6614893674850464 </output>
							</split>
							<split pos="right">
								<feature> 18 </feature>
								<threshold> 16.653086 </threshold>
								<split pos="left">
									<output> -0.12200693786144257 </output>
								</split>
								<split pos="right">
									<output> 0.11822189390659332 </output>
								</split>
							</split>
						</split>
					</split>
					<split pos="right">
						<output> -0.36133497953414917 </output>
					</split>
				</split>
				<split pos="right">
					<output> 0.3401945233345032 </output>
				</split>
			</split>
			<split pos="right">
				<output> 0.15157563984394073 </output>
			</split>
		</split>
	</tree>
	<tree id="48" weight="0.1">
		<split>
			<feature> 3 </feature>
			<threshold> 1.0 </threshold>
			<split pos="left">
				<feature> 49 </feature>
				<threshold> 0.14701708 </threshold>
				<split pos="left">
					<feature> 134 </feature>
					<threshold> 0.0 </threshold>
					<split pos="left">
						<output> -0.12884293496608734 </output>
					</split>
					<split pos="right">
						<output> -0.11917216330766678 </output>
					</split>
				</split>
				<split pos="right">
					<output> 0.12019971758127213 </output>
				</split>
			</split>
			<split pos="right">
				<feature> 135 </feature>
				<threshold> 10897.0 </threshold>
				<split pos="left">
					<feature> 130 </feature>
					<threshold> 45597.773 </threshold>
					<split pos="left">
						<feature> 117 </feature>
						<threshold> -7.0282564 </threshold>
						<split pos="left">
							<feature> 129 </feature>
							<threshold> 29.0 </threshold>
							<split pos="left">
								<feature> 132 </feature>
								<threshold> 62.0 </threshold>
								<split pos="left">
									<feature> 14 </feature>
									<threshold> 3.0 </threshold>
									<split pos="left">
										<output> 0.19707612693309784 </output>
									</split>
									<split pos="right">
										<output> 0.024956369772553444 </output>
									</split>
								</split>
								<split pos="right">
									<output> -0.21918021142482758 </output>
								</split>
							</split>
							<split pos="right">
								<output> 0.33090993762016296 </output>
							</split>
						</split>
						<split pos="right">
							<output> 0.5227389335632324 </output>
						</split>
					</split>
					<split pos="right">
						<output> 0.21869955956935883 </output>
					</split>
				</split>
				<split pos="right">
					<output> 0.47174838185310364 </output>
				</split>
			</split>
		</split>
	</tree>
	<tree id="49" weight="0.1">
		<split>
			<feature> 129 </feature>
			<threshold> 0.0 </threshold>
			<split pos="left">
				<feature> 134 </feature>
				<threshold> 158726.08 </threshold>
				<split pos="left">
					<feature> 134 </feature>
					<threshold> 0.0 </threshold>
					<split pos="left">
						<feature> 11 </feature>
						<threshold> 0.0 </threshold>
						<split pos="left">
							<output> 0.6852586269378662 </output>
						</split>
						<split pos="right">
							<feature> 54 </feature>
							<threshold> 0.307692 </threshold>
							<split pos="left">
								<output> -0.09688107669353485 </output>
							</split>
							<split pos="right">
								<output> -0.7162061333656311 </output>
							</split>
						</split>
					</split>
					<split pos="right">
						<output> -0.12055253237485886 </output>
					</split>
				</split>
				<split pos="right">
					<output> 0.8300841450691223 </output>
				</split>
			</split>
			<split pos="right">
				<feature> 54 </feature>
				<threshold> 0.230769 </threshold>
				<split pos="left">
					<feature> 127 </feature>
					<threshold> 28.140625 </threshold>
					<split pos="left">
						<output> 0.17414982616901398 </output>
					</split>
					<split pos="right">
						<feature> 72 </feature>
						<threshold> 62.558846 </threshold>
						<split pos="left">
							<feature> 129 </feature>
							<threshold> 31.0 </threshold>
							<split pos="left">
								<output> -0.02453969046473503 </output>
							</split>
							<split pos="right">
								<output> 0.29098543524742126 </output>
							</split>
						</split>
						<split pos="right">
							<output> 0.30462127923965454 </output>
						</split>
					</split>
				</split>
				<split pos="right">
					<output> 0.37292563915252686 </output>
				</split>
			</split>
		</split>
	</tree>
	<tree id="50" weight="0.1">
		<split>
			<feature> 55 </feature>
			<threshold> 0.0062575703 </threshold>
			<split pos="left">
				<feature> 15 </feature>
				<threshold> 54.9375 </threshold>
				<split pos="left">
					<output> 0.260559618473053 </output>
				</split>
				<split pos="right">
					<feature> 110 </feature>
					<threshold> 28.361145 </threshold>
					<split pos="left">
						<output> -0.17426148056983948 </output>
					</split>
					<split pos="right">
						<output> 0.07028944045305252 </output>
					</split>
				</split>
			</split>
			<split pos="right">
				<feature> 135 </feature>
				<threshold> 108970.0 </threshold>
				<split pos="left">
					<feature> 133 </feature>
					<threshold> 10.0 </threshold>
					<split pos="left">
						<feature> 127 </feature>
						<threshold> 16.070312 </threshold>
						<split pos="left">
							<output> 0.32443931698799133 </output>
						</split>
						<split pos="right">
							<feature> 72 </feature>
							<threshold> 26.810936 </threshold>
							<split pos="left">
								<feature> 134 </feature>
								<threshold> 211634.77 </threshold>
								<split pos="left">
									<feature> 134 </feature>
									<threshold> 158726.08 </threshold>
									<split pos="left">
										<output> 0.08482950180768967 </output>
									</split>
									<split pos="right">
										<output> 1.0261434316635132 </output>
									</split>
								</split>
								<split pos="right">
									<output> -1.6450036764144897 </output>
								</split>
							</split>
							<split pos="right">
								<output> 0.36740490794181824 </output>
							</split>
						</split>
					</split>
					<split pos="right">
						<output> -0.05820854380726814 </output>
					</split>
				</split>
				<split pos="right">
					<output> 0.8815231919288635 </output>
				</split>
			</split>
		</split>
	</tree>
	<tree id="51" weight="0.1">
		<split>
			<feature> 130 </feature>
			<threshold> 21059.648 </threshold>
			<split pos="left">
				<feature> 54 </feature>
				<threshold> 0.214286 </threshold>
				<split pos="left">
					<feature> 129 </feature>
					<threshold> 32.0 </threshold>
					<split pos="left">
						<feature> 69 </feature>
						<threshold> 0.04710942 </threshold>
						<split pos="left">
							<feature> 3 </feature>
							<threshold> 3.0 </threshold>
							<split pos="left">
								<output> -0.07176843285560608 </output>
							</split>
							<split pos="right">
								<output> 0.1835319697856903 </output>
							</split>
						</split>
						<split pos="right">
							<output> 1.0304468870162964 </output>
						</split>
					</split>
					<split pos="right">
						<output> 0.31498241424560547 </output>
					</split>
				</split>
				<split pos="right">
					<output> -0.49188756942749023 </output>
				</split>
			</split>
			<split pos="right">
				<feature> 109 </feature>
				<threshold> 20.79318 </threshold>
				<split pos="left">
					<feature> 108 </feature>
					<threshold> 30.014242 </threshold>
					<split pos="left">
						<feature> 64 </feature>
						<threshold> 0.23885538 </threshold>
						<split pos="left">
							<feature> 110 </feature>
							<threshold> 20.158375 </threshold>
							<split pos="left">
								<output> -0.040347907692193985 </output>
							</split>
							<split pos="right">
								<output> 0.16352204978466034 </output>
							</split>
						</split>
						<split pos="right">
							<output> 0.23397864401340485 </output>
						</split>
					</split>
					<split pos="right">
						<output> 0.5620972514152527 </output>
					</split>
				</split>
				<split pos="right">
					<output> 0.44943365454673767 </output>
				</split>
			</split>
		</split>
	</tree>
	<tree id="52" weight="0.1">
		<split>
			<feature> 55 </feature>
			<threshold> 0.012515141 </threshold>
			<split pos="left">
				<feature> 27 </feature>
				<threshold> 1.0 </threshold>
				<split pos="left">
					<feature> 110 </feature>
					<threshold> 33.82966 </threshold>
					<split pos="left">
						<feature> 11 </feature>
						<threshold> 0.0 </threshold>
						<split pos="left">
							<output> 0.6029760241508484 </output>
						</split>
						<split pos="right">
							<feature> 115 </feature>
							<threshold> -30.789825 </threshold>
							<split pos="left">
								<output> -0.567211925983429 </output>
							</split>
							<split pos="right">
								<output> -0.08945342898368835 </output>
							</split>
						</split>
					</split>
					<split pos="right">
						<output> 0.1305042952299118 </output>
					</split>
				</split>
				<split pos="right">
					<output> 0.5956385731697083 </output>
				</split>
			</split>
			<split pos="right">
				<feature> 135 </feature>
				<threshold> 108970.0 </threshold>
				<split pos="left">
					<feature> 130 </feature>
					<threshold> 64768.184 </threshold>
					<split pos="left">
						<feature> 134 </feature>
						<threshold> 52908.69 </threshold>
						<split pos="left">
							<feature> 129 </feature>
							<threshold> 25.0 </threshold>
							<split pos="left">
								<output> 0.03754575550556183 </output>
							</split>
							<split pos="right">
								<output> 0.38923028111457825 </output>
							</split>
						</split>
						<split pos="right">
							<output> -1.1429129838943481 </output>
						</split>
					</split>
					<split pos="right">
						<output> 0.2463201880455017 </output>
					</split>
				</split>
				<split pos="right">
					<output> 0.8808842301368713 </output>
				</split>
			</split>
		</split>
	</tree>
	<tree id="53" weight="0.1">
		<split>
			<feature> 127 </feature>
			<threshold> 34.17578 </threshold>
			<split pos="left">
				<feature> 129 </feature>
				<threshold> 3.0 </threshold>
				<split pos="left">
					<feature> 134 </feature>
					<threshold> 0.0 </threshold>
					<split pos="left">
						<feature> 69 </feature>
						<threshold> 0.04710942 </threshold>
						<split pos="left">
							<feature> 11 </feature>
							<threshold> 528.90625 </threshold>
							<split pos="left">
								<feature> 80 </feature>
								<threshold> -78.62988 </threshold>
								<split pos="left">
									<output> 0.9796215891838074 </output>
								</split>
								<split pos="right">
									<output> 0.1339019536972046 </output>
								</split>
							</split>
							<split pos="right">
								<output> -0.17172105610370636 </output>
							</split>
						</split>
						<split pos="right">
							<output> 1.1879843473434448 </output>
						</split>
					</split>
					<split pos="right">
						<output> -0.10038114339113235 </output>
					</split>
				</split>
				<split pos="right">
					<output> 0.23123995959758759 </output>
				</split>
			</split>
			<split pos="right">
				<feature> 47 </feature>
				<threshold> 0.703125 </threshold>
				<split pos="left">
					<feature> 134 </feature>
					<threshold> 0.0 </threshold>
					<split pos="left">
						<feature> 135 </feature>
						<threshold> 21794.0 </threshold>
						<split pos="left">
							<output> -0.08062346279621124 </output>
						</split>
						<split pos="right">
							<output> 1.1831645965576172 </output>
						</split>
					</split>
					<split pos="right">
						<output> -0.10329870879650116 </output>
					</split>
				</split>
				<split pos="right">
					<output> 0.15630562603473663 </output>
				</split>
			</split>
		</split>
	</tree>
	<tree id="54" weight="0.1">
		<split>
			<feature> 133 </feature>
			<threshold> 10.0 </threshold>
			<split pos="left">
				<feature> 109 </feature>
				<threshold> 22.213211 </threshold>
				<split pos="left">
					<feature> 87 </feature>
					<threshold> 30.812656 </threshold>
					<split pos="left">
						<feature> 14 </feature>
						<threshold> 4.0 </threshold>
						<split pos="left">
							<feature> 108 </feature>
							<threshold> 25.567686 </threshold>
							<split pos="left">
								<feature> 90 </feature>
								<threshold> -78.62988 </threshold>
								<split pos="left">
									<output> 0.8647974729537964 </output>
								</split>
								<split pos="right">
									<feature> 110 </feature>
									<threshold> 25.626888 </threshold>
									<split pos="left">
										<output> 0.054546136409044266 </output>
									</split>
									<split pos="right">
										<output> 0.3949134945869446 </output>
									</split>
								</split>
							</split>
							<split pos="right">
								<output> 0.5768588781356812 </output>
							</split>
						</split>
						<split pos="right">
							<output> -0.007137569133192301 </output>
						</split>
					</split>
					<split pos="right">
						<output> 0.505986750125885 </output>
					</split>
				</split>
				<split pos="right">
					<output> 0.36225011944770813 </output>
				</split>
			</split>
			<split pos="right">
				<feature> 135 </feature>
				<threshold> 98073.0 </threshold>
				<split pos="left">
					<feature> 134 </feature>
					<threshold> 0.0 </threshold>
					<split pos="left">
						<output> -0.07415830343961716 </output>
					</split>
					<split pos="right">
						<output> -0.14161410927772522 </output>
					</split>
				</split>
				<split pos="right">
					<output> 1.1439025402069092 </output>
				</split>
			</split>
		</split>
	</tree>
	<tree id="55" weight="0.1">
		<split>
			<feature> 87 </feature>
			<threshold> 30.812656 </threshold>
			<split pos="left">
				<feature> 3 </feature>
				<threshold> 1.0 </threshold>
				<split pos="left">
					<feature> 134 </feature>
					<threshold> 0.0 </threshold>
					<split pos="left">
						<feature> 49 </feature>
						<threshold> 0.14701708 </threshold>
						<split pos="left">
							<output> -0.11761974543333054 </output>
						</split>
						<split pos="right">
							<output> 0.18784673511981964 </output>
						</split>
					</split>
