## LambdaMART
## No. of trees = 1000
## No. of leaves = 10
## No. of threshold candidates = 256
## Learning rate = 0.1
## Stop early = 100

<ensemble>
	<tree id="1" weight="0.1">
		<split>
			<feature> 39 </feature>
			<threshold> 0.78515625 </threshold>
			<split pos="left">
				<feature> 21 </feature>
				<threshold> 0.4296875 </threshold>
				<split pos="left">
					<output> -1.43440580368042 </output>
				</split>
				<split pos="right">
					<feature> 39 </feature>
					<threshold> 0.6484375 </threshold>
					<split pos="left">
						<feature> 46 </feature>
						<threshold> 0.80078125 </threshold>
						<split pos="left">
							<output> -0.4367143213748932 </output>
						</split>
						<split pos="right">
							<output> -1.433447003364563 </output>
						</split>
					</split>
					<split pos="right">
						<output> 0.22951850295066833 </output>
					</split>
				</split>
			</split>
			<split pos="right">
				<feature> 29 </feature>
				<threshold> 0.6640625 </threshold>
				<split pos="left">
					<feature> 22 </feature>
					<threshold> 0.76953125 </threshold>
					<split pos="left">
						<output> 0.4946732223033905 </output>
					</split>
					<split pos="right">
						<feature> 24 </feature>
						<threshold> 0.703125 </threshold>
						<split pos="left">
							<output> 1.8101750612258911 </output>
						</split>
						<split pos="right">
							<feature> 39 </feature>
							<threshold> 0.91796875 </threshold>
							<split pos="left">
								<output> 0.9157406687736511 </output>
							</split>
							<split pos="right">
								<output> 1.2657941579818726 </output>
							</split>
						</split>
					</split>
				</split>
				<split pos="right">
					<feature> 19 </feature>
					<threshold> 0.181818 </threshold>
					<split pos="left">
						<output> 1.6367536783218384 </output>
					</split>
					<split pos="right">
						<output> 1.4227732419967651 </output>
					</split>
				</split>
			</split>
		</split>
	</tree>
	<tree id="2" weight="0.1">
		<split>
			<feature> 39 </feature>
			<threshold> 0.828125 </threshold>
			<split pos="left">
				<output> -0.9995670914649963 </output>
			</split>
			<split pos="right">
				<feature> 29 </feature>
				<threshold> 0.66796875 </threshold>
				<split pos="left">
					<feature> 39 </feature>
					<threshold> 0.91796875 </threshold>
					<split pos="left">
						<output> 0.19989429414272308 </output>
					</split>
					<split pos="right">
						<feature> 40 </feature>
						<threshold> 0.8359375 </threshold>
						<split pos="left">
							<output> 0.450837105512619 </output>
						</split>
						<split pos="right">
							<feature> 39 </feature>
							<threshold> 0.921875 </threshold>
							<split pos="left">
								<output> 1.8413864374160767 </output>
							</split>
							<split pos="right">
								<feature> 21 </feature>
								<threshold> 0.75 </threshold>
								<split pos="left">
									<output> 0.5163964629173279 </output>
								</split>
								<split pos="right">
									<output> 1.3921525478363037 </output>
								</split>
							</split>
						</split>
					</split>
				</split>
				<split pos="right">
					<feature> 16 </feature>
					<threshold> 0.01953125 </threshold>
					<split pos="left">
						<feature> 40 </feature>
						<threshold> 0.78515625 </threshold>
						<split pos="left">
							<output> 1.824779987335205 </output>
						</split>
						<split pos="right">
							<feature> 15 </feature>
							<threshold> 0.01953125 </threshold>
							<split pos="left">
								<output> 1.6824430227279663 </output>
							</split>
							<split pos="right">
								<output> 1.4657750129699707 </output>
							</split>
						</split>
					</split>
					<split pos="right">
						<output> 1.3418830633163452 </output>
					</split>
				</split>
			</split>
		</split>
	</tree>
	<tree id="3" weight="0.1">
		<split>
			<feature> 39 </feature>
			<threshold> 0.828125 </threshold>
			<split pos="left">
				<output> -1.0422580242156982 </output>
			</split>
			<split pos="right">
				<feature> 29 </feature>
				<threshold> 0.66796875 </threshold>
				<split pos="left">
					<feature> 22 </feature>
					<threshold> 0.90625 </threshold>
					<split pos="left">
						<output> 0.5321880578994751 </output>
					</split>
					<split pos="right">
						<feature> 39 </feature>
						<threshold> 0.91796875 </threshold>
						<split pos="left">
							<output> 0.24851444363594055 </output>
						</split>
						<split pos="right">
							<feature> 39 </feature>
							<threshold> 0.921875 </threshold>
							<split pos="left">
								<output> 1.6538417339324951 </output>
							</split>
							<split pos="right">
								<feature> 17 </feature>
								<threshold> 0.04296875 </threshold>
								<split pos="left">
									<output> 1.3600070476531982 </output>
								</split>
								<split pos="right">
									<output> 1.0258969068527222 </output>
								</split>
							</split>
						</split>
					</split>
				</split>
				<split pos="right">
					<feature> 5 </feature>
					<threshold> 0.01953125 </threshold>
					<split pos="left">
						<output> 1.5396400690078735 </output>
					</split>
					<split pos="right">
						<feature> 42 </feature>
						<threshold> 0.3203125 </threshold>
						<split pos="left">
							<feature> 40 </feature>
							<threshold> 0.78515625 </threshold>
							<split pos="left">
								<output> 1.5661500692367554 </output>
							</split>
							<split pos="right">
								<output> 1.286120891571045 </output>
							</split>
						</split>
						<split pos="right">
							<output> 0.9166951179504395 </output>
						</split>
					</split>
				</split>
			</split>
		</split>
	</tree>
	<tree id="4" weight="0.1">
		<split>
			<feature> 39 </feature>
			<threshold> 0.828125 </threshold>
			<split pos="left">
				<output> -0.9178151488304138 </output>
			</split>
			<split pos="right">
				<feature> 29 </feature>
				<threshold> 0.66796875 </threshold>
				<split pos="left">
					<feature> 22 </feature>
					<threshold> 0.90625 </threshold>
					<split pos="left">
						<output> 0.4189169108867645 </output>
					</split>
					<split pos="right">
						<feature> 17 </feature>
						<threshold> 0.02734375 </threshold>
						<split pos="left">
							<feature> 37 </feature>
							<threshold> 0.88671875 </threshold>
							<split pos="left">
								<feature> 17 </feature>
								<threshold> 0.0234375 </threshold>
								<split pos="left">
									<output> 1.3432772159576416 </output>
								</split>
								<split pos="right">
									<output> 1.5256340503692627 </output>
								</split>
							</split>
							<split pos="right">
								<output> 1.0992203950881958 </output>
							</split>
						</split>
						<split pos="right">
							<output> 0.854121208190918 </output>
						</split>
					</split>
				</split>
				<split pos="right">
					<feature> 5 </feature>
					<threshold> 0.01953125 </threshold>
					<split pos="left">
						<output> 1.378002643585205 </output>
					</split>
					<split pos="right">
						<feature> 42 </feature>
						<threshold> 0.3203125 </threshold>
						<split pos="left">
							<feature> 40 </feature>
							<threshold> 0.78515625 </threshold>
							<split pos="left">
								<output> 1.4275647401809692 </output>
							</split>
							<split pos="right">
								<output> 1.1486027240753174 </output>
							</split>
						</split>
						<split pos="right">
							<output> 0.8191759586334229 </output>
						</split>
					</split>
				</split>
			</split>
		</split>
	</tree>
	<tree id="5" weight="0.1">
		<split>
			<feature> 39 </feature>
			<threshold> 0.828125 </threshold>
			<split pos="left">
				<output> -0.8136233687400818 </output>
			</split>
			<split pos="right">
				<feature> 29 </feature>
				<threshold> 0.703125 </threshold>
				<split pos="left">
					<feature> 40 </feature>
					<threshold> 0.8671875 </threshold>
					<split pos="left">
						<output> 0.24297018349170685 </output>
					</split>
					<split pos="right">
						<feature> 39 </feature>
						<threshold> 0.91796875 </threshold>
						<split pos="left">
							<output> 0.3969683051109314 </output>
						</split>
						<split pos="right">
							<feature> 39 </feature>
							<threshold> 0.921875 </threshold>
							<split pos="left">
								<output> 1.4386645555496216 </output>
							</split>
							<split pos="right">
								<feature> 5 </feature>
								<threshold> 0.11328125 </threshold>
								<split pos="left">
									<output> 1.1665371656417847 </output>
								</split>
								<split pos="right">
									<output> 0.6972706913948059 </output>
								</split>
							</split>
						</split>
					</split>
				</split>
				<split pos="right">
					<feature> 5 </feature>
					<threshold> 0.01953125 </threshold>
					<split pos="left">
						<output> 1.278786063194275 </output>
					</split>
					<split pos="right">
						<feature> 16 </feature>
						<threshold> 0.01953125 </threshold>
						<split pos="left">
							<feature> 40 </feature>
							<threshold> 0.78515625 </threshold>
							<split pos="left">
								<output> 1.4256036281585693 </output>
							</split>
							<split pos="right">
								<output> 1.0247867107391357 </output>
							</split>
						</split>
						<split pos="right">
							<output> 1.0155971050262451 </output>
						</split>
					</split>
				</split>
			</split>
		</split>
	</tree>
	<tree id="6" weight="0.1">
		<split>
			<feature> 39 </feature>
			<threshold> 0.828125 </threshold>
			<split pos="left">
				<output> -0.7284681797027588 </output>
			</split>
			<split pos="right">
				<feature> 29 </feature>
				<threshold> 0.66796875 </threshold>
				<split pos="left">
					<feature> 22 </feature>
					<threshold> 0.90625 </threshold>
					<split pos="left">
						<output> 0.2784139811992645 </output>
					</split>
					<split pos="right">
						<feature> 17 </feature>
						<threshold> 0.02734375 </threshold>
						<split pos="left">
							<feature> 15 </feature>
							<threshold> 0.13671875 </threshold>
							<split pos="left">
								<output> 1.2518584728240967 </output>
							</split>
							<split pos="right">
								<output> 0.8503763675689697 </output>
							</split>
						</split>
						<split pos="right">
							<output> 0.6514952778816223 </output>
						</split>
					</split>
				</split>
				<split pos="right">
					<feature> 5 </feature>
					<threshold> 0.01953125 </threshold>
					<split pos="left">
						<output> 1.2021812200546265 </output>
					</split>
					<split pos="right">
						<feature> 42 </feature>
						<threshold> 0.3203125 </threshold>
						<split pos="left">
							<feature> 40 </feature>
							<threshold> 0.78515625 </threshold>
							<split pos="left">
								<output> 1.2555738687515259 </output>
							</split>
							<split pos="right">
								<feature> 17 </feature>
								<threshold> 0.1328125 </threshold>
								<split pos="left">
									<output> 1.1037960052490234 </output>
								</split>
								<split pos="right">
									<output> 0.797487735748291 </output>
								</split>
							</split>
						</split>
						<split pos="right">
							<output> 0.5892812609672546 </output>
						</split>
					</split>
				</split>
			</split>
		</split>
	</tree>
	<tree id="7" weight="0.1">
		<split>
			<feature> 39 </feature>
			<threshold> 0.80859375 </threshold>
			<split pos="left">
				<output> -0.715909481048584 </output>
			</split>
			<split pos="right">
				<feature> 29 </feature>
				<threshold> 0.66796875 </threshold>
				<split pos="left">
					<feature> 40 </feature>
					<threshold> 0.8359375 </threshold>
					<split pos="left">
						<output> -0.038920849561691284 </output>
					</split>
					<split pos="right">
						<feature> 39 </feature>
						<threshold> 0.91796875 </threshold>
						<split pos="left">
							<output> 0.3710760474205017 </output>
						</split>
						<split pos="right">
							<feature> 39 </feature>
							<threshold> 0.921875 </threshold>
							<split pos="left">
								<output> 1.317168116569519 </output>
							</split>
							<split pos="right">
								<feature> 5 </feature>
								<threshold> 0.11328125 </threshold>
								<split pos="left">
									<output> 1.0025043487548828 </output>
								</split>
								<split pos="right">
									<output> 0.5558708310127258 </output>
								</split>
							</split>
						</split>
					</split>
				</split>
				<split pos="right">
					<feature> 5 </feature>
					<threshold> 0.01953125 </threshold>
					<split pos="left">
						<output> 1.1289201974868774 </output>
					</split>
					<split pos="right">
						<feature> 42 </feature>
						<threshold> 0.3203125 </threshold>
						<split pos="left">
							<feature> 29 </feature>
							<threshold> 0.8203125 </threshold>
							<split pos="left">
								<output> 1.0788369178771973 </output>
							</split>
							<split pos="right">
								<output> 0.7574288845062256 </output>
							</split>
						</split>
						<split pos="right">
							<output> 0.5979154109954834 </output>
						</split>
					</split>
				</split>
			</split>
		</split>
	</tree>
	<tree id="8" weight="0.1">
		<split>
			<feature> 39 </feature>
			<threshold> 0.80859375 </threshold>
			<split pos="left">
				<output> -0.6352104544639587 </output>
			</split>
			<split pos="right">
				<feature> 29 </feature>
				<threshold> 0.66796875 </threshold>
				<split pos="left">
					<feature> 40 </feature>
					<threshold> 0.8359375 </threshold>
					<split pos="left">
						<output> -0.07939855754375458 </output>
					</split>
					<split pos="right">
						<feature> 39 </feature>
						<threshold> 0.91796875 </threshold>
						<split pos="left">
							<output> 0.2861332595348358 </output>
						</split>
						<split pos="right">
							<feature> 39 </feature>
							<threshold> 0.921875 </threshold>
							<split pos="left">
								<output> 1.2662110328674316 </output>
							</split>
							<split pos="right">
								<feature> 5 </feature>
								<threshold> 0.11328125 </threshold>
								<split pos="left">
									<output> 0.9326888918876648 </output>
								</split>
								<split pos="right">
									<output> 0.4764998257160187 </output>
								</split>
							</split>
						</split>
					</split>
				</split>
				<split pos="right">
					<feature> 5 </feature>
					<threshold> 0.01953125 </threshold>
					<split pos="left">
						<output> 1.076283574104309 </output>
					</split>
					<split pos="right">
						<feature> 29 </feature>
						<threshold> 0.8203125 </threshold>
						<split pos="left">
							<feature> 29 </feature>
							<threshold> 0.8125 </threshold>
							<split pos="left">
								<output> 0.8470515012741089 </output>
							</split>
							<split pos="right">
								<output> 1.1997920274734497 </output>
							</split>
						</split>
						<split pos="right">
							<output> 0.6812514066696167 </output>
						</split>
					</split>
				</split>
			</split>
		</split>
	</tree>
	<tree id="9" weight="0.1">
		<split>
			<feature> 23 </feature>
			<threshold> 0.7890625 </threshold>
			<split pos="left">
				<output> -0.6180174350738525 </output>
			</split>
			<split pos="right">
				<feature> 25 </feature>
				<threshold> 0.671875 </threshold>
				<split pos="left">
					<feature> 40 </feature>
					<threshold> 0.91015625 </threshold>
					<split pos="left">
						<output> 0.1734413057565689 </output>
					</split>
					<split pos="right">
						<feature> 22 </feature>
						<threshold> 0.765625 </threshold>
						<split pos="left">
							<output> 1.3212428092956543 </output>
						</split>
						<split pos="right">
							<feature> 17 </feature>
							<threshold> 0.0390625 </threshold>
							<split pos="left">
								<feature> 26 </feature>
								<threshold> 0.06640625 </threshold>
								<split pos="left">
									<output> 0.8706414103507996 </output>
								</split>
								<split pos="right">
									<output> 1.314785361289978 </output>
								</split>
							</split>
							<split pos="right">
								<output> 0.2817244827747345 </output>
							</split>
						</split>
					</split>
				</split>
				<split pos="right">
					<feature> 1 </feature>
					<threshold> 0.015625 </threshold>
					<split pos="left">
						<output> 1.1395890712738037 </output>
					</split>
					<split pos="right">
						<feature> 25 </feature>
						<threshold> 0.67578125 </threshold>
						<split pos="left">
							<output> 1.2569661140441895 </output>
						</split>
						<split pos="right">
							<feature> 20 </feature>
							<threshold> 0.01953125 </threshold>
							<split pos="left">
								<output> 0.9712917804718018 </output>
							</split>
							<split pos="right">
								<output> 0.7802720069885254 </output>
							</split>
						</split>
					</split>
				</split>
			</split>
		</split>
	</tree>
	<tree id="10" weight="0.1">
		<split>
			<feature> 23 </feature>
			<threshold> 0.78515625 </threshold>
			<split pos="left">
				<output> -0.5822787880897522 </output>
			</split>
			<split pos="right">
				<feature> 29 </feature>
				<threshold> 0.66796875 </threshold>
				<split pos="left">
					<feature> 40 </feature>
					<threshold> 0.8359375 </threshold>
					<split pos="left">
						<output> -0.10452700406312943 </output>
					</split>
					<split pos="right">
						<feature> 39 </feature>
						<threshold> 0.91796875 </threshold>
						<split pos="left">
							<output> 0.2910674512386322 </output>
						</split>
						<split pos="right">
							<feature> 39 </feature>
							<threshold> 0.921875 </threshold>
							<split pos="left">
								<output> 1.2069100141525269 </output>
							</split>
							<split pos="right">
								<feature> 5 </feature>
								<threshold> 0.11328125 </threshold>
								<split pos="left">
									<output> 0.8310542106628418 </output>
								</split>
								<split pos="right">
									<output> 0.3396298885345459 </output>
								</split>
							</split>
						</split>
					</split>
				</split>
				<split pos="right">
					<feature> 11 </feature>
					<threshold> 0.015625 </threshold>
					<split pos="left">
						<output> 1.0516060590744019 </output>
					</split>
					<split pos="right">
						<feature> 44 </feature>
						<threshold> 0.0078125 </threshold>
						<split pos="left">
							<feature> 40 </feature>
							<threshold> 0.8046875 </threshold>
							<split pos="left">
								<output> 1.105758786201477 </output>
							</split>
							<split pos="right">
								<output> 0.8134958744049072 </output>
							</split>
						</split>
						<split pos="right">
							<output> 0.5646231174468994 </output>
						</split>
					</split>
				</split>
			</split>
		</split>
	</tree>
	<tree id="11" weight="0.1">
		<split>
			<feature> 38 </feature>
			<threshold> 0.796875 </threshold>
			<split pos="left">
				<feature> 39 </feature>
				<threshold> 0.5859375 </threshold>
				<split pos="left">
					<output> -0.9095239043235779 </output>
				</split>
				<split pos="right">
					<output> 0.04036539047956467 </output>
				</split>
			</split>
			<split pos="right">
				<feature> 23 </feature>
				<threshold> 0.78125 </threshold>
				<split pos="left">
					<output> 0.1989007592201233 </output>
				</split>
				<split pos="right">
					<feature> 25 </feature>
					<threshold> 0.6953125 </threshold>
					<split pos="left">
						<feature> 1 </feature>
						<threshold> 0.53125 </threshold>
						<split pos="left">
							<feature> 39 </feature>
							<threshold> 0.91796875 </threshold>
							<split pos="left">
								<output> 0.33201107382774353 </output>
							</split>
							<split pos="right">
								<feature> 22 </feature>
								<threshold> 0.76171875 </threshold>
								<split pos="left">
									<output> 1.2434213161468506 </output>
								</split>
								<split pos="right">
									<feature> 17 </feature>
									<threshold> 0.0390625 </threshold>
									<split pos="left">
										<output> 0.8072378635406494 </output>
									</split>
									<split pos="right">
										<output> 0.43746745586395264 </output>
									</split>
								</split>
							</split>
						</split>
						<split pos="right">
							<output> -0.5600358843803406 </output>
						</split>
					</split>
					<split pos="right">
						<feature> 40 </feature>
						<threshold> 0.7421875 </threshold>
						<split pos="left">
							<output> 1.1915249824523926 </output>
						</split>
						<split pos="right">
							<output> 0.7845873832702637 </output>
						</split>
					</split>
				</split>
			</split>
		</split>
	</tree>
	<tree id="12" weight="0.1">
		<split>
			<feature> 38 </feature>
			<threshold> 0.796875 </threshold>
			<split pos="left">
				<feature> 39 </feature>
				<threshold> 0.5546875 </threshold>
				<split pos="left">
					<output> -0.9000351428985596 </output>
				</split>
				<split pos="right">
					<output> 0.007359122391790152 </output>
				</split>
			</split>
			<split pos="right">
				<feature> 23 </feature>
				<threshold> 0.78125 </threshold>
				<split pos="left">
					<output> 0.2760544717311859 </output>
				</split>
				<split pos="right">
					<feature> 25 </feature>
					<threshold> 0.6953125 </threshold>
					<split pos="left">
						<feature> 1 </feature>
						<threshold> 0.53125 </threshold>
						<split pos="left">
							<feature> 39 </feature>
							<threshold> 0.91796875 </threshold>
							<split pos="left">
								<output> 0.29540151357650757 </output>
							</split>
							<split pos="right">
								<feature> 22 </feature>
								<threshold> 0.76171875 </threshold>
								<split pos="left">
									<output> 1.212044596672058 </output>
								</split>
								<split pos="right">
									<feature> 17 </feature>
									<threshold> 0.0390625 </threshold>
									<split pos="left">
										<output> 0.7574031949043274 </output>
									</split>
									<split pos="right">
										<output> 0.3756369948387146 </output>
									</split>
								</split>
							</split>
						</split>
						<split pos="right">
							<output> -0.5445895195007324 </output>
						</split>
					</split>
					<split pos="right">
						<feature> 40 </feature>
						<threshold> 0.73828125 </threshold>
						<split pos="left">
							<output> 1.1724470853805542 </output>
						</split>
						<split pos="right">
							<output> 0.7212055325508118 </output>
						</split>
					</split>
				</split>
			</split>
		</split>
	</tree>
	<tree id="13" weight="0.1">
		<split>
			<feature> 38 </feature>
			<threshold> 0.796875 </threshold>
			<split pos="left">
				<feature> 39 </feature>
				<threshold> 0.55859375 </threshold>
				<split pos="left">
					<output> -0.8475625514984131 </output>
				</split>
				<split pos="right">
					<feature> 29 </feature>
					<threshold> 0.6875 </threshold>
					<split pos="left">
						<output> -0.18985868990421295 </output>
					</split>
					<split pos="right">
						<output> 0.9569361209869385 </output>
					</split>
				</split>
			</split>
			<split pos="right">
				<feature> 16 </feature>
				<threshold> 0.0078125 </threshold>
				<split pos="left">
					<output> 0.07296721637248993 </output>
				</split>
				<split pos="right">
					<feature> 25 </feature>
					<threshold> 0.796875 </threshold>
					<split pos="left">
						<feature> 46 </feature>
						<threshold> 0.34375 </threshold>
						<split pos="left">
							<feature> 17 </feature>
							<threshold> 0.046875 </threshold>
							<split pos="left">
								<feature> 42 </feature>
								<threshold> 0.20703125 </threshold>
								<split pos="left">
									<output> 0.9722511172294617 </output>
								</split>
								<split pos="right">
									<output> 0.30072832107543945 </output>
								</split>
							</split>
							<split pos="right">
								<feature> 22 </feature>
								<threshold> 0.7734375 </threshold>
								<split pos="left">
									<output> 1.068647861480713 </output>
								</split>
								<split pos="right">
									<output> 0.3372207581996918 </output>
								</split>
							</split>
						</split>
						<split pos="right">
							<output> -0.21097669005393982 </output>
						</split>
					</split>
					<split pos="right">
						<output> 0.7707592248916626 </output>
					</split>
				</split>
			</split>
		</split>
	</tree>
	<tree id="14" weight="0.1">
		<split>
			<feature> 38 </feature>
			<threshold> 0.796875 </threshold>
			<split pos="left">
				<feature> 40 </feature>
				<threshold> 0.9765625 </threshold>
				<split pos="left">
					<feature> 39 </feature>
					<threshold> 0.4296875 </threshold>
					<split pos="left">
						<output> -0.9696692228317261 </output>
					</split>
					<split pos="right">
						<feature> 29 </feature>
						<threshold> 0.6875 </threshold>
						<split pos="left">
							<output> -0.26454317569732666 </output>
						</split>
						<split pos="right">
							<output> 0.8342926502227783 </output>
						</split>
					</split>
				</split>
				<split pos="right">
					<output> 2.6591007709503174 </output>
				</split>
			</split>
			<split pos="right">
				<feature> 25 </feature>
				<threshold> 0.765625 </threshold>
				<split pos="left">
					<feature> 41 </feature>
					<threshold> 0.111111 </threshold>
					<split pos="left">
						<output> -0.25566786527633667 </output>
					</split>
					<split pos="right">
						<feature> 19 </feature>
						<threshold> 0.192308 </threshold>
						<split pos="left">
							<output> 0.5874575972557068 </output>
						</split>
						<split pos="right">
							<feature> 23 </feature>
							<threshold> 0.9609375 </threshold>
							<split pos="left">
								<output> 0.05458617955446243 </output>
							</split>
							<split pos="right">
								<output> 0.4525257349014282 </output>
							</split>
						</split>
					</split>
				</split>
				<split pos="right">
					<feature> 23 </feature>
					<threshold> 0.828125 </threshold>
					<split pos="left">
						<output> 0.27962544560432434 </output>
					</split>
					<split pos="right">
						<output> 0.7151066660881042 </output>
					</split>
				</split>
			</split>
		</split>
	</tree>
	<tree id="15" weight="0.1">
		<split>
			<feature> 37 </feature>
			<threshold> 0.73046875 </threshold>
			<split pos="left">
				<feature> 39 </feature>
				<threshold> 0.44140625 </threshold>
				<split pos="left">
					<output> -0.9089698791503906 </output>
				</split>
				<split pos="right">
					<output> -0.16092804074287415 </output>
				</split>
			</split>
			<split pos="right">
				<feature> 29 </feature>
				<threshold> 0.65625 </threshold>
				<split pos="left">
					<feature> 24 </feature>
					<threshold> 0.8515625 </threshold>
					<split pos="left">
						<output> -0.08523425459861755 </output>
					</split>
					<split pos="right">
						<feature> 42 </feature>
						<threshold> 0.578125 </threshold>
						<split pos="left">
							<feature> 41 </feature>
							<threshold> 0.125 </threshold>
							<split pos="left">
								<output> -0.6139920949935913 </output>
							</split>
							<split pos="right">
								<feature> 39 </feature>
								<threshold> 0.91796875 </threshold>
								<split pos="left">
									<output> 0.5440241098403931 </output>
								</split>
								<split pos="right">
									<output> 0.6372169852256775 </output>
								</split>
							</split>
						</split>
						<split pos="right">
							<output> -0.23562760651111603 </output>
						</split>
					</split>
				</split>
				<split pos="right">
					<feature> 23 </feature>
					<threshold> 0.7890625 </threshold>
					<split pos="left">
						<output> 0.5041086673736572 </output>
					</split>
					<split pos="right">
						<feature> 45 </feature>
						<threshold> 0.0078125 </threshold>
						<split pos="left">
							<output> 0.8255619406700134 </output>
						</split>
						<split pos="right">
							<output> 0.4061731696128845 </output>
						</split>
					</split>
				</split>
			</split>
		</split>
	</tree>
	<tree id="16" weight="0.1">
		<split>
			<feature> 37 </feature>
			<threshold> 0.73046875 </threshold>
			<split pos="left">
				<feature> 40 </feature>
				<threshold> 0.4375 </threshold>
				<split pos="left">
					<output> -0.904168963432312 </output>
				</split>
				<split pos="right">
					<output> -0.17767126858234406 </output>
				</split>
			</split>
			<split pos="right">
				<feature> 32 </feature>
				<threshold> 0.359375 </threshold>
				<split pos="left">
					<feature> 24 </feature>
					<threshold> 0.8515625 </threshold>
					<split pos="left">
						<output> -0.09351663291454315 </output>
					</split>
					<split pos="right">
						<feature> 42 </feature>
						<threshold> 0.578125 </threshold>
						<split pos="left">
							<feature> 42 </feature>
							<threshold> 0.51171875 </threshold>
							<split pos="left">
								<feature> 28 </feature>
								<threshold> 0.51953125 </threshold>
								<split pos="left">
									<output> 0.20764359831809998 </output>
								</split>
								<split pos="right">
									<output> 0.9317653179168701 </output>
								</split>
							</split>
							<split pos="right">
								<output> 1.002058982849121 </output>
							</split>
						</split>
						<split pos="right">
							<output> -0.31676074862480164 </output>
						</split>
					</split>
				</split>
				<split pos="right">
					<feature> 23 </feature>
					<threshold> 0.7890625 </threshold>
					<split pos="left">
						<output> 0.33978140354156494 </output>
					</split>
					<split pos="right">
						<feature> 45 </feature>
						<threshold> 0.0078125 </threshold>
						<split pos="left">
							<output> 0.7999062538146973 </output>
						</split>
						<split pos="right">
							<output> 0.3662385940551758 </output>
						</split>
					</split>
				</split>
			</split>
		</split>
	</tree>
	<tree id="17" weight="0.1">
		<split>
			<feature> 37 </feature>
			<threshold> 0.73046875 </threshold>
			<split pos="left">
				<feature> 39 </feature>
				<threshold> 0.44140625 </threshold>
				<split pos="left">
					<output> -0.8267921209335327 </output>
				</split>
				<split pos="right">
					<feature> 2 </feature>
					<threshold> 0.428571 </threshold>
					<split pos="left">
						<output> -0.23939785361289978 </output>
					</split>
					<split pos="right">
						<output> 0.6788259148597717 </output>
					</split>
				</split>
			</split>
			<split pos="right">
				<feature> 32 </feature>
				<threshold> 0.359375 </threshold>
				<split pos="left">
					<feature> 24 </feature>
					<threshold> 0.8515625 </threshold>
					<split pos="left">
						<output> -0.10350846499204636 </output>
					</split>
					<split pos="right">
						<feature> 22 </feature>
						<threshold> 0.98828125 </threshold>
						<split pos="left">
							<feature> 22 </feature>
							<threshold> 0.984375 </threshold>
							<split pos="left">
								<output> 0.3974117934703827 </output>
							</split>
							<split pos="right">
								<output> 1.317138671875 </output>
							</split>
						</split>
						<split pos="right">
							<output> -0.09260207414627075 </output>
						</split>
					</split>
				</split>
				<split pos="right">
					<feature> 16 </feature>
					<threshold> 0.0078125 </threshold>
					<split pos="left">
						<output> 0.026151882484555244 </output>
					</split>
					<split pos="right">
						<feature> 45 </feature>
						<threshold> 0.0078125 </threshold>
						<split pos="left">
							<output> 0.7872975468635559 </output>
						</split>
						<split pos="right">
							<output> 0.44710424542427063 </output>
						</split>
					</split>
				</split>
			</split>
		</split>
	</tree>
	<tree id="18" weight="0.1">
		<split>
			<feature> 37 </feature>
			<threshold> 0.73046875 </threshold>
			<split pos="left">
				<feature> 40 </feature>
				<threshold> 0.53125 </threshold>
				<split pos="left">
					<output> -0.7484610676765442 </output>
				</split>
				<split pos="right">
					<output> -0.06223098561167717 </output>
				</split>
			</split>
			<split pos="right">
				<feature> 32 </feature>
				<threshold> 0.359375 </threshold>
				<split pos="left">
					<feature> 46 </feature>
					<threshold> 0.1640625 </threshold>
					<split pos="left">
						<feature> 16 </feature>
						<threshold> 0.0078125 </threshold>
						<split pos="left">
							<output> -0.3670971095561981 </output>
						</split>
						<split pos="right">
							<feature> 21 </feature>
							<threshold> 0.69921875 </threshold>
							<split pos="left">
								<output> 1.723160743713379 </output>
							</split>
							<split pos="right">
								<feature> 37 </feature>
								<threshold> 0.97265625 </threshold>
								<split pos="left">
									<output> 0.1840805858373642 </output>
								</split>
								<split pos="right">
									<output> 0.5436421036720276 </output>
								</split>
							</split>
						</split>
					</split>
					<split pos="right">
						<output> -0.23291811347007751 </output>
					</split>
				</split>
				<split pos="right">
					<feature> 23 </feature>
					<threshold> 0.7890625 </threshold>
					<split pos="left">
						<output> 0.2812454104423523 </output>
					</split>
					<split pos="right">
						<feature> 45 </feature>
						<threshold> 0.0078125 </threshold>
						<split pos="left">
							<output> 0.7267594337463379 </output>
						</split>
						<split pos="right">
							<output> 0.2718842029571533 </output>
						</split>
					</split>
				</split>
			</split>
		</split>
	</tree>
	<tree id="19" weight="0.1">
		<split>
			<feature> 37 </feature>
			<threshold> 0.69140625 </threshold>
			<split pos="left">
				<feature> 40 </feature>
				<threshold> 0.45703125 </threshold>
				<split pos="left">
					<output> -0.7889422178268433 </output>
				</split>
				<split pos="right">
					<output> -0.12958142161369324 </output>
				</split>
			</split>
			<split pos="right">
				<feature> 29 </feature>
				<threshold> 0.703125 </threshold>
				<split pos="left">
					<feature> 24 </feature>
					<threshold> 0.78515625 </threshold>
					<split pos="left">
						<output> -0.17560411989688873 </output>
					</split>
					<split pos="right">
						<feature> 25 </feature>
						<threshold> 0.6796875 </threshold>
						<split pos="left">
							<feature> 25 </feature>
							<threshold> 0.5625 </threshold>
							<split pos="left">
								<feature> 28 </feature>
								<threshold> 0.171875 </threshold>
								<split pos="left">
									<feature> 5 </feature>
									<threshold> 0.11328125 </threshold>
									<split pos="left">
										<output> 0.31424590945243835 </output>
									</split>
									<split pos="right">
										<output> -0.3070797324180603 </output>
									</split>
								</split>
								<split pos="right">
									<output> 0.6820418238639832 </output>
								</split>
							</split>
							<split pos="right">
								<output> -1.0048761367797852 </output>
							</split>
						</split>
						<split pos="right">
							<output> 0.6635054349899292 </output>
						</split>
					</split>
				</split>
				<split pos="right">
					<feature> 20 </feature>
					<threshold> 0.0078125 </threshold>
					<split pos="left">
						<output> 0.010581698268651962 </output>
					</split>
					<split pos="right">
						<output> 0.5529838800430298 </output>
					</split>
				</split>
			</split>
		</split>
	</tree>
	<tree id="20" weight="0.1">
		<split>
			<feature> 37 </feature>
			<threshold> 0.73046875 </threshold>
			<split pos="left">
				<feature> 21 </feature>
				<threshold> 0.4296875 </threshold>
				<split pos="left">
					<output> -0.6620299816131592 </output>
				</split>
				<split pos="right">
					<feature> 21 </feature>
					<threshold> 0.90625 </threshold>
					<split pos="left">
						<output> -0.05141427367925644 </output>
					</split>
					<split pos="right">
						<output> 2.1651809215545654 </output>
					</split>
				</split>
			</split>
			<split pos="right">
				<feature> 30 </feature>
				<threshold> 0.34765625 </threshold>
				<split pos="left">
					<feature> 42 </feature>
					<threshold> 0.5859375 </threshold>
					<split pos="left">
						<feature> 24 </feature>
						<threshold> 0.8671875 </threshold>
						<split pos="left">
							<output> -0.017068102955818176 </output>
						</split>
						<split pos="right">
							<feature> 41 </feature>
							<threshold> 0.444444 </threshold>
							<split pos="left">
								<output> 0.049725983291864395 </output>
							</split>
							<split pos="right">
								<output> 0.6421747803688049 </output>
							</split>
						</split>
					</split>
					<split pos="right">
						<output> -0.46524757146835327 </output>
					</split>
				</split>
				<split pos="right">
					<feature> 16 </feature>
					<threshold> 0.0078125 </threshold>
					<split pos="left">
						<output> -0.007722854148596525 </output>
					</split>
					<split pos="right">
						<feature> 45 </feature>
						<threshold> 0.0078125 </threshold>
						<split pos="left">
							<output> 0.6753716468811035 </output>
						</split>
						<split pos="right">
							<output> 0.32694846391677856 </output>
						</split>
					</split>
				</split>
			</split>
		</split>
	</tree>
	<tree id="21" weight="0.1">
		<split>
			<feature> 25 </feature>
			<threshold> 0.20703125 </threshold>
			<split pos="left">
				<feature> 29 </feature>
				<threshold> 0.7734375 </threshold>
				<split pos="left">
					<feature> 39 </feature>
					<threshold> 0.984375 </threshold>
					<split pos="left">
						<feature> 23 </feature>
						<threshold> 0.97265625 </threshold>
						<split pos="left">
							<feature> 21 </feature>
							<threshold> 0.4296875 </threshold>
							<split pos="left">
								<output> -0.67814701795578 </output>
							</split>
							<split pos="right">
								<output> -0.038910020142793655 </output>
							</split>
						</split>
						<split pos="right">
							<output> 0.7671182155609131 </output>
						</split>
					</split>
					<split pos="right">
						<output> -0.41049501299858093 </output>
					</split>
				</split>
				<split pos="right">
					<output> 0.32708728313446045 </output>
				</split>
			</split>
			<split pos="right">
				<feature> 16 </feature>
				<threshold> 0.0078125 </threshold>
				<split pos="left">
					<output> -0.2164783477783203 </output>
				</split>
				<split pos="right">
					<feature> 39 </feature>
					<threshold> 0.59375 </threshold>
					<split pos="left">
						<output> -0.06864973902702332 </output>
					</split>
					<split pos="right">
						<feature> 22 </feature>
						<threshold> 0.1953125 </threshold>
						<split pos="left">
							<output> 1.6565617322921753 </output>
						</split>
						<split pos="right">
							<feature> 2 </feature>
							<threshold> 0.009259 </threshold>
							<split pos="left">
								<output> 0.9677501916885376 </output>
							</split>
							<split pos="right">
								<output> 0.44213277101516724 </output>
							</split>
						</split>
					</split>
				</split>
			</split>
		</split>
	</tree>
	<tree id="22" weight="0.1">
		<split>
			<feature> 39 </feature>
			<threshold> 0.58203125 </threshold>
			<split pos="left">
				<output> -0.4702663719654083 </output>
			</split>
			<split pos="right">
				<feature> 25 </feature>
				<threshold> 0.72265625 </threshold>
				<split pos="left">
					<feature> 46 </feature>
					<threshold> 0.6484375 </threshold>
					<split pos="left">
						<feature> 29 </feature>
						<threshold> 0.71875 </threshold>
						<split pos="left">
							<feature> 18 </feature>
							<threshold> 0.75 </threshold>
							<split pos="left">
								<feature> 25 </feature>
								<threshold> 0.0625 </threshold>
								<split pos="left">
									<feature> 19 </feature>
									<threshold> 0.148148 </threshold>
									<split pos="left">
										<output> 0.39048895239830017 </output>
									</split>
									<split pos="right">
										<feature> 24 </feature>
										<threshold> 0.97265625 </threshold>
										<split pos="left">
											<output> -0.23623305559158325 </output>
										</split>
										<split pos="right">
											<output> 0.28968849778175354 </output>
										</split>
									</split>
								</split>
								<split pos="right">
									<output> 0.364174485206604 </output>
								</split>
							</split>
							<split pos="right">
								<output> -0.6914592385292053 </output>
							</split>
						</split>
						<split pos="right">
							<output> 0.47324854135513306 </output>
						</split>
					</split>
					<split pos="right">
						<output> -0.6960475444793701 </output>
					</split>
				</split>
				<split pos="right">
					<feature> 22 </feature>
					<threshold> 0.2734375 </threshold>
					<split pos="left">
						<output> 1.5705398321151733 </output>
					</split>
					<split pos="right">
						<output> 0.4312712848186493 </output>
					</split>
				</split>
			</split>
		</split>
	</tree>
	<tree id="23" weight="0.1">
		<split>
			<feature> 40 </feature>
			<threshold> 0.53125 </threshold>
			<split pos="left">
				<output> -0.5920702815055847 </output>
			</split>
			<split pos="right">
				<feature> 25 </feature>
				<threshold> 0.70703125 </threshold>
				<split pos="left">
					<feature> 46 </feature>
					<threshold> 0.64453125 </threshold>
					<split pos="left">
						<feature> 46 </feature>
						<threshold> 0.640625 </threshold>
						<split pos="left">
							<feature> 29 </feature>
							<threshold> 0.71875 </threshold>
							<split pos="left">
								<feature> 18 </feature>
								<threshold> 0.6484375 </threshold>
								<split pos="left">
									<feature> 28 </feature>
									<threshold> 0.1640625 </threshold>
									<split pos="left">
										<feature> 17 </feature>
										<threshold> 0.0 </threshold>
										<split pos="left">
											<output> 0.4192112982273102 </output>
										</split>
										<split pos="right">
											<feature> 38 </feature>
											<threshold> 0.96875 </threshold>
											<split pos="left">
												<output> -0.0324932299554348 </output>
											</split>
											<split pos="right">
												<output> -0.49761128425598145 </output>
											</split>
										</split>
									</split>
									<split pos="right">
										<output> 0.38630011677742004 </output>
									</split>
								</split>
								<split pos="right">
									<output> -0.44444915652275085 </output>
								</split>
							</split>
							<split pos="right">
								<output> 0.39795932173728943 </output>
							</split>
						</split>
						<split pos="right">
							<output> 2.2411508560180664 </output>
						</split>
					</split>
					<split pos="right">
						<output> -0.6481613516807556 </output>
					</split>
				</split>
				<split pos="right">
					<output> 0.3882302939891815 </output>
				</split>
			</split>
		</split>
	</tree>
	<tree id="24" weight="0.1">
		<split>
			<feature> 39 </feature>
			<threshold> 0.42578125 </threshold>
			<split pos="left">
				<output> -0.6652868390083313 </output>
			</split>
			<split pos="right">
				<feature> 25 </feature>
				<threshold> 0.2265625 </threshold>
				<split pos="left">
					<feature> 29 </feature>
					<threshold> 0.71875 </threshold>
					<split pos="left">
						<feature> 38 </feature>
						<threshold> 0.9765625 </threshold>
						<split pos="left">
							<feature> 38 </feature>
							<threshold> 0.94140625 </threshold>
							<split pos="left">
								<feature> 23 </feature>
								<threshold> 0.4140625 </threshold>
								<split pos="left">
									<output> 2.3165688514709473 </output>
								</split>
								<split pos="right">
									<output> -0.08818534761667252 </output>
								</split>
							</split>
							<split pos="right">
								<output> 0.5608354210853577 </output>
							</split>
						</split>
						<split pos="right">
							<output> -0.5090155601501465 </output>
						</split>
					</split>
					<split pos="right">
						<output> 0.3453438878059387 </output>
					</split>
				</split>
				<split pos="right">
					<feature> 23 </feature>
					<threshold> 0.375 </threshold>
					<split pos="left">
						<output> 1.74244225025177 </output>
					</split>
					<split pos="right">
						<feature> 16 </feature>
						<threshold> 0.0078125 </threshold>
						<split pos="left">
							<output> -0.13365329802036285 </output>
						</split>
						<split pos="right">
							<feature> 21 </feature>
							<threshold> 0.99609375 </threshold>
							<split pos="left">
								<output> 0.46533986926078796 </output>
							</split>
							<split pos="right">
								<output> -0.1859615445137024 </output>
							</split>
						</split>
					</split>
				</split>
			</split>
		</split>
	</tree>
	<tree id="25" weight="0.1">
		<split>
			<feature> 39 </feature>
			<threshold> 0.4296875 </threshold>
			<split pos="left">
				<output> -0.6243473291397095 </output>
			</split>
			<split pos="right">
				<feature> 29 </feature>
				<threshold> 0.65234375 </threshold>
				<split pos="left">
					<feature> 22 </feature>
					<threshold> 0.9921875 </threshold>
					<split pos="left">
						<feature> 24 </feature>
						<threshold> 0.94921875 </threshold>
						<split pos="left">
							<feature> 37 </feature>
							<threshold> 0.9921875 </threshold>
							<split pos="left">
								<feature> 37 </feature>
								<threshold> 0.97265625 </threshold>
								<split pos="left">
									<feature> 40 </feature>
									<threshold> 0.9375 </threshold>
									<split pos="left">
										<feature> 40 </feature>
										<threshold> 0.9296875 </threshold>
										<split pos="left">
											<feature> 38 </feature>
											<threshold> 0.95703125 </threshold>
											<split pos="left">
												<output> 0.03285907581448555 </output>
											</split>
											<split pos="right">
												<output> -3.0955467224121094 </output>
											</split>
										</split>
										<split pos="right">
											<output> 0.7857725024223328 </output>
										</split>
									</split>
									<split pos="right">
										<output> -1.2808700799942017 </output>
									</split>
								</split>
								<split pos="right">
									<output> 0.8180109858512878 </output>
								</split>
							</split>
							<split pos="right">
								<output> -0.8469826579093933 </output>
							</split>
						</split>
						<split pos="right">
							<output> 0.48004859685897827 </output>
						</split>
					</split>
					<split pos="right">
						<output> -0.2930479943752289 </output>
					</split>
				</split>
				<split pos="right">
					<output> 0.3042466640472412 </output>
				</split>
			</split>
		</split>
	</tree>
	<tree id="26" weight="0.1">
		<split>
			<feature> 37 </feature>
			<threshold> 0.73046875 </threshold>
			<split pos="left">
				<feature> 21 </feature>
				<threshold> 0.90625 </threshold>
				<split pos="left">
					<feature> 17 </feature>
					<threshold> 0.23046875 </threshold>
					<split pos="left">
						<output> -0.405720055103302 </output>
					</split>
					<split pos="right">
						<output> 0.07035557925701141 </output>
					</split>
				</split>
				<split pos="right">
					<output> 1.8093334436416626 </output>
				</split>
			</split>
			<split pos="right">
				<feature> 42 </feature>
				<threshold> 0.25 </threshold>
				<split pos="left">
					<feature> 45 </feature>
					<threshold> 0.0078125 </threshold>
					<split pos="left">
						<output> 0.48903217911720276 </output>
					</split>
					<split pos="right">
						<feature> 15 </feature>
						<threshold> 0.00390625 </threshold>
						<split pos="left">
							<output> 1.3878673315048218 </output>
						</split>
						<split pos="right">
							<output> 0.06053108721971512 </output>
						</split>
					</split>
				</split>
				<split pos="right">
					<feature> 46 </feature>
					<threshold> 0.98046875 </threshold>
					<split pos="left">
						<feature> 41 </feature>
						<threshold> 0.555556 </threshold>
						<split pos="left">
							<feature> 41 </feature>
							<threshold> 0.538462 </threshold>
							<split pos="left">
								<output> 0.20342767238616943 </output>
							</split>
							<split pos="right">
								<output> 1.1202510595321655 </output>
							</split>
						</split>
						<split pos="right">
							<output> -0.23190994560718536 </output>
						</split>
					</split>
					<split pos="right">
						<output> -1.3291332721710205 </output>
					</split>
				</split>
			</split>
		</split>
	</tree>
	<tree id="27" weight="0.1">
		<split>
			<feature> 40 </feature>
			<threshold> 0.53125 </threshold>
			<split pos="left">
				<output> -0.5058192014694214 </output>
			</split>
			<split pos="right">
				<feature> 25 </feature>
				<threshold> 0.2265625 </threshold>
				<split pos="left">
					<feature> 20 </feature>
					<threshold> 0.0 </threshold>
					<split pos="left">
						<output> 1.3235149383544922 </output>
					</split>
					<split pos="right">
						<feature> 38 </feature>
						<threshold> 0.9765625 </threshold>
						<split pos="left">
							<feature> 38 </feature>
							<threshold> 0.94140625 </threshold>
							<split pos="left">
								<feature> 11 </feature>
								<threshold> 0.078125 </threshold>
								<split pos="left">
									<output> -0.34883368015289307 </output>
								</split>
								<split pos="right">
									<feature> 37 </feature>
									<threshold> 0.03125 </threshold>
									<split pos="left">
										<output> 3.3374104499816895 </output>
									</split>
									<split pos="right">
										<output> 0.06872595846652985 </output>
									</split>
								</split>
							</split>
							<split pos="right">
								<output> 0.5781400799751282 </output>
							</split>
						</split>
						<split pos="right">
							<output> -0.3437635898590088 </output>
						</split>
					</split>
				</split>
				<split pos="right">
					<feature> 40 </feature>
					<threshold> 0.984375 </threshold>
					<split pos="left">
						<feature> 38 </feature>
						<threshold> 0.98046875 </threshold>
						<split pos="left">
							<output> 0.31082603335380554 </output>
						</split>
						<split pos="right">
							<output> 0.7430175542831421 </output>
						</split>
					</split>
					<split pos="right">
						<output> -0.2168636918067932 </output>
					</split>
				</split>
			</split>
		</split>
	</tree>
	<tree id="28" weight="0.1">
		<split>
			<feature> 39 </feature>
			<threshold> 0.42578125 </threshold>
			<split pos="left">
				<output> -0.5752049088478088 </output>
			</split>
			<split pos="right">
				<feature> 23 </feature>
				<threshold> 0.375 </threshold>
				<split pos="left">
					<output> 1.2678170204162598 </output>
				</split>
				<split pos="right">
					<feature> 25 </feature>
					<threshold> 0.70703125 </threshold>
					<split pos="left">
						<feature> 46 </feature>
						<threshold> 0.61328125 </threshold>
						<split pos="left">
							<feature> 1 </feature>
							<threshold> 0.01171875 </threshold>
							<split pos="left">
								<output> -0.516374945640564 </output>
							</split>
							<split pos="right">
								<feature> 30 </feature>
								<threshold> 0.9921875 </threshold>
								<split pos="left">
									<feature> 28 </feature>
									<threshold> 0.9921875 </threshold>
									<split pos="left">
										<feature> 28 </feature>
										<threshold> 0.9609375 </threshold>
										<split pos="left">
											<feature> 44 </feature>
											<threshold> 0.0 </threshold>
											<split pos="left">
												<output> 0.4155637323856354 </output>
											</split>
											<split pos="right">
												<output> 0.046312350779771805 </output>
											</split>
										</split>
										<split pos="right">
											<output> 2.4993441104888916 </output>
										</split>
									</split>
									<split pos="right">
										<output> -1.819782018661499 </output>
									</split>
								</split>
								<split pos="right">
									<output> 0.6167870163917542 </output>
								</split>
							</split>
						</split>
						<split pos="right">
							<output> -0.6038792133331299 </output>
						</split>
					</split>
					<split pos="right">
						<output> 0.28590255975723267 </output>
					</split>
				</split>
			</split>
		</split>
	</tree>
	<tree id="29" weight="0.1">
		<split>
			<feature> 37 </feature>
			<threshold> 0.58203125 </threshold>
			<split pos="left">
				<output> -0.3239457607269287 </output>
			</split>
			<split pos="right">
				<feature> 21 </feature>
				<threshold> 0.99609375 </threshold>
				<split pos="left">
					<feature> 37 </feature>
					<threshold> 0.97265625 </threshold>
					<split pos="left">
						<feature> 37 </feature>
						<threshold> 0.953125 </threshold>
						<split pos="left">
							<feature> 17 </feature>
							<threshold> 0.70703125 </threshold>
							<split pos="left">
								<feature> 38 </feature>
								<threshold> 0.96875 </threshold>
								<split pos="left">
									<feature> 38 </feature>
									<threshold> 0.9453125 </threshold>
									<split pos="left">
										<feature> 22 </feature>
										<threshold> 0.9921875 </threshold>
										<split pos="left">
											<feature> 38 </feature>
											<threshold> 0.9140625 </threshold>
											<split pos="left">
												<output> 0.12836171686649323 </output>
											</split>
											<split pos="right">
												<output> -0.6878020763397217 </output>
											</split>
										</split>
										<split pos="right">
											<output> 1.0066686868667603 </output>
										</split>
									</split>
									<split pos="right">
										<output> 0.7623799443244934 </output>
									</split>
								</split>
								<split pos="right">
									<output> -0.6106579899787903 </output>
								</split>
							</split>
							<split pos="right">
								<output> 0.6393193006515503 </output>
							</split>
						</split>
						<split pos="right">
							<output> -0.8464122414588928 </output>
						</split>
					</split>
					<split pos="right">
						<output> 0.5853680968284607 </output>
					</split>
				</split>
				<split pos="right">
					<output> -0.20536795258522034 </output>
				</split>
			</split>
		</split>
	</tree>
	<tree id="30" weight="0.1">
		<split>
			<feature> 25 </feature>
			<threshold> 0.20703125 </threshold>
			<split pos="left">
				<feature> 24 </feature>
				<threshold> 0.97265625 </threshold>
				<split pos="left">
					<feature> 40 </feature>
					<threshold> 0.97265625 </threshold>
					<split pos="left">
						<feature> 11 </feature>
						<threshold> 0.078125 </threshold>
						<split pos="left">
							<output> -0.41452303528785706 </output>
						</split>
						<split pos="right">
							<feature> 37 </feature>
							<threshold> 0.97265625 </threshold>
							<split pos="left">
								<feature> 37 </feature>
								<threshold> 0.8671875 </threshold>
								<split pos="left">
									<output> 0.049781691282987595 </output>
								</split>
								<split pos="right">
									<output> -0.5456193685531616 </output>
								</split>
							</split>
							<split pos="right">
								<output> 0.5206658244132996 </output>
							</split>
						</split>
					</split>
					<split pos="right">
						<output> -2.724938154220581 </output>
					</split>
				</split>
				<split pos="right">
					<output> 0.22557878494262695 </output>
				</split>
			</split>
			<split pos="right">
				<feature> 20 </feature>
				<threshold> 0.00390625 </threshold>
				<split pos="left">
					<output> -0.43330463767051697 </output>
				</split>
				<split pos="right">
					<feature> 15 </feature>
					<threshold> 0.01953125 </threshold>
					<split pos="left">
						<output> 0.9370877146720886 </output>
					</split>
					<split pos="right">
						<feature> 27 </feature>
						<threshold> 0.96875 </threshold>
						<split pos="left">
							<output> 0.30061522126197815 </output>
						</split>
						<split pos="right">
							<output> -0.20703162252902985 </output>
						</split>
					</split>
				</split>
			</split>
		</split>
	</tree>
	<tree id="31" weight="0.1">
		<split>
			<feature> 40 </feature>
			<threshold> 0.53125 </threshold>
			<split pos="left">
				<output> -0.4464755952358246 </output>
			</split>
			<split pos="right">
				<feature> 29 </feature>
				<threshold> 0.69921875 </threshold>
				<split pos="left">
					<feature> 26 </feature>
					<threshold> 0.81640625 </threshold>
					<split pos="left">
						<feature> 30 </feature>
						<threshold> 0.91796875 </threshold>
						<split pos="left">
							<feature> 36 </feature>
							<threshold> 0.90625 </threshold>
							<split pos="left">
								<feature> 34 </feature>
								<threshold> 0.28515625 </threshold>
								<split pos="left">
									<feature> 41 </feature>
									<threshold> 0.1 </threshold>
									<split pos="left">
										<output> -0.5334320664405823 </output>
									</split>
									<split pos="right">
										<feature> 17 </feature>
										<threshold> 0.02734375 </threshold>
										<split pos="left">
											<output> 0.34111276268959045 </output>
										</split>
										<split pos="right">
											<feature> 38 </feature>
											<threshold> 0.88671875 </threshold>
											<split pos="left">
												<output> 0.08944137394428253 </output>
											</split>
											<split pos="right">
												<output> -0.45080137252807617 </output>
											</split>
										</split>
									</split>
								</split>
								<split pos="right">
									<output> -1.028144121170044 </output>
								</split>
							</split>
							<split pos="right">
								<output> 0.6119426488876343 </output>
							</split>
						</split>
						<split pos="right">
							<output> -2.438521146774292 </output>
						</split>
					</split>
					<split pos="right">
						<output> 0.35008957982063293 </output>
					</split>
				</split>
				<split pos="right">
					<output> 0.243296816945076 </output>
				</split>
			</split>
		</split>
	</tree>
	<tree id="32" weight="0.1">
		<split>
			<feature> 39 </feature>
			<threshold> 0.42578125 </threshold>
			<split pos="left">
				<output> -0.5106130242347717 </output>
			</split>
			<split pos="right">
				<feature> 23 </feature>
				<threshold> 0.4140625 </threshold>
				<split pos="left">
					<output> 1.144989252090454 </output>
				</split>
				<split pos="right">
					<feature> 46 </feature>
					<threshold> 0.98046875 </threshold>
					<split pos="left">
						<feature> 25 </feature>
						<threshold> 0.70703125 </threshold>
						<split pos="left">
							<feature> 1 </feature>
							<threshold> 0.01171875 </threshold>
							<split pos="left">
								<output> -0.5087679624557495 </output>
							</split>
							<split pos="right">
								<feature> 20 </feature>
								<threshold> 0.0 </threshold>
								<split pos="left">
									<output> 2.0224404335021973 </output>
								</split>
								<split pos="right">
									<feature> 46 </feature>
									<threshold> 0.34375 </threshold>
									<split pos="left">
										<feature> 17 </feature>
										<threshold> 0.04296875 </threshold>
										<split pos="left">
											<output> 0.36580681800842285 </output>
										</split>
										<split pos="right">
											<feature> 12 </feature>
											<threshold> 0.640625 </threshold>
											<split pos="left">
												<output> -0.035278983414173126 </output>
											</split>
											<split pos="right">
												<output> 0.539251446723938 </output>
											</split>
										</split>
									</split>
									<split pos="right">
										<output> -0.4256933033466339 </output>
									</split>
								</split>
							</split>
						</split>
						<split pos="right">
							<output> 0.3014756143093109 </output>
						</split>
					</split>
					<split pos="right">
						<output> -0.6648612022399902 </output>
					</split>
				</split>
			</split>
		</split>
	</tree>
	<tree id="33" weight="0.1">
		<split>
			<feature> 39 </feature>
			<threshold> 0.42578125 </threshold>
			<split pos="left">
				<output> -0.4846479296684265 </output>
			</split>
			<split pos="right">
				<feature> 23 </feature>
				<threshold> 0.4140625 </threshold>
				<split pos="left">
					<output> 0.9355482459068298 </output>
				</split>
				<split pos="right">
					<feature> 46 </feature>
					<threshold> 0.7421875 </threshold>
					<split pos="left">
						<feature> 46 </feature>
						<threshold> 0.7109375 </threshold>
						<split pos="left">
							<feature> 30 </feature>
							<threshold> 0.33984375 </threshold>
							<split pos="left">
								<feature> 20 </feature>
								<threshold> 0.09375 </threshold>
								<split pos="left">
									<feature> 5 </feature>
									<threshold> 0.12890625 </threshold>
									<split pos="left">
										<output> -0.0331985279917717 </output>
									</split>
									<split pos="right">
										<output> -0.8809614777565002 </output>
									</split>
								</split>
								<split pos="right">
									<output> 0.18545345962047577 </output>
								</split>
							</split>
							<split pos="right">
								<feature> 30 </feature>
								<threshold> 0.3515625 </threshold>
								<split pos="left">
									<output> 2.44684100151062 </output>
								</split>
								<split pos="right">
									<feature> 1 </feature>
									<threshold> 0.53125 </threshold>
									<split pos="left">
										<output> 0.2500288188457489 </output>
									</split>
									<split pos="right">
										<output> -1.0926569700241089 </output>
									</split>
								</split>
							</split>
						</split>
						<split pos="right">
							<output> 1.9441282749176025 </output>
						</split>
					</split>
					<split pos="right">
						<output> -0.43240758776664734 </output>
					</split>
				</split>
			</split>
		</split>
	</tree>
	<tree id="34" weight="0.1">
		<split>
			<feature> 20 </feature>
			<threshold> 0.00390625 </threshold>
			<split pos="left">
				<output> -0.4798862040042877 </output>
			</split>
			<split pos="right">
				<feature> 25 </feature>
				<threshold> 0.20703125 </threshold>
				<split pos="left">
					<feature> 24 </feature>
					<threshold> 0.95703125 </threshold>
					<split pos="left">
						<feature> 40 </feature>
						<threshold> 0.9609375 </threshold>
						<split pos="left">
							<feature> 34 </feature>
							<threshold> 0.9453125 </threshold>
							<split pos="left">
								<feature> 38 </feature>
								<threshold> 0.9453125 </threshold>
								<split pos="left">
									<feature> 40 </feature>
									<threshold> 0.89453125 </threshold>
									<split pos="left">
										<feature> 38 </feature>
										<threshold> 0.91796875 </threshold>
										<split pos="left">
											<output> -0.06537268310785294 </output>
										</split>
										<split pos="right">
											<output> -1.647478699684143 </output>
										</split>
									</split>
									<split pos="right">
										<output> -0.958593487739563 </output>
									</split>
								</split>
								<split pos="right">
									<output> 0.4213070273399353 </output>
								</split>
							</split>
							<split pos="right">
								<output> 1.0032272338867188 </output>
							</split>
						</split>
						<split pos="right">
							<output> -3.538677453994751 </output>
						</split>
					</split>
					<split pos="right">
						<output> 0.27368995547294617 </output>
					</split>
				</split>
				<split pos="right">
					<feature> 40 </feature>
					<threshold> 0.984375 </threshold>
					<split pos="left">
						<output> 0.28320518136024475 </output>
					</split>
					<split pos="right">
						<output> -0.2671540379524231 </output>
					</split>
				</split>
			</split>
		</split>
	</tree>
	<tree id="35" weight="0.1">
		<split>
			<feature> 19 </feature>
			<threshold> 0.411765 </threshold>
			<split pos="left">
				<feature> 37 </feature>
				<threshold> 0.73046875 </threshold>
				<split pos="left">
					<feature> 38 </feature>
					<threshold> 0.984375 </threshold>
					<split pos="left">
						<feature> 22 </feature>
						<threshold> 0.96484375 </threshold>
						<split pos="left">
							<feature> 34 </feature>
							<threshold> 0.97265625 </threshold>
							<split pos="left">
								<feature> 40 </feature>
								<threshold> 0.90234375 </threshold>
								<split pos="left">
									<output> -0.09119617193937302 </output>
								</split>
								<split pos="right">
									<output> -1.3019227981567383 </output>
								</split>
							</split>
							<split pos="right">
								<output> 1.1518266201019287 </output>
							</split>
						</split>
						<split pos="right">
							<output> 1.6662997007369995 </output>
						</split>
					</split>
					<split pos="right">
						<output> -1.686827540397644 </output>
					</split>
				</split>
				<split pos="right">
					<feature> 45 </feature>
					<threshold> 0.015625 </threshold>
					<split pos="left">
						<feature> 37 </feature>
						<threshold> 0.97265625 </threshold>
						<split pos="left">
							<feature> 28 </feature>
							<threshold> 0.92578125 </threshold>
							<split pos="left">
								<output> 0.08129193633794785 </output>
							</split>
							<split pos="right">
								<output> 0.8286203742027283 </output>
							</split>
						</split>
						<split pos="right">
							<output> 0.6575098633766174 </output>
						</split>
					</split>
					<split pos="right">
						<output> 0.020391622558236122 </output>
					</split>
				</split>
			</split>
			<split pos="right">
				<output> -0.2244577258825302 </output>
			</split>
		</split>
	</tree>
	<tree id="36" weight="0.1">
		<split>
			<feature> 39 </feature>
			<threshold> 0.58203125 </threshold>
			<split pos="left">
				<output> -0.29142647981643677 </output>
			</split>
			<split pos="right">
				<feature> 21 </feature>
				<threshold> 0.99609375 </threshold>
				<split pos="left">
					<feature> 37 </feature>
					<threshold> 0.97265625 </threshold>
					<split pos="left">
						<feature> 37 </feature>
						<threshold> 0.953125 </threshold>
						<split pos="left">
							<feature> 37 </feature>
							<threshold> 0.92578125 </threshold>
							<split pos="left">
								<feature> 12 </feature>
								<threshold> 0.08203125 </threshold>
								<split pos="left">
									<feature> 21 </feature>
									<threshold> 0.984375 </threshold>
									<split pos="left">
										<feature> 38 </feature>
										<threshold> 0.84765625 </threshold>
										<split pos="left">
											<feature> 38 </feature>
											<threshold> 0.796875 </threshold>
											<split pos="left">
												<output> -0.08759257942438126 </output>
											</split>
											<split pos="right">
												<output> 0.5812676548957825 </output>
											</split>
										</split>
										<split pos="right">
											<output> -0.3662259578704834 </output>
										</split>
									</split>
									<split pos="right">
										<output> 0.8280237317085266 </output>
									</split>
								</split>
								<split pos="right">
									<output> 0.2662179172039032 </output>
								</split>
							</split>
							<split pos="right">
								<output> 0.5111947059631348 </output>
							</split>
						</split>
						<split pos="right">
							<output> -0.6528134942054749 </output>
						</split>
					</split>
					<split pos="right">
						<output> 0.5191153287887573 </output>
					</split>
				</split>
				<split pos="right">
					<output> -0.25375598669052124 </output>
				</split>
			</split>
		</split>
	</tree>
	<tree id="37" weight="0.1">
		<split>
			<feature> 19 </feature>
			<threshold> 0.411765 </threshold>
			<split pos="left">
				<feature> 21 </feature>
				<threshold> 0.4296875 </threshold>
				<split pos="left">
					<output> -0.3261251449584961 </output>
				</split>
				<split pos="right">
					<feature> 20 </feature>
					<threshold> 0.01171875 </threshold>
					<split pos="left">
						<output> -0.07917739450931549 </output>
					</split>
					<split pos="right">
						<feature> 16 </feature>
						<threshold> 0.01953125 </threshold>
						<split pos="left">
							<output> 0.5226539969444275 </output>
						</split>
						<split pos="right">
							<feature> 46 </feature>
							<threshold> 0.23828125 </threshold>
							<split pos="left">
								<feature> 21 </feature>
								<threshold> 0.44921875 </threshold>
								<split pos="left">
									<output> 1.3694794178009033 </output>
								</split>
								<split pos="right">
									<feature> 19 </feature>
									<threshold> 0.304348 </threshold>
									<split pos="left">
										<feature> 37 </feature>
										<threshold> 0.9375 </threshold>
										<split pos="left">
											<output> 0.24556027352809906 </output>
										</split>
										<split pos="right">
											<output> -0.4960145950317383 </output>
										</split>
									</split>
									<split pos="right">
										<output> 0.5473177433013916 </output>
									</split>
								</split>
							</split>
							<split pos="right">
								<output> -0.2649025619029999 </output>
							</split>
						</split>
					</split>
				</split>
			</split>
			<split pos="right">
				<feature> 39 </feature>
				<threshold> 0.890625 </threshold>
				<split pos="left">
					<output> -0.1447790116071701 </output>
				</split>
				<split pos="right">
					<output> -0.44757720828056335 </output>
				</split>
			</split>
		</split>
	</tree>
	<tree id="38" weight="0.1">
		<split>
			<feature> 19 </feature>
			<threshold> 0.21875 </threshold>
			<split pos="left">
				<feature> 28 </feature>
				<threshold> 0.9453125 </threshold>
				<split pos="left">
					<feature> 22 </feature>
					<threshold> 0.984375 </threshold>
					<split pos="left">
						<feature> 35 </feature>
						<threshold> 0.99609375 </threshold>
						<split pos="left">
							<feature> 32 </feature>
							<threshold> 0.94921875 </threshold>
							<split pos="left">
								<output> 0.06103697791695595 </output>
							</split>
							<split pos="right">
								<output> 0.6906284093856812 </output>
							</split>
						</split>
						<split pos="right">
							<output> 0.9908390641212463 </output>
						</split>
					</split>
					<split pos="right">
						<output> -0.362069308757782 </output>
					</split>
				</split>
				<split pos="right">
					<output> 0.4478326439857483 </output>
				</split>
			</split>
			<split pos="right">
				<feature> 27 </feature>
				<threshold> 0.73828125 </threshold>
				<split pos="left">
					<feature> 25 </feature>
					<threshold> 0.25 </threshold>
					<split pos="left">
						<feature> 41 </feature>
						<threshold> 0.166667 </threshold>
						<split pos="left">
							<output> -0.9126833081245422 </output>
						</split>
						<split pos="right">
							<feature> 22 </feature>
							<threshold> 0.95703125 </threshold>
							<split pos="left">
								<output> -0.21876589953899384 </output>
							</split>
							<split pos="right">
								<output> 0.2558819651603699 </output>
							</split>
						</split>
					</split>
					<split pos="right">
						<output> 0.26583200693130493 </output>
					</split>
				</split>
				<split pos="right">
					<output> -0.45034366846084595 </output>
				</split>
			</split>
		</split>
	</tree>
	<tree id="39" weight="0.1">
		<split>
			<feature> 19 </feature>
			<threshold> 0.21875 </threshold>
			<split pos="left">
				<feature> 28 </feature>
				<threshold> 0.9453125 </threshold>
				<split pos="left">
					<feature> 20 </feature>
					<threshold> 0.01171875 </threshold>
					<split pos="left">
						<output> -0.32637330889701843 </output>
					</split>
					<split pos="right">
						<feature> 33 </feature>
						<threshold> 0.97265625 </threshold>
						<split pos="left">
							<feature> 18 </feature>
							<threshold> 0.5390625 </threshold>
							<split pos="left">
								<feature> 24 </feature>
								<threshold> 0.83203125 </threshold>
								<split pos="left">
									<output> 0.1878306269645691 </output>
								</split>
								<split pos="right">
									<output> 0.42343518137931824 </output>
								</split>
							</split>
							<split pos="right">
								<output> -0.36488866806030273 </output>
							</split>
						</split>
						<split pos="right">
							<output> 0.8761799931526184 </output>
						</split>
					</split>
				</split>
				<split pos="right">
					<output> 0.4174698293209076 </output>
				</split>
			</split>
			<split pos="right">
				<feature> 39 </feature>
				<threshold> 0.83984375 </threshold>
				<split pos="left">
					<feature> 39 </feature>
					<threshold> 0.74609375 </threshold>
					<split pos="left">
						<output> -0.22229725122451782 </output>
					</split>
					<split pos="right">
						<output> 0.3883535861968994 </output>
					</split>
				</split>
				<split pos="right">
					<feature> 23 </feature>
					<threshold> 0.9609375 </threshold>
					<split pos="left">
						<output> -0.43222641944885254 </output>
					</split>
					<split pos="right">
						<output> 0.09439045935869217 </output>
					</split>
				</split>
			</split>
		</split>
	</tree>
	<tree id="40" weight="0.1">
		<split>
			<feature> 19 </feature>
			<threshold> 0.411765 </threshold>
			<split pos="left">
				<feature> 34 </feature>
				<threshold> 0.98828125 </threshold>
				<split pos="left">
					<feature> 42 </feature>
					<threshold> 0.51171875 </threshold>
					<split pos="left">
						<feature> 41 </feature>
						<threshold> 0.875 </threshold>
						<split pos="left">
							<feature> 14 </feature>
							<threshold> 0.5234375 </threshold>
							<split pos="left">
								<feature> 37 </feature>
								<threshold> 0.97265625 </threshold>
								<split pos="left">
									<feature> 31 </feature>
									<threshold> 0.95703125 </threshold>
									<split pos="left">
										<feature> 38 </feature>
										<threshold> 0.96484375 </threshold>
										<split pos="left">
											<feature> 40 </feature>
											<threshold> 0.96484375 </threshold>
											<split pos="left">
												<output> -0.030385760590434074 </output>
											</split>
											<split pos="right">
												<output> 0.6250978708267212 </output>
											</split>
										</split>
										<split pos="right">
											<output> -0.7323697805404663 </output>
										</split>
									</split>
									<split pos="right">
										<output> 0.4288504719734192 </output>
									</split>
								</split>
								<split pos="right">
									<output> 0.27416566014289856 </output>
								</split>
							</split>
							<split pos="right">
								<output> -0.8009043335914612 </output>
							</split>
						</split>
						<split pos="right">
							<output> -1.7771776914596558 </output>
						</split>
					</split>
					<split pos="right">
						<output> 0.608508825302124 </output>
					</split>
				</split>
				<split pos="right">
					<output> 0.48072549700737 </output>
				</split>
			</split>
			<split pos="right">
				<output> -0.19964571297168732 </output>
			</split>
		</split>
	</tree>
	<tree id="41" weight="0.1">
		<split>
			<feature> 24 </feature>
			<threshold> 0.453125 </threshold>
			<split pos="left">
				<output> -0.43316054344177246 </output>
			</split>
			<split pos="right">
				<feature> 5 </feature>
				<threshold> 0.4765625 </threshold>
				<split pos="left">
					<feature> 1 </feature>
					<threshold> 0.39453125 </threshold>
					<split pos="left">
						<feature> 15 </feature>
						<threshold> 0.99609375 </threshold>
						<split pos="left">
							<feature> 30 </feature>
							<threshold> 0.34375 </threshold>
							<split pos="left">
								<feature> 40 </feature>
								<threshold> 0.96484375 </threshold>
								<split pos="left">
									<feature> 19 </feature>
									<threshold> 0.043478 </threshold>
									<split pos="left">
										<output> 0.48478326201438904 </output>
									</split>
									<split pos="right">
										<feature> 24 </feature>
										<threshold> 0.9375 </threshold>
										<split pos="left">
											<output> -0.07889929413795471 </output>
										</split>
										<split pos="right">
											<output> -0.825609564781189 </output>
										</split>
									</split>
								</split>
								<split pos="right">
									<output> 0.27834203839302063 </output>
								</split>
							</split>
							<split pos="right">
								<feature> 17 </feature>
								<threshold> 0.203125 </threshold>
								<split pos="left">
									<output> 0.36527788639068604 </output>
								</split>
								<split pos="right">
									<output> -0.11149588972330093 </output>
								</split>
							</split>
						</split>
						<split pos="right">
							<output> -0.8204686045646667 </output>
						</split>
					</split>
					<split pos="right">
						<output> 0.7474474310874939 </output>
					</split>
				</split>
				<split pos="right">
					<output> -0.22806499898433685 </output>
				</split>
			</split>
		</split>
	</tree>
	<tree id="42" weight="0.1">
		<split>
			<feature> 20 </feature>
			<threshold> 0.00390625 </threshold>
			<split pos="left">
				<output> -0.4238490164279938 </output>
			</split>
			<split pos="right">
				<feature> 46 </feature>
				<threshold> 0.7421875 </threshold>
				<split pos="left">
					<feature> 46 </feature>
					<threshold> 0.703125 </threshold>
					<split pos="left">
						<feature> 29 </feature>
						<threshold> 0.51171875 </threshold>
						<split pos="left">
							<feature> 31 </feature>
							<threshold> 0.296875 </threshold>
							<split pos="left">
								<feature> 32 </feature>
								<threshold> 0.51953125 </threshold>
								<split pos="left">
									<feature> 24 </feature>
									<threshold> 0.74609375 </threshold>
									<split pos="left">
										<output> -0.06609704345464706 </output>
									</split>
									<split pos="right">
										<feature> 38 </feature>
										<threshold> 0.46875 </threshold>
										<split pos="left">
											<output> 2.927234649658203 </output>
										</split>
										<split pos="right">
											<feature> 41 </feature>
											<threshold> 0.125 </threshold>
											<split pos="left">
												<output> -0.42768594622612 </output>
											</split>
											<split pos="right">
												<output> 0.20003673434257507 </output>
											</split>
										</split>
									</split>
								</split>
								<split pos="right">
									<output> 2.3380680084228516 </output>
								</split>
							</split>
							<split pos="right">
								<output> -0.42583703994750977 </output>
							</split>
						</split>
						<split pos="right">
							<output> 0.19666342437267303 </output>
						</split>
					</split>
					<split pos="right">
						<output> 1.4770783185958862 </output>
					</split>
				</split>
				<split pos="right">
					<output> -0.4363522529602051 </output>
				</split>
			</split>
		</split>
	</tree>
	<tree id="43" weight="0.1">
		<split>
			<feature> 21 </feature>
			<threshold> 0.99609375 </threshold>
			<split pos="left">
				<feature> 37 </feature>
				<threshold> 0.97265625 </threshold>
				<split pos="left">
					<feature> 34 </feature>
					<threshold> 0.94921875 </threshold>
					<split pos="left">
						<feature> 37 </feature>
						<threshold> 0.953125 </threshold>
						<split pos="left">
							<feature> 37 </feature>
							<threshold> 0.92578125 </threshold>
							<split pos="left">
								<feature> 37 </feature>
								<threshold> 0.91015625 </threshold>
								<split pos="left">
									<feature> 2 </feature>
									<threshold> 0.5 </threshold>
									<split pos="left">
										<feature> 21 </feature>
										<threshold> 0.95703125 </threshold>
										<split pos="left">
											<feature> 19 </feature>
											<threshold> 0.210526 </threshold>
											<split pos="left">
												<output> 0.12190056592226028 </output>
											</split>
											<split pos="right">
												<output> -0.19427335262298584 </output>
											</split>
										</split>
										<split pos="right">
											<output> -2.039567708969116 </output>
										</split>
									</split>
									<split pos="right">
										<output> 0.3821156322956085 </output>
									</split>
								</split>
								<split pos="right">
									<output> -0.5480656623840332 </output>
								</split>
							</split>
							<split pos="right">
								<output> 0.394596129655838 </output>
							</split>
						</split>
						<split pos="right">
							<output> -0.9161352515220642 </output>
						</split>
					</split>
					<split pos="right">
						<output> 0.48072463274002075 </output>
					</split>
				</split>
				<split pos="right">
					<output> 0.39176565408706665 </output>
				</split>
			</split>
			<split pos="right">
				<output> -0.21211618185043335 </output>
			</split>
		</split>
	</tree>
	<tree id="44" weight="0.1">
		<split>
			<feature> 19 </feature>
			<threshold> 0.411765 </threshold>
			<split pos="left">
				<feature> 34 </feature>
				<threshold> 0.98828125 </threshold>
				<split pos="left">
					<feature> 42 </feature>
					<threshold> 0.3984375 </threshold>
					<split pos="left">
						<feature> 20 </feature>
						<threshold> 0.01171875 </threshold>
						<split pos="left">
							<output> -0.2940818667411804 </output>
						</split>
						<split pos="right">
							<feature> 36 </feature>
							<threshold> 0.0390625 </threshold>
							<split pos="left">
								<feature> 21 </feature>
								<threshold> 0.95703125 </threshold>
								<split pos="left">
									<feature> 38 </feature>
									<threshold> 0.9140625 </threshold>
									<split pos="left">
										<feature> 22 </feature>
										<threshold> 0.9453125 </threshold>
										<split pos="left">
											<feature> 25 </feature>
											<threshold> 0.0625 </threshold>
											<split pos="left">
												<output> 0.027792729437351227 </output>
											</split>
											<split pos="right">
												<output> 0.40141332149505615 </output>
											</split>
										</split>
										<split pos="right">
											<output> 1.345597505569458 </output>
										</split>
									</split>
									<split pos="right">
										<output> -0.5334137678146362 </output>
									</split>
								</split>
								<split pos="right">
									<output> 0.3642485439777374 </output>
								</split>
							</split>
							<split pos="right">
								<output> -0.6545736193656921 </output>
							</split>
						</split>
					</split>
					<split pos="right">
						<output> 0.37337425351142883 </output>
					</split>
				</split>
				<split pos="right">
					<output> 0.4117150604724884 </output>
				</split>
			</split>
			<split pos="right">
				<output> -0.18667173385620117 </output>
			</split>
		</split>
	</tree>
	<tree id="45" weight="0.1">
		<split>
			<feature> 19 </feature>
			<threshold> 0.21875 </threshold>
			<split pos="left">
				<feature> 20 </feature>
				<threshold> 0.01171875 </threshold>
				<split pos="left">
					<output> -0.1819469928741455 </output>
				</split>
				<split pos="right">
					<feature> 20 </feature>
					<threshold> 0.02734375 </threshold>
					<split pos="left">
						<output> 0.5272875428199768 </output>
					</split>
					<split pos="right">
						<feature> 22 </feature>
						<threshold> 0.8515625 </threshold>
						<split pos="left">
							<feature> 40 </feature>
							<threshold> 0.875 </threshold>
							<split pos="left">
								<output> 0.17266838252544403 </output>
							</split>
							<split pos="right">
								<output> 0.8640186786651611 </output>
							</split>
						</split>
						<split pos="right">
							<output> -0.40908101201057434 </output>
						</split>
					</split>
				</split>
			</split>
			<split pos="right">
				<feature> 27 </feature>
				<threshold> 0.73828125 </threshold>
				<split pos="left">
					<feature> 25 </feature>
					<threshold> 0.25 </threshold>
					<split pos="left">
						<feature> 39 </feature>
						<threshold> 0.8359375 </threshold>
						<split pos="left">
							<output> -0.12367717921733856 </output>
						</split>
						<split pos="right">
							<feature> 27 </feature>
							<threshold> 0.296875 </threshold>
							<split pos="left">
								<output> -0.2877046465873718 </output>
							</split>
							<split pos="right">
								<output> 1.3481465578079224 </output>
							</split>
						</split>
					</split>
					<split pos="right">
						<output> 0.27206993103027344 </output>
					</split>
				</split>
				<split pos="right">
					<output> -0.4481256306171417 </output>
				</split>
			</split>
		</split>
	</tree>
	<tree id="46" weight="0.1">
		<split>
			<feature> 21 </feature>
			<threshold> 0.6640625 </threshold>
			<split pos="left">
				<feature> 39 </feature>
				<threshold> 0.82421875 </threshold>
				<split pos="left">
					<feature> 22 </feature>
					<threshold> 0.984375 </threshold>
					<split pos="left">
						<feature> 38 </feature>
						<threshold> 0.84375 </threshold>
						<split pos="left">
							<output> -0.17121116816997528 </output>
						</split>
						<split pos="right">
							<output> 0.8520585298538208 </output>
						</split>
					</split>
					<split pos="right">
						<output> 2.2672958374023438 </output>
					</split>
				</split>
				<split pos="right">
					<output> -0.48444709181785583 </output>
				</split>
			</split>
			<split pos="right">
				<feature> 22 </feature>
				<threshold> 0.9921875 </threshold>
				<split pos="left">
					<feature> 38 </feature>
					<threshold> 0.9453125 </threshold>
					<split pos="left">
						<feature> 40 </feature>
						<threshold> 0.921875 </threshold>
						<split pos="left">
							<feature> 22 </feature>
							<threshold> 0.984375 </threshold>
							<split pos="left">
								<feature> 2 </feature>
								<threshold> 0.04 </threshold>
								<split pos="left">
									<output> 0.009268228895962238 </output>
								</split>
								<split pos="right">
									<output> 0.30156785249710083 </output>
								</split>
							</split>
							<split pos="right">
								<output> -11.946833610534668 </output>
							</split>
						</split>
						<split pos="right">
							<output> -0.34107470512390137 </output>
						</split>
					</split>
					<split pos="right">
						<output> 0.381501704454422 </output>
					</split>
				</split>
				<split pos="right">
					<output> -0.1891549974679947 </output>
				</split>
			</split>
		</split>
	</tree>
	<tree id="47" weight="0.1">
		<split>
			<feature> 21 </feature>
			<threshold> 0.62109375 </threshold>
			<split pos="left">
				<feature> 39 </feature>
				<threshold> 0.89453125 </threshold>
				<split pos="left">
					<output> -0.16419099271297455 </output>
				</split>
				<split pos="right">
					<output> -0.7006310224533081 </output>
				</split>
			</split>
			<split pos="right">
				<feature> 19 </feature>
				<threshold> 0.4 </threshold>
				<split pos="left">
					<feature> 15 </feature>
					<threshold> 0.00390625 </threshold>
					<split pos="left">
						<output> 1.058665156364441 </output>
					</split>
					<split pos="right">
						<feature> 16 </feature>
						<threshold> 0.88671875 </threshold>
						<split pos="left">
							<feature> 5 </feature>
							<threshold> 0.91015625 </threshold>
							<split pos="left">
								<feature> 23 </feature>
								<threshold> 0.9609375 </threshold>
								<split pos="left">
									<feature> 39 </feature>
									<threshold> 0.95703125 </threshold>
									<split pos="left">
										<feature> 45 </feature>
										<threshold> 0.015625 </threshold>
										<split pos="left">
											<output> 0.22803957760334015 </output>
										</split>
										<split pos="right">
											<output> -0.12736007571220398 </output>
										</split>
									</split>
									<split pos="right">
										<output> -1.3388944864273071 </output>
									</split>
								</split>
								<split pos="right">
									<output> 0.2741547226905823 </output>
								</split>
							</split>
							<split pos="right">
								<output> -1.5125792026519775 </output>
							</split>
						</split>
						<split pos="right">
							<output> 0.5973990559577942 </output>
						</split>
					</split>
				</split>
				<split pos="right">
					<output> -0.10190033167600632 </output>
				</split>
			</split>
		</split>
	</tree>
	<tree id="48" weight="0.1">
		<split>
			<feature> 16 </feature>
			<threshold> 0.0078125 </threshold>
			<split pos="left">
				<output> -0.2557506561279297 </output>
			</split>
			<split pos="right">
				<feature> 34 </feature>
				<threshold> 0.9453125 </threshold>
				<split pos="left">
					<feature> 36 </feature>
					<threshold> 0.0234375 </threshold>
					<split pos="left">
						<feature> 36 </feature>
						<threshold> 0.015625 </threshold>
						<split pos="left">
							<feature> 25 </feature>
							<threshold> 0.20703125 </threshold>
							<split pos="left">
								<feature> 46 </feature>
								<threshold> 0.328125 </threshold>
								<split pos="left">
									<feature> 46 </feature>
									<threshold> 0.3203125 </threshold>
									<split pos="left">
										<feature> 29 </feature>
										<threshold> 0.71875 </threshold>
										<split pos="left">
											<feature> 29 </feature>
											<threshold> 0.6796875 </threshold>
											<split pos="left">
												<output> 0.022599700838327408 </output>
											</split>
											<split pos="right">
												<output> -1.8259704113006592 </output>
											</split>
										</split>
										<split pos="right">
											<output> 0.5186113715171814 </output>
										</split>
									</split>
									<split pos="right">
										<output> 1.8937773704528809 </output>
									</split>
								</split>
								<split pos="right">
									<output> -0.47570905089378357 </output>
								</split>
							</split>
							<split pos="right">
								<output> 0.20957055687904358 </output>
							</split>
						</split>
						<split pos="right">
							<output> 0.8303375244140625 </output>
						</split>
					</split>
					<split pos="right">
						<output> -0.42921939492225647 </output>
					</split>
				</split>
				<split pos="right">
					<output> 0.43225154280662537 </output>
				</split>
			</split>
		</split>
	</tree>
	<tree id="49" weight="0.1">
		<split>
			<feature> 39 </feature>
			<threshold> 0.39453125 </threshold>
			<split pos="left">
				<output> -0.40358757972717285 </output>
			</split>
			<split pos="right">
				<feature> 39 </feature>
				<threshold> 0.8359375 </threshold>
				<split pos="left">
					<feature> 39 </feature>
					<threshold> 0.83203125 </threshold>
					<split pos="left">
						<feature> 33 </feature>
						<threshold> 0.94921875 </threshold>
						<split pos="left">
							<feature> 12 </feature>
							<threshold> 0.5078125 </threshold>
							<split pos="left">
								<feature> 23 </feature>
								<threshold> 0.78515625 </threshold>
								<split pos="left">
									<output> -0.05772237479686737 </output>
								</split>
								<split pos="right">
									<output> 0.32471963763237 </output>
								</split>
							</split>
							<split pos="right">
								<output> 0.38879767060279846 </output>
							</split>
						</split>
						<split pos="right">
							<output> 0.5836659669876099 </output>
						</split>
					</split>
					<split pos="right">
						<output> 0.7107448577880859 </output>
					</split>
				</split>
				<split pos="right">
					<feature> 15 </feature>
					<threshold> 0.13671875 </threshold>
					<split pos="left">
						<output> 0.14332711696624756 </output>
					</split>
					<split pos="right">
						<feature> 27 </feature>
						<threshold> 0.99609375 </threshold>
						<split pos="left">
							<feature> 28 </feature>
							<threshold> 0.140625 </threshold>
							<split pos="left">
								<output> -0.28616654872894287 </output>
							</split>
							<split pos="right">
								<output> 0.28846657276153564 </output>
							</split>
						</split>
						<split pos="right">
							<output> -0.7633289098739624 </output>
						</split>
					</split>
				</split>
			</split>
		</split>
	</tree>
	<tree id="50" weight="0.1">
		<split>
			<feature> 19 </feature>
			<threshold> 0.411765 </threshold>
			<split pos="left">
				<feature> 42 </feature>
				<threshold> 0.3984375 </threshold>
				<split pos="left">
					<feature> 20 </feature>
					<threshold> 0.01171875 </threshold>
					<split pos="left">
						<output> -0.2441502958536148 </output>
					</split>
					<split pos="right">
						<feature> 40 </feature>
						<threshold> 0.9609375 </threshold>
						<split pos="left">
							<feature> 24 </feature>
							<threshold> 0.96484375 </threshold>
							<split pos="left">
								<feature> 34 </feature>
								<threshold> 0.98828125 </threshold>
								<split pos="left">
									<feature> 22 </feature>
									<threshold> 0.953125 </threshold>
									<split pos="left">
										<feature> 38 </feature>
										<threshold> 0.953125 </threshold>
										<split pos="left">
											<feature> 38 </feature>
											<threshold> 0.9453125 </threshold>
											<split pos="left">
												<output> 0.08387365937232971 </output>
											</split>
											<split pos="right">
												<output> 0.7939890027046204 </output>
											</split>
										</split>
										<split pos="right">
											<output> -2.509974241256714 </output>
										</split>
									</split>
									<split pos="right">
										<output> 0.6638662219047546 </output>
									</split>
								</split>
								<split pos="right">
									<output> 0.7294036746025085 </output>
								</split>
							</split>
							<split pos="right">
								<output> 0.8777711391448975 </output>
							</split>
						</split>
						<split pos="right">
							<output> -0.28789740800857544 </output>
						</split>
					</split>
				</split>
				<split pos="right">
					<output> 0.36180272698402405 </output>
				</split>
			</split>
			<split pos="right">
				<output> -0.17114444077014923 </output>
			</split>
		</split>
	</tree>
	<tree id="51" weight="0.1">
		<split>
			<feature> 19 </feature>
			<threshold> 0.21875 </threshold>
			<split pos="left">
				<feature> 22 </feature>
				<threshold> 0.99609375 </threshold>
				<split pos="left">
					<feature> 24 </feature>
					<threshold> 0.9765625 </threshold>
					<split pos="left">
						<feature> 20 </feature>
						<threshold> 0.01171875 </threshold>
						<split pos="left">
							<output> -0.24387188255786896 </output>
						</split>
						<split pos="right">
							<feature> 25 </feature>
							<threshold> 0.671875 </threshold>
							<split pos="left">
								<output> 0.15981782972812653 </output>
							</split>
							<split pos="right">
								<output> 0.4774351418018341 </output>
							</split>
						</split>
					</split>
					<split pos="right">
						<output> 0.6907681822776794 </output>
					</split>
				</split>
				<split pos="right">
					<output> -0.26035013794898987 </output>
				</split>
			</split>
			<split pos="right">
				<feature> 27 </feature>
				<threshold> 0.73828125 </threshold>
				<split pos="left">
					<feature> 27 </feature>
					<threshold> 0.6015625 </threshold>
					<split pos="left">
						<feature> 17 </feature>
						<threshold> 0.39453125 </threshold>
						<split pos="left">
							<feature> 34 </feature>
							<threshold> 0.9921875 </threshold>
							<split pos="left">
								<output> -0.20093832910060883 </output>
							</split>
							<split pos="right">
								<output> 0.5943847298622131 </output>
							</split>
						</split>
						<split pos="right">
							<output> 0.24685388803482056 </output>
						</split>
					</split>
					<split pos="right">
						<output> 0.4235667884349823 </output>
					</split>
				</split>
				<split pos="right">
					<output> -0.38669973611831665 </output>
				</split>
			</split>
		</split>
	</tree>
	<tree id="52" weight="0.1">
		<split>
			<feature> 21 </feature>
			<threshold> 0.6328125 </threshold>
			<split pos="left">
				<feature> 23 </feature>
				<threshold> 0.89453125 </threshold>
				<split pos="left">
					<feature> 38 </feature>
					<threshold> 0.83984375 </threshold>
					<split pos="left">
						<feature> 39 </feature>
						<threshold> 0.87890625 </threshold>
						<split pos="left">
							<output> -0.17242741584777832 </output>
						</split>
						<split pos="right">
							<output> 1.4693243503570557 </output>
						</split>
					</split>
					<split pos="right">
						<output> 0.6565218567848206 </output>
					</split>
				</split>
				<split pos="right">
					<output> -0.6239457130432129 </output>
				</split>
			</split>
			<split pos="right">
				<feature> 15 </feature>
				<threshold> 0.19921875 </threshold>
				<split pos="left">
					<feature> 15 </feature>
					<threshold> 0.1875 </threshold>
					<split pos="left">
						<feature> 39 </feature>
						<threshold> 0.91796875 </threshold>
						<split pos="left">
							<output> 0.03699682280421257 </output>
						</split>
						<split pos="right">
							<output> 0.29783186316490173 </output>
						</split>
					</split>
					<split pos="right">
						<output> 0.9375160336494446 </output>
					</split>
				</split>
				<split pos="right">
					<feature> 42 </feature>
					<threshold> 0.07421875 </threshold>
					<split pos="left">
						<output> 0.3406141698360443 </output>
					</split>
					<split pos="right">
						<feature> 39 </feature>
						<threshold> 0.87109375 </threshold>
						<split pos="left">
							<output> 0.08198583126068115 </output>
						</split>
						<split pos="right">
							<output> -0.24715746939182281 </output>
						</split>
					</split>
				</split>
			</split>
		</split>
	</tree>
	<tree id="53" weight="0.1">
		<split>
			<feature> 24 </feature>
			<threshold> 0.453125 </threshold>
			<split pos="left">
				<output> -0.3692804276943207 </output>
			</split>
			<split pos="right">
				<feature> 39 </feature>
				<threshold> 0.8359375 </threshold>
				<split pos="left">
					<feature> 39 </feature>
					<threshold> 0.83203125 </threshold>
					<split pos="left">
						<feature> 34 </feature>
						<threshold> 0.9765625 </threshold>
						<split pos="left">
							<feature> 11 </feature>
							<threshold> 0.171875 </threshold>
							<split pos="left">
								<output> -0.07055730372667313 </output>
							</split>
							<split pos="right">
								<output> 0.261465847492218 </output>
							</split>
						</split>
						<split pos="right">
							<output> 0.4980911910533905 </output>
						</split>
					</split>
					<split pos="right">
						<output> 0.6378723978996277 </output>
					</split>
				</split>
				<split pos="right">
					<feature> 20 </feature>
					<threshold> 0.00390625 </threshold>
					<split pos="left">
						<output> -1.2405208349227905 </output>
					</split>
					<split pos="right">
						<feature> 1 </feature>
						<threshold> 0.015625 </threshold>
						<split pos="left">
							<output> 0.7835195064544678 </output>
						</split>
						<split pos="right">
							<feature> 32 </feature>
							<threshold> 0.96484375 </threshold>
							<split pos="left">
								<feature> 32 </feature>
								<threshold> 0.87890625 </threshold>
								<split pos="left">
									<output> -0.06022030860185623 </output>
								</split>
								<split pos="right">
									<output> 0.41879045963287354 </output>
								</split>
							</split>
							<split pos="right">
								<output> -0.5407055616378784 </output>
							</split>
						</split>
					</split>
				</split>
			</split>
		</split>
	</tree>
	<tree id="54" weight="0.1">
		<split>
			<feature> 19 </feature>
			<threshold> 0.411765 </threshold>
